{"learner":{"attributes":{"scikit_learn":"{\"_estimator_type\": \"classifier\"}"},"feature_names":[],"feature_types":[],"gradient_booster":{"model":{"gbtree_model_param":{"num_parallel_tree":"1","num_trees":"100"},"iteration_indptr":[0,1,2,3,4,5,6,7,8,9,10,11,12,13,14,15,16,17,18,19,20,21,22,23,24,25,26,27,28,29,30,31,32,33,34,35,36,37,38,39,40,41,42,43,44,45,46,47,48,49,50,51,52,53,54,55,56,57,58,59,60,61,62,63,64,65,66,67,68,69,70,71,72,73,74,75,76,77,78,79,80,81,82,83,84,85,86,87,88,89,90,91,92,93,94,95,96,97,98,99,100],"tree_info":[0,0,0,0,0,0,0,0,0,0,0,0,0,0,0,0,0,0,0,0,0,0,0,0,0,0,0,0,0,0,0,0,0,0,0,0,0,0,0,0,0,0,0,0,0,0,0,0,0,0,0,0,0,0,0,0,0,0,0,0,0,0,0,0,0,0,0,0,0,0,0,0,0,0,0,0,0,0,0,0,0,0,0,0,0,0,0,0,0,0,0,0,0,0,0,0,0,0,0,0],"trees":[{"base_weights":[3.4151302E-8,1.6472862E0,-5.9997654E-1,-5.99836E-1,1.857739E0,-5.9968203E-1,1.9709601E0,-5.97754E-1,1.9868655E0,-5.9185106E-1,1.9912091E0,-5.866535E-1,1.9938409E0,-5.764576E-1,1.9953078E0,-5.6064314E-1,1.9961615E0,-5.499876E-1,1.9968207E0,-5.454423E-1,5.9922606E-1],"categories":[],"categories_nodes":[],"categories_segments":[],"categories_sizes":[],"default_left":[0,0,0,0,0,0,0,0,0,0,0,0,0,0,0,0,0,0,0,0,0],"id":0,"left_children":[1,3,-1,-1,5,-1,7,-1,9,-1,11,-1,13,-1,15,-1,17,-1,19,-1,-1],"loss_changes":[4.390027E5,5.6082312E4,0E0,0E0,3.0169766E4,0E0,4.234828E3,0E0,1.1536875E3,0E0,6.9740625E2,0E0,3.87125E2,0E0,2.2375E2,0E0,1.7203125E2,0E0,1.5615625E2,0E0,0E0],"parents":[2147483647,0,0,1,1,4,4,6,6,8,8,10,10,12,12,14,14,16,16,18,18],"right_children":[2,4,-1,-1,6,-1,8,-1,10,-1,12,-1,14,-1,16,-1,18,-1,20,-1,-1],"split_conditions":[2.00001E0,2.00001E0,-5.9997654E-1,-5.99836E-1,2.00001E0,-5.9968203E-1,2.00001E0,-5.97754E-1,2.00001E0,-5.9185106E-1,2.00001E0,-5.866535E-1,2.00001E0,-5.764576E-1,2.00001E0,-5.6064314E-1,2.00001E0,-5.499876E-1,2.00001E0,-5.454423E-1,5.9922606E-1],"split_indices":[1,98,0,0,224,0,540,0,561,0,849,0,533,0,783,0,1409,0,1300,0,0],"split_type":[0,0,0,0,0,0,0,0,0,0,0,0,0,0,0,0,0,0,0,0,0],"sum_hessian":[1.332535E5,7.306875E4,6.018475E4,3.98625E3,6.90825E4,1.96975E3,6.711275E4,2.6775E2,6.6845E4,7.275E1,6.677225E4,4.4E1,6.672825E4,2.45E1,6.670375E4,1.425E1,6.66895E4,1.1E1,6.66785E4,1E1,6.66685E4],"tree_param":{"num_deleted":"0","num_feature":"4096","num_nodes":"21","size_leaf_vector":"1"}},{"base_weights":[-6.618785E-5,1.275254E0,-4.646315E-1,-4.645358E-1,1.4381766E0,-4.644308E-1,1.5258319E0,-4.6311745E-1,1.538157E0,-4.5910344E-1,1.5415322E0,-4.5557725E-1,1.5435821E0,-4.4868025E-1,1.5447301E0,-5.510518E-1,1.5454496E0,-6.4764684E-1,1.5460008E0,-7.0424557E-1,4.6393016E-1],"categories":[],"categories_nodes":[],"categories_segments":[],"categories_sizes":[],"default_left":[0,0,0,0,0,0,0,0,0,0,0,0,0,0,0,0,0,0,0,0,0],"id":1,"left_children":[1,3,-1,-1,5,-1,7,-1,9,-1,11,-1,13,-1,15,-1,17,-1,19,-1,-1],"loss_changes":[2.40888E5,3.077229E4,0E0,0E0,1.655543E4,0E0,2.3265312E3,0E0,6.360781E2,0E0,3.8575E2,0E0,2.154375E2,0E0,1.5142188E2,0E0,1.27984375E2,0E0,1.06515625E2,0E0,0E0],"parents":[2147483647,0,0,1,1,4,4,6,6,8,8,10,10,12,12,14,14,16,16,18,18],"right_children":[2,4,-1,-1,6,-1,8,-1,10,-1,12,-1,14,-1,16,-1,18,-1,20,-1,-1],"split_conditions":[2.00001E0,2.00001E0,-4.646315E-1,-4.645358E-1,2.00001E0,-4.644308E-1,2.00001E0,-4.6311745E-1,2.00001E0,-4.5910344E-1,2.00001E0,-4.5557725E-1,2.00001E0,-4.4868025E-1,2.00001E0,-5.510518E-1,2.00001E0,-6.4764684E-1,2.00001E0,-7.0424557E-1,4.6393016E-1],"split_indices":[1,98,0,0,224,0,540,0,561,0,849,0,533,0,1048,0,58,0,816,0,0],"split_type":[0,0,0,0,0,0,0,0,0,0,0,0,0,0,0,0,0,0,0,0,0],"sum_hessian":[1.2196072E5,6.688378E4,5.507694E4,3.648091E3,6.3235688E4,1.8027344E3,6.1432953E4,2.451848E2,6.118777E4,6.673257E1,6.112104E4,4.0420715E1,6.1080617E4,2.2571997E1,6.1058043E4,1.2447239E1,6.1045598E4,8.500255E0,6.1037098E4,6.1836443E0,6.1030914E4],"tree_param":{"num_deleted":"0","num_feature":"4096","num_nodes":"21","size_leaf_vector":"1"}},{"base_weights":[-1.5384951E-4,1.1064337E0,-4.0344545E-1,-4.0334603E-1,1.2477663E0,-1.3491113E0,1.3237876E0,-4.0323344E-1,-5.047542E-1,-4.0190968E-1,1.3347108E0,-3.9748037E-1,1.3375407E0,-3.9397904E-1,1.3393111E0,-4.3113455E-1,1.3402597E0,-2.1615207E0,1.340937E0,-3.3006144E-1,-8.1244963E-1,-4.6974704E-1,1.3415842E0,-5.166456E-1,4.026512E-1],"categories":[],"categories_nodes":[],"categories_segments":[],"categories_sizes":[],"default_left":[0,0,0,0,0,0,0,0,0,0,0,0,0,0,0,0,0,0,0,0,0,0,0,0,0],"id":2,"left_children":[1,3,-1,-1,5,7,9,-1,-1,-1,11,-1,13,-1,15,-1,17,19,21,-1,-1,-1,23,-1,-1],"loss_changes":[1.512999E5,1.9322969E4,0E0,0E0,1.0413172E4,2.397461E-1,1.4925078E3,0E0,0E0,0E0,3.8585156E2,0E0,2.4098438E2,0E0,1.3608594E2,0E0,1.2367969E2,2.9563713E0,9.789844E1,0E0,0E0,0E0,9.3765625E1,0E0,0E0],"parents":[2147483647,0,0,1,1,4,4,5,5,6,6,10,10,12,12,14,14,16,16,17,17,18,18,22,22],"right_children":[2,4,-1,-1,6,8,10,-1,-1,-1,12,-1,14,-1,16,-1,18,20,22,-1,-1,-1,24,-1,-1],"split_conditions":[2.00001E0,2.00001E0,-4.0344545E-1,-4.0334603E-1,2.00001E0,2.00001E0,2.00001E0,-4.0323344E-1,-5.047542E-1,-4.0190968E-1,2.00001E0,-3.9748037E-1,2.00001E0,-3.9397904E-1,2.00001E0,-4.3113455E-1,2.00001E0,2.00001E0,2.00001E0,-3.3006144E-1,-8.1244963E-1,-4.6974704E-1,2.00001E0,-5.166456E-1,4.026512E-1],"split_indices":[1,98,0,0,222,224,540,0,0,0,561,0,849,0,864,0,277,783,58,0,0,0,1300,0,0],"split_type":[0,0,0,0,0,0,0,0,0,0,0,0,0,0,0,0,0,0,0,0,0,0,0,0,0],"sum_hessian":[1.0167882E5,5.577726E4,4.590156E4,3.0405735E3,5.2736688E4,1.4994371E3,5.123725E4,1.4822399E3,1.7197252E1,2.0877419E2,5.1028477E4,5.3741802E1,5.0974734E4,3.3526775E1,5.0941207E4,1.6880672E1,5.092433E4,9.231453E0,5.0915098E4,4.1625237E0,5.068929E0,1.0795271E1,5.09043E4,9.179363E0,5.089512E4],"tree_param":{"num_deleted":"0","num_feature":"4096","num_nodes":"25","size_leaf_vector":"1"}},{"base_weights":[-2.6794855E-4,1.0110288E0,-3.6909887E-1,-3.689801E-1,1.1401399E0,-3.6922017E-1,1.2097383E0,-3.6722848E-1,1.21953E0,-3.6212593E-1,1.222224E0,-3.57929E-1,1.2238703E0,-3.8808802E-1,1.2249794E0,-4.7083512E-1,1.2257711E0,-4.7551277E-1,1.2265046E0,-5.7842046E-1,3.6813203E-1],"categories":[],"categories_nodes":[],"categories_segments":[],"categories_sizes":[],"default_left":[0,0,0,0,0,0,0,0,0,0,0,0,0,0,0,0,0,0,0,0,0],"id":3,"left_children":[1,3,-1,-1,5,-1,7,-1,9,-1,11,-1,13,-1,15,-1,17,-1,19,-1,-1],"loss_changes":[1.0100496E5,1.289432E4,0E0,0E0,6.953949E3,0E0,9.7697266E2,0E0,2.680078E2,0E0,1.633789E2,0E0,1.1521094E2,0E0,9.192969E1,0E0,8.578906E1,0E0,7.959766E1,0E0,0E0],"parents":[2147483647,0,0,1,1,4,4,6,6,8,8,10,10,12,12,14,14,16,16,18,18],"right_children":[2,4,-1,-1,6,-1,8,-1,10,-1,12,-1,14,-1,16,-1,18,-1,20,-1,-1],"split_conditions":[2.00001E0,2.00001E0,-3.6909887E-1,-3.689801E-1,2.00001E0,-3.6922017E-1,2.00001E0,-3.6722848E-1,2.00001E0,-3.6212593E-1,2.00001E0,-3.57929E-1,2.00001E0,-3.8808802E-1,2.00001E0,-4.7083512E-1,2.00001E0,-4.7551277E-1,2.00001E0,-5.7842046E-1,3.6813203E-1],"split_indices":[1,98,0,0,224,0,540,0,561,0,849,0,533,0,1048,0,1409,0,816,0,0],"split_type":[0,0,0,0,0,0,0,0,0,0,0,0,0,0,0,0,0,0,0,0,0],"sum_hessian":[8.11945E4,4.455979E4,3.663471E4,2.4269565E3,4.2132832E4,1.2010847E3,4.0931746E4,1.6351825E2,4.076823E4,4.47157E1,4.072351E4,2.7244064E1,4.069627E4,1.7408024E1,4.0678863E4,1.0960999E1,4.0667902E4,1.0046007E1,4.0657855E4,7.148008E0,4.0650707E4],"tree_param":{"num_deleted":"0","num_feature":"4096","num_nodes":"21","size_leaf_vector":"1"}},{"base_weights":[-3.9453726E-4,9.512283E-1,-3.477668E-1,-3.4761676E-1,1.0726639E0,-3.486739E-1,1.1380762E0,-3.4546292E-1,1.1474897E0,-3.58762E-1,1.1499406E0,-1.8017818E0,1.1512467E0,-3.157897E-1,-2.4919014E0,-3.2896054E-1,1.1524043E0,-2.8463486E-1,-9.2529E-1,-1.802811E0,1.153147E0,-2.6136458E-1,-6.3475025E-1,-4.7940078E-1,1.1539347E0,-4.740855E-1,3.464102E-1],"categories":[],"categories_nodes":[],"categories_segments":[],"categories_sizes":[],"default_left":[0,0,0,0,0,0,0,0,0,0,0,0,0,0,0,0,0,0,0,0,0,0,0,0,0,0,0],"id":4,"left_children":[1,3,-1,-1,5,-1,7,-1,9,-1,11,13,15,-1,17,-1,19,-1,-1,21,23,-1,-1,-1,25,-1,-1],"loss_changes":[6.9776164E4,8.903197E3,0E0,0E0,4.804078E3,0E0,6.8928125E2,0E0,1.8394922E2,0E0,1.2449609E2,4.8397903E0,8.386328E1,0E0,3.273426E0,0E0,7.171484E1,0E0,0E0,5.949631E-1,7.058594E1,0E0,0E0,0E0,6.823047E1,0E0,0E0],"parents":[2147483647,0,0,1,1,4,4,6,6,8,8,10,10,11,11,12,12,14,14,16,16,19,19,20,20,24,24],"right_children":[2,4,-1,-1,6,-1,8,-1,10,-1,12,14,16,-1,18,-1,20,-1,-1,22,24,-1,-1,-1,26,-1,-1],"split_conditions":[2.00001E0,2.00001E0,-3.477668E-1,-3.4761676E-1,2.00001E0,-3.486739E-1,2.00001E0,-3.4546292E-1,2.00001E0,-3.58762E-1,2.00001E0,2.00001E0,2.00001E0,-3.157897E-1,2.00001E0,-3.2896054E-1,2.00001E0,-2.8463486E-1,-9.2529E-1,2.00001E0,2.00001E0,-2.6136458E-1,-6.3475025E-1,-4.7940078E-1,2.00001E0,-4.740855E-1,3.464102E-1],"split_indices":[1,98,0,0,222,0,540,0,715,0,868,729,849,0,224,0,277,0,0,1048,1300,0,0,0,590,0,0],"split_type":[0,0,0,0,0,0,0,0,0,0,0,0,0,0,0,0,0,0,0,0,0,0,0,0,0,0,0],"sum_hessian":[6.32717E4,3.4741973E4,2.8529729E4,1.8902483E3,3.2851723E4,9.336992E2,3.1918025E4,1.3019232E2,3.1787832E4,3.2703136E1,3.1755129E4,1.3434824E1,3.1741695E4,7.652765E0,5.782059E0,1.5852091E1,3.1725842E4,2.3256488E0,3.4564102E0,7.3615227E0,3.171848E4,2.8029182E0,4.5586042E0,8.499195E0,3.1709982E4,8.302585E0,3.170168E4],"tree_param":{"num_deleted":"0","num_feature":"4096","num_nodes":"27","size_leaf_vector":"1"}},{"base_weights":[-5.995162E-4,9.107073E-1,-3.337293E-1,-3.3353493E-1,1.0269047E0,-3.337848E-1,1.0895693E0,-3.3069295E-1,1.098414E0,-3.2874113E-1,1.1010375E0,-1.441545E0,1.1026039E0,-2.926195E-1,-5.065033E-1,-3.7380478E-1,1.104089E0,-5.531535E-1,1.1051065E0,-1.101452E0,1.1056634E0,-9.263732E-1,3.3186734E-1],"categories":[],"categories_nodes":[],"categories_segments":[],"categories_sizes":[],"default_left":[0,0,0,0,0,0,0,0,0,0,0,0,0,0,0,0,0,0,0,0,0,0,0],"id":5,"left_children":[1,3,-1,-1,5,-1,7,-1,9,-1,11,13,15,-1,-1,-1,17,-1,19,-1,21,-1,-1],"loss_changes":[4.921835E4,6.274783E3,0E0,0E0,3.3859453E3,0E0,4.7671094E2,0E0,1.418418E2,0E0,9.876953E1,1.3138962E-1,8.643359E1,0E0,0E0,0E0,7.513281E1,0E0,6.887305E1,0E0,6.0734375E1,0E0,0E0],"parents":[2147483647,0,0,1,1,4,4,6,6,8,8,10,10,11,11,12,12,16,16,18,18,20,20],"right_children":[2,4,-1,-1,6,-1,8,-1,10,-1,12,14,16,-1,-1,-1,18,-1,20,-1,22,-1,-1],"split_conditions":[2.00001E0,2.00001E0,-3.337293E-1,-3.3353493E-1,2.00001E0,-3.337848E-1,2.00001E0,-3.3069295E-1,2.00001E0,-3.2874113E-1,2.00001E0,2.00001E0,2.00001E0,-2.926195E-1,-5.065033E-1,-3.7380478E-1,2.00001E0,-5.531535E-1,2.00001E0,-1.101452E0,2.00001E0,-9.263732E-1,3.3186734E-1],"split_indices":[1,98,0,0,224,0,540,0,561,0,816,849,533,0,0,0,59,0,890,0,534,0,0],"split_type":[0,0,0,0,0,0,0,0,0,0,0,0,0,0,0,0,0,0,0,0,0,0,0],"sum_hessian":[4.8574195E4,2.6694428E4,2.1879766E4,1.4498739E3,2.5244553E4,7.1787427E2,2.452668E4,9.807431E1,2.4428605E4,2.8676476E1,2.4399928E4,1.4456598E1,2.438547E4,6.718706E0,7.737892E0,1.4880659E1,2.4370592E4,7.782903E0,2.4362809E4,2.071837E0,2.4360736E4,2.5224354E0,2.4358213E4],"tree_param":{"num_deleted":"0","num_feature":"4096","num_nodes":"23","size_leaf_vector":"1"}},{"base_weights":[-8.677287E-4,8.816008E-1,-3.2414994E-1,-3.2389456E-1,9.939858E-1,-3.2563546E-1,1.0549209E0,-3.2026657E-1,1.063675E0,-3.1461683E-1,1.0661601E0,-3.2301044E-1,1.0682169E0,-4.3492013E-1,1.0696791E0,-1.3231091E0,1.070299E0,-6.530118E-1,1.0713441E0,-4.491303E-1,3.2178846E-1],"categories":[],"categories_nodes":[],"categories_segments":[],"categories_sizes":[],"default_left":[0,0,0,0,0,0,0,0,0,0,0,0,0,0,0,0,0,0,0,0,0],"id":6,"left_children":[1,3,-1,-1,5,-1,7,-1,9,-1,11,-1,13,-1,15,-1,17,-1,19,-1,-1],"loss_changes":[3.518951E4,4.480615E3,0E0,0E0,2.4368145E3,0E0,3.4813867E2,0E0,9.875391E1,0E0,8.302734E1,0E0,6.9890625E1,0E0,6.773828E1,0E0,6.527344E1,0E0,6.276172E1,0E0,0E0],"parents":[2147483647,0,0,1,1,4,4,6,6,8,8,10,10,12,12,14,14,16,16,18,18],"right_children":[2,4,-1,-1,6,-1,8,-1,10,-1,12,-1,14,-1,16,-1,18,-1,20,-1,-1],"split_conditions":[2.00001E0,2.00001E0,-3.2414994E-1,-3.2389456E-1,2.00001E0,-3.2563546E-1,2.00001E0,-3.2026657E-1,2.00001E0,-3.1461683E-1,2.00001E0,-3.2301044E-1,2.00001E0,-4.3492013E-1,2.00001E0,-1.3231091E0,2.00001E0,-6.530118E-1,2.00001E0,-4.491303E-1,3.2178846E-1],"split_indices":[1,98,0,0,222,0,540,0,561,0,849,0,783,0,1464,0,556,0,1300,0,0],"split_type":[0,0,0,0,0,0,0,0,0,0,0,0,0,0,0,0,0,0,0,0,0],"sum_hessian":[3.693301E4,2.032223E4,1.6610781E4,1.1009393E3,1.9221291E4,5.467403E2,1.867455E4,7.6209724E1,1.859834E4,2.1359179E1,1.8576982E4,1.7312473E1,1.855967E4,1.0197382E1,1.8549473E4,1.2934344E0,1.8548178E4,5.2980647E0,1.854288E4,8.682882E0,1.8534197E4],"tree_param":{"num_deleted":"0","num_feature":"4096","num_nodes":"21","size_leaf_vector":"1"}},{"base_weights":[-1.2086029E-3,8.597871E-1,-3.174526E-1,-3.1711444E-1,9.6927655E-1,-3.1790754E-1,1.0288256E0,-3.1224304E-1,1.0372126E0,-3.682218E-1,1.039654E0,-1.3872992E0,1.0404882E0,-3.0185813E-1,1.0428317E0,-4.1277474E-1,1.0447222E0,-4.3701145E-1,1.0464258E0,-5.029156E-1,3.143361E-1],"categories":[],"categories_nodes":[],"categories_segments":[],"categories_sizes":[],"default_left":[0,0,0,0,0,0,0,0,0,0,0,0,0,0,0,0,0,0,0,0,0],"id":7,"left_children":[1,3,-1,-1,5,-1,7,-1,9,-1,11,-1,13,-1,15,-1,17,-1,19,-1,-1],"loss_changes":[2.5390234E4,3.2279043E3,0E0,0E0,1.7584775E3,0E0,2.4636328E2,0E0,7.908984E1,0E0,7.124902E1,0E0,6.847656E1,0E0,6.565332E1,0E0,6.1322266E1,0E0,5.3728516E1,0E0,0E0],"parents":[2147483647,0,0,1,1,4,4,6,6,8,8,10,10,12,12,14,14,16,16,18,18],"right_children":[2,4,-1,-1,6,-1,8,-1,10,-1,12,-1,14,-1,16,-1,18,-1,20,-1,-1],"split_conditions":[2.00001E0,2.00001E0,-3.174526E-1,-3.1711444E-1,2.00001E0,-3.1790754E-1,2.00001E0,-3.1224304E-1,2.00001E0,-3.682218E-1,2.00001E0,-1.3872992E0,2.00001E0,-3.0185813E-1,2.00001E0,-4.1277474E-1,2.00001E0,-4.3701145E-1,2.00001E0,-5.029156E-1,3.143361E-1],"split_indices":[1,98,0,0,224,0,540,0,533,0,2489,0,561,0,816,0,1048,0,59,0,0],"split_type":[0,0,0,0,0,0,0,0,0,0,0,0,0,0,0,0,0,0,0,0,0],"sum_hessian":[2.7898016E4,1.5374374E4,1.2523643E4,8.302638E2,1.454411E4,4.1421188E2,1.4129898E4,5.65318E1,1.4073366E4,1.4614977E1,1.4058751E4,1.254348E0,1.4057497E4,1.5587188E1,1.404191E4,1.0399422E1,1.4031511E4,8.968293E0,1.4022542E4,6.3914104E0,1.401615E4],"tree_param":{"num_deleted":"0","num_feature":"4096","num_nodes":"21","size_leaf_vector":"1"}},{"base_weights":[-1.6703068E-3,8.422546E-1,-3.1269068E-1,-3.1224066E-1,9.493692E-1,-3.1557393E-1,1.0081476E0,-3.0596486E-1,1.0165601E0,-3.1866848E-1,1.0196747E0,-1.8526634E0,1.0217705E0,-2.2165594E-1,-6.05705E-1,-3.4106693E-1,1.024311E0,-8.9942634E-1,1.0255401E0,-4.2541003E-1,1.0276155E0,-1.0321039E0,3.0859223E-1],"categories":[],"categories_nodes":[],"categories_segments":[],"categories_sizes":[],"default_left":[0,0,0,0,0,0,0,0,0,0,0,0,0,0,0,0,0,0,0,0,0,0,0],"id":8,"left_children":[1,3,-1,-1,5,-1,7,-1,9,-1,11,13,15,-1,-1,-1,17,-1,19,-1,21,-1,-1],"loss_changes":[1.8429777E4,2.3383135E3,0E0,0E0,1.290874E3,0E0,1.8277539E2,0E0,6.9771484E1,0E0,6.566406E1,5.2337646E-3,5.9223633E1,0E0,0E0,0E0,5.5353516E1,0E0,5.507422E1,0E0,5.1926758E1,0E0,0E0],"parents":[2147483647,0,0,1,1,4,4,6,6,8,8,10,10,11,11,12,12,16,16,18,18,20,20],"right_children":[2,4,-1,-1,6,-1,8,-1,10,-1,12,14,16,-1,-1,-1,18,-1,20,-1,22,-1,-1],"split_conditions":[2.00001E0,2.00001E0,-3.1269068E-1,-3.1224066E-1,2.00001E0,-3.1557393E-1,2.00001E0,-3.0596486E-1,2.00001E0,-3.1866848E-1,2.00001E0,2.00001E0,2.00001E0,-2.2165594E-1,-6.05705E-1,-3.4106693E-1,2.00001E0,-8.9942634E-1,2.00001E0,-4.2541003E-1,2.00001E0,-1.0321039E0,3.0859223E-1],"split_indices":[1,98,0,0,222,0,540,0,849,0,630,224,715,0,0,0,258,0,1300,0,3510,0,0],"split_type":[0,0,0,0,0,0,0,0,0,0,0,0,0,0,0,0,0,0,0,0,0,0,0],"sum_hessian":[2.0983492E4,1.1586963E4,9.396529E3,6.231622E2,1.0963801E4,3.123412E2,1.065146E4,4.3504044E1,1.0607956E4,1.536103E1,1.0592595E4,7.079351E0,1.0585516E4,1.6270418E0,5.452309E0,1.19187355E1,1.0573597E4,2.4850442E0,1.0571111E4,8.39223E0,1.056272E4,1.6535232E0,1.0561066E4],"tree_param":{"num_deleted":"0","num_feature":"4096","num_nodes":"23","size_leaf_vector":"1"}},{"base_weights":[-2.3009635E-3,8.2683855E-1,-3.0926326E-1,-3.0866233E-1,9.3180597E-1,-3.1155E-1,9.894233E-1,-3.132661E-1,9.9756455E-1,-1.7907578E0,1.0004305E0,-2.1822219E-1,-6.0376287E-1,-3.7528995E-1,1.0038816E0,-2.0208216E0,1.006245E0,-2.5148863E-1,-7.734247E-1,-4.187226E-1,1.0090854E0,-1.0503064E0,1.010393E0,-4.3945763E-1,3.0383402E-1],"categories":[],"categories_nodes":[],"categories_segments":[],"categories_sizes":[],"default_left":[0,0,0,0,0,0,0,0,0,0,0,0,0,0,0,0,0,0,0,0,0,0,0,0,0],"id":9,"left_children":[1,3,-1,-1,5,-1,7,-1,9,11,13,-1,-1,-1,15,17,19,-1,-1,-1,21,-1,23,-1,-1],"loss_changes":[1.3427263E4,1.6989907E3,0E0,0E0,9.377246E2,0E0,1.3377734E2,0E0,6.560547E1,5.5431366E-1,6.3246582E1,0E0,0E0,0E0,5.89834E1,2.1566963E0,5.5722656E1,0E0,0E0,0E0,5.0431152E1,0E0,4.8461914E1,0E0,0E0],"parents":[2147483647,0,0,1,1,4,4,6,6,8,8,9,9,10,10,14,14,15,15,16,16,20,20,22,22],"right_children":[2,4,-1,-1,6,-1,8,-1,10,12,14,-1,-1,-1,16,18,20,-1,-1,-1,22,-1,24,-1,-1],"split_conditions":[2.00001E0,2.00001E0,-3.0926326E-1,-3.0866233E-1,2.00001E0,-3.1155E-1,2.00001E0,-3.132661E-1,2.00001E0,2.00001E0,2.00001E0,-2.1822219E-1,-6.0376287E-1,-3.7528995E-1,2.00001E0,2.00001E0,2.00001E0,-2.5148863E-1,-7.734247E-1,-4.187226E-1,2.00001E0,-1.0503064E0,2.00001E0,-4.3945763E-1,3.0383402E-1],"split_indices":[1,98,0,0,222,0,544,0,277,12,720,0,0,0,534,533,58,0,0,0,2489,0,590,0,0],"split_type":[0,0,0,0,0,0,0,0,0,0,0,0,0,0,0,0,0,0,0,0,0,0,0,0,0],"sum_hessian":[1.5742298E4,8.716272E3,7.026025E3,4.6616516E2,8.250107E3,2.339183E2,8.016189E3,3.1455729E1,7.9847334E3,7.5578904E0,7.977176E3,2.042912E0,5.5149784E0,1.1656258E1,7.965519E3,5.55243E0,7.959967E3,2.580607E0,2.9718232E0,8.822505E0,7.9511445E3,1.5286747E0,7.9496157E3,7.068916E0,7.942547E3],"tree_param":{"num_deleted":"0","num_feature":"4096","num_nodes":"25","size_leaf_vector":"1"}},{"base_weights":[-3.1755115E-3,8.1158006E-1,-3.0677292E-1,-3.0596867E-1,9.1434866E-1,-3.0824444E-1,9.7103256E-1,-3.1020328E-1,9.790163E-1,-4.396479E-1,9.830941E-1,-3.0017555E-1,9.8766786E-1,-2.3753498E0,9.9014974E-1,-1.9771387E-1,-8.26656E-1,-4.054518E-1,9.937922E-1,-3.994064E-1,9.9725944E-1,-3.552118E-1,3.0018997E-1],"categories":[],"categories_nodes":[],"categories_segments":[],"categories_sizes":[],"default_left":[0,0,0,0,0,0,0,0,0,0,0,0,0,0,0,0,0,0,0,0,0,0,0],"id":10,"left_children":[1,3,-1,-1,5,-1,7,-1,9,-1,11,-1,13,15,17,-1,-1,-1,19,-1,21,-1,-1],"loss_changes":[9.800387E3,1.2352905E3,0E0,0E0,6.845581E2,0E0,9.7612305E1,0E0,6.1361816E1,0E0,5.5441406E1,0E0,5.233496E1,1.2574177E0,5.238867E1,0E0,0E0,0E0,4.950586E1,0E0,4.5103516E1,0E0,0E0],"parents":[2147483647,0,0,1,1,4,4,6,6,8,8,10,10,12,12,13,13,14,14,18,18,20,20],"right_children":[2,4,-1,-1,6,-1,8,-1,10,-1,12,-1,14,16,18,-1,-1,-1,20,-1,22,-1,-1],"split_conditions":[2.00001E0,2.00001E0,-3.0677292E-1,-3.0596867E-1,2.00001E0,-3.0824444E-1,2.00001E0,-3.1020328E-1,2.00001E0,-4.396479E-1,2.00001E0,-3.0017555E-1,2.00001E0,2.00001E0,2.00001E0,-1.9771387E-1,-8.26656E-1,-4.054518E-1,2.00001E0,-3.994064E-1,2.00001E0,-3.552118E-1,3.0018997E-1],"split_indices":[1,98,0,0,224,0,544,0,816,0,561,0,890,533,1300,0,0,0,783,0,720,0,0],"split_type":[0,0,0,0,0,0,0,0,0,0,0,0,0,0,0,0,0,0,0,0,0,0,0],"sum_hessian":[1.1797699E4,6.557124E3,5.2405747E3,3.4791324E2,6.209211E3,1.7562624E2,6.033585E3,2.3419756E1,6.010165E3,9.412295E0,6.000753E3,1.3303145E1,5.9874497E3,3.7103314E0,5.9837393E3,1.1685209E0,2.5418105E0,8.718478E0,5.9750205E3,8.326501E0,5.9666943E3,8.674041E0,5.95802E3],"tree_param":{"num_deleted":"0","num_feature":"4096","num_nodes":"23","size_leaf_vector":"1"}},{"base_weights":[-4.135478E-3,7.9749423E-1,-3.0494854E-1,-3.0387092E-1,8.982211E-1,-3.0834383E-1,9.5472157E-1,-2.9037586E-1,9.629215E-1,-5.0182194E-1,9.6697253E-1,-3.4072825E-1,9.720406E-1,-9.0389997E-1,9.745686E-1,-8.2853407E-1,9.772507E-1,-4.6157682E-1,9.811883E-1,-4.9865294E-1,2.9540533E-1],"categories":[],"categories_nodes":[],"categories_segments":[],"categories_sizes":[],"default_left":[0,0,0,0,0,0,0,0,0,0,0,0,0,0,0,0,0,0,0,0,0],"id":11,"left_children":[1,3,-1,-1,5,-1,7,-1,9,-1,11,-1,13,-1,15,-1,17,-1,19,-1,-1],"loss_changes":[7.1672764E3,8.997134E2,0E0,0E0,5.0913672E2,0E0,7.246045E1,0E0,4.986035E1,0E0,4.918701E1,0E0,4.8286133E1,0E0,4.7790527E1,0E0,4.605957E1,0E0,4.313672E1,0E0,0E0],"parents":[2147483647,0,0,1,1,4,4,6,6,8,8,10,10,12,12,14,14,16,16,18,18],"right_children":[2,4,-1,-1,6,-1,8,-1,10,-1,12,-1,14,-1,16,-1,18,-1,20,-1,-1],"split_conditions":[2.00001E0,2.00001E0,-3.0494854E-1,-3.0387092E-1,2.00001E0,-3.0834383E-1,2.00001E0,-2.9037586E-1,2.00001E0,-5.0182194E-1,2.00001E0,-3.4072825E-1,2.00001E0,-9.0389997E-1,2.00001E0,-8.2853407E-1,2.00001E0,-4.6157682E-1,2.00001E0,-4.9865294E-1,2.9540533E-1],"split_indices":[1,98,0,0,222,0,540,0,277,0,533,0,774,0,258,0,59,0,590,0,0],"split_type":[0,0,0,0,0,0,0,0,0,0,0,0,0,0,0,0,0,0,0,0,0],"sum_hessian":[8.829726E3,4.927853E3,3.9018728E3,2.5924783E2,4.668605E3,1.3256131E2,4.536044E3,1.8766617E1,4.5172773E3,6.300336E0,4.510977E3,1.0309939E1,4.500667E3,2.098279E0,4.498569E3,2.489043E0,4.4960796E3,6.416887E0,4.4896626E3,5.3034687E0,4.4843594E3],"tree_param":{"num_deleted":"0","num_feature":"4096","num_nodes":"21","size_leaf_vector":"1"}},{"base_weights":[-5.6907735E-3,7.7963024E-1,-3.0360085E-1,-3.0215582E-1,8.7770605E-1,-3.0569556E-1,9.3275464E-1,1.0066984E0,6.9135576E-1,-2.4391343E-1,1.0098343E0,9.0580744E-1,-1.5908952E-3,-2.5641477E-1,3.0364564E-1,-4.2203617E-1,9.3107504E-1,7.9976165E-1,-1.2975838E0,-7.3346025E-1,9.448744E-1,-3.7845424E-1,8.5599387E-1,2.7990574E-1,-1.9765778E0,-3.7649265E-1,9.642741E-1,-3.128112E-1,9.0978247E-1,-2.980278E-1,-2.2311606E0,-6.651066E-1,9.749609E-1,-2.3009185E-1,9.4674516E-1,-3.0934843E-1,-2.4842963E0,-2.3385274E-1,2.9581633E-1,-1.6157617E-1,2.8985378E-1,-2.5064775E-1,-8.1195086E-1],"categories":[],"categories_nodes":[],"categories_segments":[],"categories_sizes":[],"default_left":[0,0,0,0,0,0,0,0,0,0,0,0,0,0,0,0,0,0,0,0,0,0,0,0,0,0,0,0,0,0,0,0,0,0,0,0,0,0,0,0,0,0,0],"id":12,"left_children":[1,3,-1,-1,5,-1,7,9,11,-1,13,15,17,-1,-1,-1,19,21,23,-1,25,-1,27,-1,29,-1,31,-1,33,-1,35,-1,37,-1,39,-1,41,-1,-1,-1,-1,-1,-1],"loss_changes":[5.232846E3,6.5263794E2,0E0,0E0,3.6911694E2,0E0,6.0479736E1,1.5780029E1,1.19899475E2,0E0,1.2176025E1,3.731372E1,2.0010889E2,0E0,0E0,0E0,3.073169E1,1.488047E1,1.133453E2,0E0,2.7171509E1,0E0,1.2846268E1,0E0,1.1990128E1,0E0,2.2681885E1,0E0,7.7805023E0,0E0,1.0889679E1,0E0,1.24904175E1,0E0,3.7480087E0,0E0,1.0876556E1,0E0,0E0,0E0,0E0,0E0,0E0],"parents":[2147483647,0,0,1,1,4,4,6,6,7,7,8,8,10,10,11,11,12,12,16,16,17,17,18,18,20,20,22,22,24,24,26,26,28,28,30,30,32,32,34,34,36,36],"right_children":[2,4,-1,-1,6,-1,8,10,12,-1,14,16,18,-1,-1,-1,20,22,24,-1,26,-1,28,-1,30,-1,32,-1,34,-1,36,-1,38,-1,40,-1,42,-1,-1,-1,-1,-1,-1],"split_conditions":[2.00001E0,2.00001E0,-3.0360085E-1,-3.0215582E-1,2.00001E0,-3.0569556E-1,2.00001E0,2.00001E0,2.00001E0,-2.4391343E-1,2.00001E0,2.00001E0,2.00001E0,-2.5641477E-1,3.0364564E-1,-4.2203617E-1,2.00001E0,2.00001E0,2.00001E0,-7.3346025E-1,2.00001E0,-3.7845424E-1,2.00001E0,2.7990574E-1,2.00001E0,-3.7649265E-1,2.00001E0,-3.128112E-1,2.00001E0,-2.980278E-1,2.00001E0,-6.651066E-1,2.00001E0,-2.3009185E-1,2.00001E0,-3.0934843E-1,2.00001E0,-2.3385274E-1,2.9581633E-1,-1.6157617E-1,2.8985378E-1,-2.5064775E-1,-8.1195086E-1],"split_indices":[1,98,0,0,222,0,10,540,19,0,868,630,12,0,0,0,1579,60,297,0,277,0,83,0,561,0,1494,0,720,0,849,0,540,0,540,0,540,0,0,0,0,0,0],"split_type":[0,0,0,0,0,0,0,0,0,0,0,0,0,0,0,0,0,0,0,0,0,0,0,0,0,0,0,0,0,0,0,0,0,0,0,0,0,0,0,0,0,0,0],"sum_hessian":[6.6195273E3,3.7181367E3,2.9013906E3,1.929819E2,3.5251548E3,9.893265E1,3.4262222E3,2.6203904E3,8.0583167E2,4.0636134E0,2.616327E3,6.1514935E2,1.9068231E2,2.7915585E0,2.6135352E3,6.0575924E0,6.0909174E2,1.18063126E2,7.261919E1,1.7623762E0,6.073294E2,2.566068E0,1.15497055E2,1.6859365E1,5.575982E1,4.7522573E0,6.0257715E2,2.67531E0,1.1282175E2,1.2477231E1,4.328259E1,1.3262298E0,6.012509E2,2.0074396E0,1.1081431E2,8.423624E0,3.4858963E1,3.3425984E0,5.979083E2,1.0861577E0,1.0972815E2,4.705258E0,3.0153706E1],"tree_param":{"num_deleted":"0","num_feature":"4096","num_nodes":"43","size_leaf_vector":"1"}},{"base_weights":[-6.4113513E-3,7.716547E-1,-3.0259484E-1,-3.0065694E-1,8.6871713E-1,-3.0312547E-1,9.23296E-1,1.0026346E0,6.694665E-1,-2.3095673E-1,1.0059477E0,8.844534E-1,-5.3373436E-3,-2.3705803E-1,3.0253875E-1,-3.783194E-1,9.10626E-1,7.650548E-1,-1.1975186E0,-3.561751E-1,9.341899E-1,-3.4089962E-1,8.2418257E-1,2.6996917E-1,-1.8062023E0,-6.530074E-1,9.496269E-1,-2.7696595E-1,8.8211006E-1,-2.866424E-1,-2.0041068E0,-6.0264796E-1,9.617955E-1,-2.1466897E-1,9.2397654E-1,-2.908751E-1,-2.2019594E0,-3.8070476E-1,2.913606E-1,1.7119877E-1,2.844318E-1,-2.3833837E-1,-7.110852E-1],"categories":[],"categories_nodes":[],"categories_segments":[],"categories_sizes":[],"default_left":[0,0,0,0,0,0,0,0,0,0,0,0,0,0,0,0,0,0,0,0,0,0,0,0,0,0,0,0,0,0,0,0,0,0,0,0,0,0,0,0,0,0,0],"id":13,"left_children":[1,3,-1,-1,5,-1,7,9,11,-1,13,15,17,-1,-1,-1,19,21,23,-1,25,-1,27,-1,29,-1,31,-1,33,-1,35,-1,37,-1,39,-1,41,-1,-1,-1,-1,-1,-1],"loss_changes":[3.8476936E3,4.7912268E2,0E0,0E0,2.7109497E2,0E0,5.0890137E1,1.2217651E1,8.889334E1,0E0,9.583984E0,2.724179E1,1.3779655E2,0E0,0E0,0E0,2.3832E1,1.1183201E1,7.68108E1,0E0,2.392273E1,0E0,9.820484E0,0E0,5.826126E0,0E0,1.8260345E1,0E0,6.455742E0,0E0,5.3133545E0,0E0,1.0725128E1,0E0,1.8235016E-1,0E0,5.167679E0,0E0,0E0,0E0,0E0,0E0,0E0],"parents":[2147483647,0,0,1,1,4,4,6,6,7,7,8,8,10,10,11,11,12,12,16,16,17,17,18,18,20,20,22,22,24,24,26,26,28,28,30,30,32,32,34,34,36,36],"right_children":[2,4,-1,-1,6,-1,8,10,12,-1,14,16,18,-1,-1,-1,20,22,24,-1,26,-1,28,-1,30,-1,32,-1,34,-1,36,-1,38,-1,40,-1,42,-1,-1,-1,-1,-1,-1],"split_conditions":[2.00001E0,2.00001E0,-3.0259484E-1,-3.0065694E-1,2.00001E0,-3.0312547E-1,2.00001E0,2.00001E0,2.00001E0,-2.3095673E-1,2.00001E0,2.00001E0,2.00001E0,-2.3705803E-1,3.0253875E-1,-3.783194E-1,2.00001E0,2.00001E0,2.00001E0,-3.561751E-1,2.00001E0,-3.4089962E-1,2.00001E0,2.6996917E-1,2.00001E0,-6.530074E-1,2.00001E0,-2.7696595E-1,2.00001E0,-2.866424E-1,2.00001E0,-6.0264796E-1,2.00001E0,-2.1466897E-1,2.00001E0,-2.908751E-1,2.00001E0,-3.8070476E-1,2.913606E-1,1.7119877E-1,2.844318E-1,-2.3833837E-1,-7.110852E-1],"split_indices":[1,98,0,0,222,0,10,540,19,0,868,630,12,0,0,0,556,60,297,0,1579,0,58,0,561,0,1494,0,720,0,849,0,59,0,4,0,540,0,0,0,0,0,0],"split_type":[0,0,0,0,0,0,0,0,0,0,0,0,0,0,0,0,0,0,0,0,0,0,0,0,0,0,0,0,0,0,0,0,0,0,0,0,0,0,0,0,0,0,0],"sum_hessian":[4.93216E3,2.776733E3,2.1554272E3,1.4357268E2,2.6331602E3,7.382632E1,2.559334E3,1.9476216E3,6.1171234E2,3.2019877E0,1.9444196E3,4.6367776E2,1.4803458E2,2.280599E0,1.942139E3,5.0194836E0,4.5865826E2,9.014245E1,5.789213E1,4.5460157E0,4.5411224E2,2.1691813E0,8.797327E1,1.291408E1,4.4978054E1,1.5509868E0,4.5256128E2,2.343493E0,8.5629776E1,9.588435E0,3.5389618E1,1.1816927E0,4.5137958E2,1.7756945E0,8.385408E1,6.6289515E0,2.8760666E1,1.3330135E0,4.5004657E2,6.9364967E0,7.691759E1,3.6830988E0,2.5077568E1],"tree_param":{"num_deleted":"0","num_feature":"4096","num_nodes":"43","size_leaf_vector":"1"}},{"base_weights":[-7.497302E-3,7.6202035E-1,-3.0183244E-1,-2.9923475E-1,8.578556E-1,-3.0047512E-1,9.1186213E-1,9.991834E-1,6.404476E-1,-2.1730942E-1,1.0027285E0,8.544173E-1,-1.2508146E-2,-2.186371E-1,3.0164725E-1,-3.43798E-1,8.812807E-1,7.200789E-1,-1.1227001E0,-5.463779E-1,8.982005E-1,-3.13035E-1,7.811374E-1,8.579714E-1,-1.6845465E0,-3.135084E-1,9.2307776E-1,-2.4826238E-1,8.414305E-1,7.01091E-2,2.7163738E-1,-2.753022E-1,-1.8458953E0,-5.463862E-1,9.367156E-1,-1.968747E-1,8.8547456E-1,-2.7401313E-1,-2.009239E0,-2.3699987E-1,2.8711012E-1,-1.6527061E-1,2.758064E-1,-2.2515073E-1,-6.438938E-1],"categories":[],"categories_nodes":[],"categories_segments":[],"categories_sizes":[],"default_left":[0,0,0,0,0,0,0,0,0,0,0,0,0,0,0,0,0,0,0,0,0,0,0,0,0,0,0,0,0,0,0,0,0,0,0,0,0,0,0,0,0,0,0,0,0],"id":14,"left_children":[1,3,-1,-1,5,-1,7,9,11,-1,13,15,17,-1,-1,-1,19,21,23,-1,25,-1,27,29,31,-1,33,-1,35,-1,-1,-1,37,-1,39,-1,41,-1,43,-1,-1,-1,-1,-1,-1],"loss_changes":[2.82717E3,3.5122644E2,0E0,0E0,1.9885352E2,0E0,4.4769287E1,9.572388E0,6.5558395E1,0E0,7.64563E0,1.9999786E1,9.578796E1,0E0,0E0,0E0,1.7606354E1,8.456444E0,5.3544224E1,0E0,1.7776001E1,0E0,7.4044724E0,1.14727974E-1,2.8605194E0,0E0,1.4577087E1,0E0,5.011162E0,0E0,0E0,0E0,2.6463165E0,0E0,1.2784546E1,0E0,3.7020912E0,0E0,2.5651016E0,0E0,0E0,0E0,0E0,0E0,0E0],"parents":[2147483647,0,0,1,1,4,4,6,6,7,7,8,8,10,10,11,11,12,12,16,16,17,17,18,18,20,20,22,22,23,23,24,24,26,26,28,28,32,32,34,34,36,36,38,38],"right_children":[2,4,-1,-1,6,-1,8,10,12,-1,14,16,18,-1,-1,-1,20,22,24,-1,26,-1,28,30,32,-1,34,-1,36,-1,-1,-1,38,-1,40,-1,42,-1,44,-1,-1,-1,-1,-1,-1],"split_conditions":[2.00001E0,2.00001E0,-3.0183244E-1,-2.9923475E-1,2.00001E0,-3.0047512E-1,2.00001E0,2.00001E0,2.00001E0,-2.1730942E-1,2.00001E0,2.00001E0,2.00001E0,-2.186371E-1,3.0164725E-1,-3.43798E-1,2.00001E0,2.00001E0,2.00001E0,-5.463779E-1,2.00001E0,-3.13035E-1,2.00001E0,2.00001E0,2.00001E0,-3.135084E-1,2.00001E0,-2.4826238E-1,2.00001E0,7.01091E-2,2.7163738E-1,-2.753022E-1,2.00001E0,-5.463862E-1,2.00001E0,-1.968747E-1,2.00001E0,-2.7401313E-1,2.00001E0,-2.3699987E-1,2.8711012E-1,-1.6527061E-1,2.758064E-1,-2.2515073E-1,-6.438938E-1],"split_indices":[1,98,0,0,222,0,10,540,19,0,868,630,12,0,0,0,1579,60,297,0,556,0,58,4,561,0,1494,0,720,0,0,0,849,0,540,0,540,0,540,0,0,0,0,0,0],"split_type":[0,0,0,0,0,0,0,0,0,0,0,0,0,0,0,0,0,0,0,0,0,0,0,0,0,0,0,0,0,0,0,0,0,0,0,0,0,0,0,0,0,0,0,0,0],"sum_hessian":[3.6770642E3,2.076881E3,1.6001831E3,1.0679479E2,1.9700863E3,5.5109993E1,1.9149763E3,1.4468159E3,4.681604E2,2.5523574E0,1.4442635E3,3.5237927E2,1.15781136E2,1.8818191E0,1.4423818E3,4.1173363E0,3.4826193E2,6.996466E1,4.5816483E1,1.5033047E0,3.4675864E2,1.802898E0,6.816176E1,1.0008071E1,3.580841E1,3.8647575E0,3.428939E2,2.0026903E0,6.6159065E1,1.1260443E0,8.882027E0,7.386888E0,2.8421522E1,1.0401361E0,3.4185373E2,1.492947E0,6.466612E1,5.2188997E0,2.3202621E1,3.5352015E0,3.3831854E2,1.1384892E0,6.3527634E1,2.9144678E0,2.0288155E1],"tree_param":{"num_deleted":"0","num_feature":"4096","num_nodes":"45","size_leaf_vector":"1"}},{"base_weights":[-8.921633E-3,7.5174606E-1,-3.012408E-1,-3.024389E-1,8.4673315E-1,-2.9802516E-1,9.072332E-1,9.9673766E-1,6.33748E-1,-2.0377679E-1,1.000612E0,8.4180284E-1,3.978137E-3,-2.0132245E-1,3.011058E-1,-3.117474E-1,8.720364E-1,7.328941E-1,-1.0550344E0,-3.1492493E-1,9.005346E-1,-1.7678562E-1,8.879579E-1,2.6654622E-1,-1.5896354E0,-4.5384252E-1,9.201577E-1,2.3317443E-1,-2.8392363E-1,6.8970984E-1,2.9150942E-1,-2.6354483E-1,-1.7253766E0,-2.2350506E-1,9.4133705E-1,2.6604366E-1,2.663647E-1,-2.5792307E-1,-1.8653448E0,-3.3052066E-1,2.8750536E-1,2.1139143E-1,-3.5150245E-2,-2.1137169E-1,-5.949323E-1],"categories":[],"categories_nodes":[],"categories_segments":[],"categories_sizes":[],"default_left":[0,0,0,0,0,0,0,0,0,0,0,0,0,0,0,0,0,0,0,0,0,0,0,0,0,0,0,0,0,0,0,0,0,0,0,0,0,0,0,0,0,0,0,0,0],"id":15,"left_children":[1,3,-1,-1,5,-1,7,9,11,-1,13,15,17,-1,-1,-1,19,21,23,-1,25,27,29,-1,31,-1,33,-1,-1,35,-1,-1,37,-1,39,41,-1,-1,43,-1,-1,-1,-1,-1,-1],"loss_changes":[2.076731E3,2.6077277E2,0E0,0E0,1.6519885E2,0E0,3.435559E1,7.6610107E0,4.653517E1,0E0,6.187744E0,1.6088684E1,6.9634575E1,0E0,0E0,0E0,1.53654175E1,7.6934834E0,3.962536E1,0E0,1.37043915E1,7.061145E0,9.037018E-2,0E0,1.3033066E0,0E0,9.81839E0,0E0,0E0,1.1953468E0,0E0,0E0,1.2417221E0,0E0,9.944489E0,1.2358354E0,0E0,0E0,1.2493286E0,0E0,0E0,0E0,0E0,0E0,0E0],"parents":[2147483647,0,0,1,1,4,4,6,6,7,7,8,8,10,10,11,11,12,12,16,16,17,17,18,18,20,20,21,21,22,22,24,24,26,26,29,29,32,32,34,34,35,35,38,38],"right_children":[2,4,-1,-1,6,-1,8,10,12,-1,14,16,18,-1,-1,-1,20,22,24,-1,26,28,30,-1,32,-1,34,-1,-1,36,-1,-1,38,-1,40,42,-1,-1,44,-1,-1,-1,-1,-1,-1],"split_conditions":[2.00001E0,2.00001E0,-3.012408E-1,-3.024389E-1,2.00001E0,-2.9802516E-1,2.00001E0,2.00001E0,2.00001E0,-2.0377679E-1,2.00001E0,2.00001E0,2.00001E0,-2.0132245E-1,3.011058E-1,-3.117474E-1,2.00001E0,2.00001E0,2.00001E0,-3.1492493E-1,2.00001E0,2.00001E0,2.00001E0,2.6654622E-1,2.00001E0,-4.5384252E-1,2.00001E0,2.3317443E-1,-2.8392363E-1,2.00001E0,2.9150942E-1,-2.6354483E-1,2.00001E0,-2.2350506E-1,2.00001E0,2.00001E0,2.663647E-1,-2.5792307E-1,2.00001E0,-3.3052066E-1,2.8750536E-1,2.1139143E-1,-3.5150245E-2,-2.1137169E-1,-5.949323E-1],"split_indices":[1,58,0,0,222,0,10,540,19,0,868,277,12,0,0,0,630,4,297,0,1579,64,35,0,561,0,540,0,0,289,0,0,849,0,258,13,0,0,540,0,0,0,0,0,0],"split_type":[0,0,0,0,0,0,0,0,0,0,0,0,0,0,0,0,0,0,0,0,0,0,0,0,0,0,0,0,0,0,0,0,0,0,0,0,0,0,0,0,0,0,0,0,0],"sum_hessian":[2.7412734E3,1.5538618E3,1.1874116E3,7.908061E1,1.4747812E3,4.6453274E1,1.428328E3,1.0741444E3,3.541836E2,2.0752947E0,1.0720691E3,2.6597702E2,8.820659E1,1.5688839E0,1.0705002E3,3.679635E0,2.6229736E2,5.2428272E1,3.5778316E1,3.3091292E0,2.5898825E2,7.6149845E0,4.481329E1,7.5755873E0,2.8202728E1,1.4751422E0,2.575131E2,3.3957224E0,4.219262E0,1.605074E1,2.876255E1,5.717951E0,2.2484777E1,2.8049493E0,2.5470816E2,5.8616977E0,1.0189041E1,4.123767E0,1.8361012E1,1.5770674E0,2.5313109E2,2.3422096E0,3.519488E0,2.3343725E0,1.6026638E1],"tree_param":{"num_deleted":"0","num_feature":"4096","num_nodes":"45","size_leaf_vector":"1"}},{"base_weights":[-9.940909E-3,7.425727E-1,-3.0076432E-1,-3.0000836E-1,8.3658206E-1,-2.9507044E-1,8.965844E-1,9.939976E-1,6.074537E-1,-1.897665E-1,9.9825567E-1,8.147014E-1,3.681709E-3,-1.8522803E-1,3.0051512E-1,-2.849814E-1,8.4618473E-1,6.9874597E-1,-1.0025461E0,-2.888011E-1,8.760329E-1,-1.5202187E-1,8.5313374E-1,2.571343E-1,-1.5013934E0,-3.823134E-1,8.9819694E-1,2.1990244E-1,-2.468254E-1,6.2740844E-1,2.878697E-1,-2.511101E-1,-1.6134492E0,-3.0977222E-1,9.163621E-1,2.311838E-1,2.539108E-1,-2.4215049E-1,-1.730641E0,-2.0953217E-1,2.816887E-1,1.9741732E-1,-2.6338907E-2,-1.9736117E-1,-5.4911023E-1],"categories":[],"categories_nodes":[],"categories_segments":[],"categories_sizes":[],"default_left":[0,0,0,0,0,0,0,0,0,0,0,0,0,0,0,0,0,0,0,0,0,0,0,0,0,0,0,0,0,0,0,0,0,0,0,0,0,0,0,0,0,0,0,0,0],"id":16,"left_children":[1,3,-1,-1,5,-1,7,9,11,-1,13,15,17,-1,-1,-1,19,21,23,-1,25,27,29,-1,31,-1,33,-1,-1,35,-1,-1,37,-1,39,41,-1,-1,43,-1,-1,-1,-1,-1,-1],"loss_changes":[1.5275383E3,1.9139325E2,0E0,0E0,1.2147577E2,0E0,2.9518494E1,6.161255E0,3.4044273E1,0E0,5.0738525E0,1.2057358E1,5.003252E1,0E0,0E0,0E0,1.1616547E1,5.686697E0,2.8401321E1,0E0,1.0525528E1,4.96438E0,2.618847E-1,0E0,3.922119E-1,0E0,7.7994537E0,0E0,0E0,1.0546465E0,0E0,0E0,3.9392853E-1,0E0,7.739792E0,9.435576E-1,0E0,0E0,4.7266388E-1,0E0,0E0,0E0,0E0,0E0,0E0],"parents":[2147483647,0,0,1,1,4,4,6,6,7,7,8,8,10,10,11,11,12,12,16,16,17,17,18,18,20,20,21,21,22,22,24,24,26,26,29,29,32,32,34,34,35,35,38,38],"right_children":[2,4,-1,-1,6,-1,8,10,12,-1,14,16,18,-1,-1,-1,20,22,24,-1,26,28,30,-1,32,-1,34,-1,-1,36,-1,-1,38,-1,40,42,-1,-1,44,-1,-1,-1,-1,-1,-1],"split_conditions":[2.00001E0,2.00001E0,-3.0076432E-1,-3.0000836E-1,2.00001E0,-2.9507044E-1,2.00001E0,2.00001E0,2.00001E0,-1.897665E-1,2.00001E0,2.00001E0,2.00001E0,-1.8522803E-1,3.0051512E-1,-2.849814E-1,2.00001E0,2.00001E0,2.00001E0,-2.888011E-1,2.00001E0,2.00001E0,2.00001E0,2.571343E-1,2.00001E0,-3.823134E-1,2.00001E0,2.1990244E-1,-2.468254E-1,2.00001E0,2.878697E-1,-2.511101E-1,2.00001E0,-3.0977222E-1,2.00001E0,2.00001E0,2.539108E-1,-2.4215049E-1,2.00001E0,-2.0953217E-1,2.816887E-1,1.9741732E-1,-2.6338907E-2,-1.9736117E-1,-5.4911023E-1],"split_indices":[1,58,0,0,222,0,10,540,19,0,868,277,12,0,0,0,630,4,297,0,1579,64,35,0,561,0,258,0,0,289,0,0,849,0,540,13,0,0,540,0,0,0,0,0,0],"split_type":[0,0,0,0,0,0,0,0,0,0,0,0,0,0,0,0,0,0,0,0,0,0,0,0,0,0,0,0,0,0,0,0,0,0,0,0,0,0,0,0,0,0,0,0,0],"sum_hessian":[2.0430371E3,1.162202E3,8.808351E2,5.899556E1,1.1032064E3,3.4716E1,1.0684905E3,7.97396E2,2.7109445E2,1.6967776E0,7.956992E2,2.01559E2,6.9535446E1,1.3218179E0,7.9437744E2,3.021676E0,1.9853732E2,4.130742E1,2.822803E1,2.715582E0,1.9582175E2,6.347004E0,3.4960415E1,5.818599E0,2.240943E1,1.4213518E0,1.9440039E2,2.696332E0,3.650672E0,1.34115505E1,2.1548864E1,4.456626E0,1.7952805E1,1.291426E0,1.9310898E2,5.5052485E0,7.9063015E0,3.2792327E0,1.4673571E1,2.252625E0,1.9085634E2,1.8998187E0,3.6054296E0,1.8941962E0,1.2779375E1],"tree_param":{"num_deleted":"0","num_feature":"4096","num_nodes":"45","size_leaf_vector":"1"}},{"base_weights":[-1.1259024E-2,7.312801E-1,-3.0035877E-1,-2.9732943E-1,8.240774E-1,-2.916222E-1,8.8347286E-1,9.911705E-1,5.756402E-1,-1.7609216E-1,9.9591404E-1,2.950398E-1,2.3624623E-1,-1.7041296E-1,2.9995722E-1,-6.258674E-1,5.710242E-1,6.7452794E-1,-1.079504E0,-3.2396597E-1,6.4817876E-1,-5.8281414E-2,2.6140055E-1,2.5134942E-1,-1.6144841E0,-4.0546116E-1,7.0626044E-1,-7.9399747E-1,-4.2314413E-1,-2.3227899E-1,7.815875E-1,-2.2963713E-1,2.4803655E-1],"categories":[],"categories_nodes":[],"categories_segments":[],"categories_sizes":[],"default_left":[0,0,0,0,0,0,0,0,0,0,0,0,0,0,0,0,0,0,0,0,0,0,0,0,0,0,0,0,0,0,0,0,0],"id":17,"left_children":[1,3,-1,-1,5,-1,7,9,11,-1,13,-1,15,-1,-1,17,19,21,23,-1,25,-1,-1,-1,27,-1,29,-1,-1,-1,31,-1,-1],"loss_changes":[1.1221362E3,1.4023743E2,0E0,0E0,8.921875E1,0E0,2.6026611E1,5.0233765E0,2.8878197E1,0E0,4.2160034E0,0E0,3.3867092E1,0E0,0E0,2.0166912E1,1.1418888E1,1.7316966E0,2.6805828E1,0E0,1.036475E1,0E0,0E0,0E0,4.241295E-1,0E0,9.459E0,0E0,0E0,0E0,5.950466E0,0E0,0E0],"parents":[2147483647,0,0,1,1,4,4,6,6,7,7,8,8,10,10,12,12,15,15,16,16,17,17,18,18,20,20,24,24,26,26,30,30],"right_children":[2,4,-1,-1,6,-1,8,10,12,-1,14,-1,16,-1,-1,18,20,22,24,-1,26,-1,-1,-1,28,-1,30,-1,-1,-1,32,-1,-1],"split_conditions":[2.00001E0,2.00001E0,-3.0035877E-1,-2.9732943E-1,2.00001E0,-2.916222E-1,2.00001E0,2.00001E0,2.00001E0,-1.7609216E-1,2.00001E0,2.950398E-1,2.00001E0,-1.7041296E-1,2.9995722E-1,2.00001E0,2.00001E0,2.00001E0,2.00001E0,-3.2396597E-1,2.00001E0,-5.8281414E-2,2.6140055E-1,2.5134942E-1,2.00001E0,-4.0546116E-1,2.00001E0,-7.9399747E-1,-4.2314413E-1,-2.3227899E-1,2.00001E0,-2.2963713E-1,2.4803655E-1],"split_indices":[1,58,0,0,222,0,10,540,13,0,868,0,4,0,0,64,630,63,29,0,105,0,0,0,81,0,540,0,0,0,87,0,0],"split_type":[0,0,0,0,0,0,0,0,0,0,0,0,0,0,0,0,0,0,0,0,0,0,0,0,0,0,0,0,0,0,0,0,0],"sum_hessian":[1.5245809E3,8.712949E2,6.53286E2,4.4048374E1,8.272466E2,2.5988031E1,8.0125854E2,5.919429E2,2.0931564E2,1.4060798E0,5.905368E2,9.42111E1,1.15104546E2,1.1254275E0,5.894114E2,3.1952246E1,8.31523E1,8.137717E0,2.381453E1,3.1323173E0,8.001998E1,1.5053371E0,6.63238E0,5.071716E0,1.8742813E1,1.6300138E0,7.838997E1,1.1171122E0,1.7625702E1,3.3460453E0,7.504392E1,1.6780107E0,7.336591E1],"tree_param":{"num_deleted":"0","num_feature":"4096","num_nodes":"33","size_leaf_vector":"1"}},{"base_weights":[-1.3161028E-2,7.182019E-1,-2.99987E-1,-3.0507997E-1,8.085278E-1,-2.975658E-1,8.682888E-1,9.8809576E-1,5.412327E-1,-1.6153404E-1,2.9800227E-1,2.913698E-1,2.0743091E-1,6.973793E-1,-3.600601E-1,7.5924516E-2,8.560391E-1,7.40882E-1,-9.900531E-1,4.4997805E-1,-2.9445833E-1,-2.3286553E-1,2.7557138E-1,-2.2139513E-1,2.7440235E-1,3.2308575E-2,-1.23872E0,2.3995405E-1,2.613213E-2,-2.1904607E-1,2.2318989E-1,1.7610256E-1,-1.3860767E0,1.371129E-1,-1.862357E-1,-1.2855037E-2,-4.411393E-1],"categories":[],"categories_nodes":[],"categories_segments":[],"categories_sizes":[],"default_left":[0,0,0,0,0,0,0,0,0,0,0,0,0,0,0,0,0,0,0,0,0,0,0,0,0,0,0,0,0,0,0,0,0,0,0,0,0],"id":18,"left_children":[1,3,-1,-1,5,-1,7,9,11,-1,-1,-1,13,15,17,19,21,23,25,27,-1,-1,-1,-1,-1,29,31,-1,33,-1,-1,-1,35,-1,-1,-1,-1],"loss_changes":[8.2312067E2,1.03486664E2,0E0,0E0,6.791354E1,0E0,2.3120544E1,4.063019E0,2.3348114E1,0E0,0E0,0E0,2.628632E1,4.9234467E0,3.1282646E1,4.9456763E0,4.816765E0,4.942176E0,7.2708874E0,1.328118E0,0E0,0E0,0E0,0E0,0E0,4.0914235E0,6.975403E0,0E0,1.7186474E0,0E0,0E0,0E0,2.372963E0,0E0,0E0,0E0,0E0],"parents":[2147483647,0,0,1,1,4,4,6,6,7,7,8,8,12,12,13,13,14,14,15,15,16,16,17,17,18,18,19,19,25,25,26,26,28,28,32,32],"right_children":[2,4,-1,-1,6,-1,8,10,12,-1,-1,-1,14,16,18,20,22,24,26,28,-1,-1,-1,-1,-1,30,32,-1,34,-1,-1,-1,36,-1,-1,-1,-1],"split_conditions":[2.00001E0,2.00001E0,-2.99987E-1,-3.0507997E-1,2.00001E0,-2.975658E-1,2.00001E0,2.00001E0,2.00001E0,-1.6153404E-1,2.9800227E-1,2.913698E-1,2.00001E0,2.00001E0,2.00001E0,2.00001E0,2.00001E0,2.00001E0,2.00001E0,2.00001E0,-2.9445833E-1,-2.3286553E-1,2.7557138E-1,-2.2139513E-1,2.7440235E-1,2.00001E0,2.00001E0,2.3995405E-1,2.00001E0,-2.1904607E-1,2.2318989E-1,1.7610256E-1,2.00001E0,1.371129E-1,-1.862357E-1,-1.2855037E-2,-4.411393E-1],"split_indices":[1,59,0,0,224,0,10,540,13,0,0,0,12,4,289,3,630,630,64,11,0,0,0,0,0,540,117,0,64,0,0,0,27,0,0,0,0],"split_type":[0,0,0,0,0,0,0,0,0,0,0,0,0,0,0,0,0,0,0,0,0,0,0,0,0,0,0,0,0,0,0,0,0,0,0,0,0],"sum_hessian":[1.1385261E3,6.5404974E2,4.8447638E2,3.185554E1,6.221942E2,1.9487858E1,6.0270636E2,4.396375E2,1.6306886E2,1.1572978E0,4.384802E2,7.043091E1,9.263796E1,4.9592747E1,4.3045216E1,1.0386884E1,3.920586E1,1.560272E1,2.7442495E1,8.097143E0,2.28974E0,1.0254612E0,3.81804E1,1.2993879E0,1.4303332E1,5.5391355E0,2.190336E1,3.9496992E0,4.147444E0,2.6615694E0,2.8775659E0,1.4129926E0,2.0490368E1,2.6654794E0,1.4819646E0,1.3003318E0,1.9190037E1],"tree_param":{"num_deleted":"0","num_feature":"4096","num_nodes":"37","size_leaf_vector":"1"}},{"base_weights":[-1.3976175E-2,7.0597273E-1,-2.9961517E-1,-3.036694E-1,7.949262E-1,-2.9299396E-1,8.5415673E-1,9.813336E-1,5.182903E-1,-1.7218229E-1,2.9654106E-1,2.875361E-1,1.9208202E-1,6.470515E-1,-3.3966795E-1,6.3278325E-2,2.4595766E-1,6.971593E-1,-9.207804E-1,2.2743498E-1,-3.4330133E-1,-2.0167166E-1,2.6466507E-1,2.9269747E-2,-1.1529642E0,4.1026306E-1,-4.3605617E-1,-2.0524904E-1,2.0962758E-1,1.630807E-1,-1.3021132E0,-6.1030947E-2,2.1670015E-1,-1.0649113E-2,-4.213034E-1],"categories":[],"categories_nodes":[],"categories_segments":[],"categories_sizes":[],"default_left":[0,0,0,0,0,0,0,0,0,0,0,0,0,0,0,0,0,0,0,0,0,0,0,0,0,0,0,0,0,0,0,0,0,0,0],"id":19,"left_children":[1,3,-1,-1,5,-1,7,9,11,-1,-1,-1,13,15,17,19,-1,21,23,-1,25,-1,-1,27,29,31,-1,-1,-1,-1,33,-1,-1,-1,-1],"loss_changes":[6.048194E2,7.612744E1,0E0,0E0,5.0059753E1,0E0,1.8904175E1,4.213867E0,1.8043129E1,0E0,0E0,0E0,1.8161436E1,4.0145893E0,2.1639917E1,3.1674407E0,0E0,3.909369E0,5.0552406E0,0E0,6.6034703E0,0E0,0E0,3.079277E0,5.343107E0,1.1154547E0,0E0,0E0,0E0,0E0,2.1686077E0,0E0,0E0,0E0,0E0],"parents":[2147483647,0,0,1,1,4,4,6,6,7,7,8,8,12,12,13,13,14,14,15,15,17,17,18,18,20,20,23,23,24,24,25,25,30,30],"right_children":[2,4,-1,-1,6,-1,8,10,12,-1,-1,-1,14,16,18,20,-1,22,24,-1,26,-1,-1,28,30,32,-1,-1,-1,-1,34,-1,-1,-1,-1],"split_conditions":[2.00001E0,2.00001E0,-2.9961517E-1,-3.036694E-1,2.00001E0,-2.9299396E-1,2.00001E0,2.00001E0,2.00001E0,-1.7218229E-1,2.9654106E-1,2.875361E-1,2.00001E0,2.00001E0,2.00001E0,2.00001E0,2.4595766E-1,2.00001E0,2.00001E0,2.2743498E-1,2.00001E0,-2.0167166E-1,2.6466507E-1,2.00001E0,2.00001E0,2.00001E0,-4.3605617E-1,-2.0524904E-1,2.0962758E-1,1.630807E-1,2.00001E0,-6.1030947E-2,2.1670015E-1,-1.0649113E-2,-4.213034E-1],"split_indices":[1,59,0,0,224,0,10,868,13,0,0,0,12,4,289,18,0,630,64,0,64,0,0,540,117,7,0,0,0,0,27,0,0,0,0],"split_type":[0,0,0,0,0,0,0,0,0,0,0,0,0,0,0,0,0,0,0,0,0,0,0,0,0,0,0,0,0,0,0,0,0,0,0],"sum_hessian":[8.5110944E2,4.918203E2,3.592891E2,2.3697912E1,4.681224E2,1.4643686E1,4.5347873E2,3.2753482E2,1.2594391E2,1.1332872E0,3.2640152E2,5.2783398E1,7.316051E1,3.9309853E1,3.385066E1,9.290638E0,3.0019215E1,1.2086354E1,2.1764303E1,3.1103973E0,6.18024E0,1.1254672E0,1.0960888E1,4.446018E0,1.7318285E1,4.057004E0,2.1232362E0,2.1417584E0,2.3042598E0,1.1857454E0,1.613254E1,1.4849325E0,2.5720713E0,1.3054645E0,1.4827076E1],"tree_param":{"num_deleted":"0","num_feature":"4096","num_nodes":"35","size_leaf_vector":"1"}},{"base_weights":[-1.5166732E-2,6.898072E-1,-2.9920998E-1,9.680298E-1,1.4839393E-1,-1.7208049E-1,9.787689E-1,2.8244734E-1,-2.20419E-1,-1.6236277E-1,2.962185E-1,-3.172106E-1,1.5518256E-1,5.677093E-1,-3.2883996E-1,-2.3937449E-1,6.427297E-1,6.2900895E-1,-8.3534664E-1,-2.2474734E-1,7.325984E-1,2.47576E-1,3.3358094E-1,1.6123459E-1,-9.5202416E-1,2.725773E-2,-1.2259466E-1,2.1950586E-1,8.2963085E-1,2.137696E-1,-1.4554182E-1,-1.21327035E-1,-1.1083987E0,2.347646E-1,-2.6564452E-1,2.673016E-1,4.3347505E-1,1.5817004E-1,-2.0809324E-1,-1.9133678E-1,1.6771834E-1,-3.1904668E-1,-1.2237586E0,1.6495825E-1,1.9768449E-2,-1.8255721E-1,5.098416E-2,-1.5030056E-1,-3.9010593E-1],"categories":[],"categories_nodes":[],"categories_segments":[],"categories_sizes":[],"default_left":[0,0,0,0,0,0,0,0,0,0,0,0,0,0,0,0,0,0,0,0,0,0,0,0,0,0,0,0,0,0,0,0,0,0,0,0,0,0,0,0,0,0,0,0,0,0,0,0,0],"id":20,"left_children":[1,3,-1,5,7,-1,9,-1,11,-1,-1,-1,13,15,17,-1,19,21,23,25,27,-1,29,-1,31,-1,-1,33,35,-1,37,39,41,-1,-1,-1,43,-1,-1,-1,-1,45,47,-1,-1,-1,-1,-1,-1],"loss_changes":[4.4325696E2,5.5994568E1,0E0,4.6340637E0,3.7556377E1,0E0,3.7422943E0,0E0,2.7817215E1,0E0,0E0,0E0,1.2484487E1,3.9569445E0,1.4581612E1,0E0,2.6921425E0,3.3877897E-1,3.6159554E0,2.5818643E-1,1.2921772E0,0E0,1.1761218E0,0E0,2.232729E0,0E0,0E0,4.4689107E0,2.1050453E-1,0E0,1.6337657E0,1.7656229E0,9.948921E-1,0E0,0E0,0E0,1.8792635E-1,0E0,0E0,0E0,0E0,5.6948125E-1,6.381035E-2,0E0,0E0,0E0,0E0,0E0,0E0],"parents":[2147483647,0,0,1,1,3,3,4,4,6,6,8,8,12,12,13,13,14,14,16,16,17,17,18,18,19,19,20,20,22,22,24,24,27,27,28,28,30,30,31,31,32,32,36,36,41,41,42,42],"right_children":[2,4,-1,6,8,-1,10,-1,12,-1,-1,-1,14,16,18,-1,20,22,24,26,28,-1,30,-1,32,-1,-1,34,36,-1,38,40,42,-1,-1,-1,44,-1,-1,-1,-1,46,48,-1,-1,-1,-1,-1,-1],"split_conditions":[2.00001E0,2.00001E0,-2.9920998E-1,2.00001E0,2.00001E0,-1.7208049E-1,2.00001E0,2.8244734E-1,2.00001E0,-1.6236277E-1,2.962185E-1,-3.172106E-1,2.00001E0,2.00001E0,2.00001E0,-2.3937449E-1,2.00001E0,2.00001E0,2.00001E0,2.00001E0,2.00001E0,2.47576E-1,2.00001E0,1.6123459E-1,2.00001E0,2.725773E-2,-1.2259466E-1,2.00001E0,2.00001E0,2.137696E-1,2.00001E0,2.00001E0,2.00001E0,2.347646E-1,-2.6564452E-1,2.673016E-1,2.00001E0,1.5817004E-1,-2.0809324E-1,-1.9133678E-1,1.6771834E-1,2.00001E0,2.00001E0,1.6495825E-1,1.9768449E-2,-1.8255721E-1,5.098416E-2,-1.5030056E-1,-3.9010593E-1],"split_indices":[1,10,0,540,13,0,868,0,22,0,0,0,12,630,289,0,105,64,37,35,4,0,55,0,64,0,0,64,0,0,27,540,41,0,0,0,2,0,0,0,0,4,7,0,0,0,0,0,0],"split_type":[0,0,0,0,0,0,0,0,0,0,0,0,0,0,0,0,0,0,0,0,0,0,0,0,0,0,0,0,0,0,0,0,0,0,0,0,0,0,0,0,0,0,0,0,0,0,0,0,0],"sum_hessian":[6.381578E2,3.7168124E2,2.664765E2,2.4499481E2,1.2668644E2,1.3322592E0,2.4366255E2,3.971987E1,8.696657E1,1.0266112E0,2.4263594E2,2.6376629E1,6.058994E1,3.261751E1,2.7972427E1,1.1967437E0,3.1420767E1,9.591741E0,1.8380686E1,2.808668E0,2.8612099E1,4.6857285E0,4.9060116E0,1.157351E0,1.7223335E1,1.2203223E0,1.5883456E0,5.0691895E0,2.354291E1,2.4672203E0,2.4387915E0,3.0099053E0,1.421343E1,3.5513926E0,1.5177974E0,1.9303228E1,4.239681E0,1.1119673E0,1.3268242E0,1.74667E0,1.2632352E0,2.292515E0,1.1920915E1,2.843469E0,1.396212E0,1.2864903E0,1.0060248E0,1.8648542E0,1.0056061E1],"tree_param":{"num_deleted":"0","num_feature":"4096","num_nodes":"49","size_leaf_vector":"1"}},{"base_weights":[-1.6025234E-2,6.704875E-1,-2.9873556E-1,9.5814365E-1,1.3826278E-1,-1.5925238E-1,2.9105902E-1,2.757285E-1,-2.072399E-1,-3.1867036E-1,1.3890219E-1,2.745365E-1,-8.7152205E-2,2.3747721E-1,-2.7661356E-1,5.602228E-1,-6.5224653E-1,-1.776784E-1,7.940544E-1,2.0545073E-1,-9.425286E-1,8.9893386E-2,2.6189688E-1,2.114411E-1,-1.2025115E0,1.9159658E-1,-4.3353012E-1],"categories":[],"categories_nodes":[],"categories_segments":[],"categories_sizes":[],"default_left":[0,0,0,0,0,0,0,0,0,0,0,0,0,0,0,0,0,0,0,0,0,0,0,0,0,0,0],"id":21,"left_children":[1,3,-1,5,7,-1,-1,-1,9,-1,11,-1,13,-1,15,17,19,-1,21,-1,23,-1,-1,-1,25,-1,-1],"loss_changes":[3.2436508E2,4.3281494E1,0E0,3.815628E0,2.734638E1,0E0,0E0,0E0,2.1041094E1,0E0,9.052782E0,0E0,6.964568E0,0E0,1.1075665E1,3.459895E0,9.952149E0,0E0,1.1500597E-1,0E0,9.4653E0,0E0,0E0,0E0,8.850279E0,0E0,0E0],"parents":[2147483647,0,0,1,1,3,3,4,4,8,8,10,10,12,12,14,14,15,15,16,16,18,18,20,20,24,24],"right_children":[2,4,-1,6,8,-1,-1,-1,10,-1,12,-1,14,-1,16,18,20,-1,22,-1,24,-1,-1,-1,26,-1,-1],"split_conditions":[2.00001E0,2.00001E0,-2.9873556E-1,2.00001E0,2.00001E0,-1.5925238E-1,2.9105902E-1,2.757285E-1,2.00001E0,-3.1867036E-1,2.00001E0,2.745365E-1,2.00001E0,2.3747721E-1,2.00001E0,2.00001E0,2.00001E0,-1.776784E-1,2.00001E0,2.0545073E-1,2.00001E0,8.9893386E-2,2.6189688E-1,2.114411E-1,2.00001E0,1.9159658E-1,-4.3353012E-1],"split_indices":[1,10,0,540,13,0,0,0,22,0,37,0,55,0,64,540,51,0,63,0,209,0,0,0,29,0,0],"split_type":[0,0,0,0,0,0,0,0,0,0,0,0,0,0,0,0,0,0,0,0,0,0,0,0,0,0,0],"sum_hessian":[4.8025024E2,2.825703E2,1.9767992E2,1.8291072E2,9.96596E1,1.1231111E0,1.817876E2,3.0061277E1,6.959832E1,1.9460579E1,5.013774E1,1.0620641E1,3.95171E1,6.445241E0,3.307186E1,1.0093691E1,2.2978168E1,1.4439665E0,8.649724E0,3.8562956E0,1.9121874E1,1.8511504E0,6.798574E0,2.3732526E0,1.6748621E1,1.759784E0,1.4988837E1],"tree_param":{"num_deleted":"0","num_feature":"4096","num_nodes":"27","size_leaf_vector":"1"}},{"base_weights":[-1.566768E-2,6.550715E-1,-2.9815054E-1,9.393649E-1,1.3862881E-1,-1.7357728E-1,9.564337E-1,8.899489E-1,-1.9227293E-1,8.520992E-2,2.8857237E-1,4.724501E-1,2.851402E-1,-3.197369E-1,1.4524443E-1,1.9409536E-1,5.0806273E-2,-4.9204716E-1,2.4441394E-1,6.292312E-1,-2.2782879E-1,8.098227E-1,2.1017237E-1,6.170209E-1,-6.778401E-1,2.595711E-1,1.0223668E-1,2.1488987E-1,-1.5760638E-1,2.9457963E-1,2.1450107E-1,1.4017965E-3,-8.429805E-1,1.9599436E-1,-7.747154E-1,-1.8667066E-2,1.5756351E-1,-1.64578E-1,1.6478446E-1,5.803731E-2,-9.847749E-1,-2.825033E-1,-5.6381244E-2,3.2194473E-2,-3.4350008E-1],"categories":[],"categories_nodes":[],"categories_segments":[],"categories_sizes":[],"default_left":[0,0,0,0,0,0,0,0,0,0,0,0,0,0,0,0,0,0,0,0,0,0,0,0,0,0,0,0,0,0,0,0,0,0,0,0,0,0,0,0,0,0,0,0,0],"id":22,"left_children":[1,3,-1,5,7,-1,9,11,13,-1,-1,15,-1,-1,17,-1,-1,-1,19,21,23,25,27,29,31,-1,-1,-1,33,35,-1,37,39,-1,41,-1,-1,-1,-1,-1,43,-1,-1,-1,-1],"loss_changes":[2.3822438E2,3.1496452E1,0E0,4.1485596E0,1.947645E1,0E0,2.3323059E-1,1.5533829E-1,1.6291105E1,0E0,0E0,1.5582144E-1,0E0,0E0,7.5465155E0,0E0,0E0,0E0,7.2496815E0,1.4805298E0,7.3726788E0,9.221935E-2,1.5870618E0,6.757736E-3,1.393363E0,0E0,0E0,0E0,3.2115915E0,3.0458742E-1,0E0,1.3335991E0,1.658011E0,0E0,1.6861367E-1,0E0,0E0,0E0,0E0,0E0,1.6886196E0,0E0,0E0,0E0,0E0],"parents":[2147483647,0,0,1,1,3,3,4,4,6,6,7,7,8,8,11,11,14,14,18,18,19,19,20,20,21,21,22,22,23,23,24,24,28,28,29,29,31,31,32,32,34,34,40,40],"right_children":[2,4,-1,6,8,-1,10,12,14,-1,-1,16,-1,-1,18,-1,-1,-1,20,22,24,26,28,30,32,-1,-1,-1,34,36,-1,38,40,-1,42,-1,-1,-1,-1,-1,44,-1,-1,-1,-1],"split_conditions":[2.00001E0,2.00001E0,-2.9815054E-1,2.00001E0,2.00001E0,-1.7357728E-1,2.00001E0,2.00001E0,2.00001E0,8.520992E-2,2.8857237E-1,2.00001E0,2.851402E-1,-3.197369E-1,2.00001E0,1.9409536E-1,5.0806273E-2,-4.9204716E-1,2.00001E0,2.00001E0,2.00001E0,2.00001E0,2.00001E0,2.00001E0,2.00001E0,2.595711E-1,1.0223668E-1,2.1488987E-1,2.00001E0,2.00001E0,2.1450107E-1,2.00001E0,2.00001E0,1.9599436E-1,2.00001E0,-1.8667066E-2,1.5756351E-1,-1.64578E-1,1.6478446E-1,5.803731E-2,2.00001E0,-2.825033E-1,-5.6381244E-2,3.2194473E-2,-3.4350008E-1],"split_indices":[1,10,0,868,13,0,923,22,22,0,0,23,0,0,81,0,0,0,12,19,289,0,64,35,64,0,0,0,55,7,0,540,55,0,35,0,0,0,0,0,27,0,0,0,0],"split_type":[0,0,0,0,0,0,0,0,0,0,0,0,0,0,0,0,0,0,0,0,0,0,0,0,0,0,0,0,0,0,0,0,0,0,0,0,0,0,0,0,0,0,0,0,0],"sum_hessian":[3.6110196E2,2.144095E2,1.4669244E2,1.3775739E2,7.665212E1,1.1659946E0,1.3659138E2,2.2920692E1,5.3731434E1,1.5301195E0,1.3506126E2,4.016782E0,1.8903912E1,1.4373684E1,3.935775E1,1.8289906E0,2.1877913E0,1.2533894E0,3.810436E1,2.081245E1,1.729191E1,1.3892894E1,6.9195557E0,5.8805895E0,1.1411321E1,1.1669475E1,2.2234201E0,2.5132508E0,4.406305E0,2.3042414E0,3.576348E0,2.425689E0,8.985632E0,1.8787876E0,2.5275173E0,1.1913491E0,1.1128924E0,1.2098576E0,1.2158314E0,1.0375272E0,7.948105E0,1.496791E0,1.0307262E0,1.0591571E0,6.8889475E0],"tree_param":{"num_deleted":"0","num_feature":"4096","num_nodes":"45","size_leaf_vector":"1"}},{"base_weights":[-1.6154133E-2,6.2701297E-1,-2.9740503E-1,9.152046E-1,1.2955856E-1,-1.6235444E-1,9.3675345E-1,8.587531E-1,-1.8197007E-1,4.0612474E-1,2.8485224E-1,4.2095953E-1,2.8044504E-1,-3.1993598E-1,1.2776658E-1,-5.495101E-2,2.0137917E-1,1.9006468E-1,2.2083223E-2,2.6090193E-1,-8.504612E-2,3.8097695E-1,-4.0230826E-1,-2.132825E-1,6.184177E-1,1.559645E-1,-1.720967E0,-9.489568E-3,7.037536E-1,-5.039387E-1,6.809111E-1,-1.6282152E-1,-5.824407E-1,2.5124708E-1,8.2154825E-2,3.1126214E-2,-2.2913046E-1,2.4512176E-1,6.214436E-2],"categories":[],"categories_nodes":[],"categories_segments":[],"categories_sizes":[],"default_left":[0,0,0,0,0,0,0,0,0,0,0,0,0,0,0,0,0,0,0,0,0,0,0,0,0,0,0,0,0,0,0,0,0,0,0,0,0,0,0],"id":23,"left_children":[1,3,-1,5,7,-1,9,11,13,15,-1,17,-1,-1,19,-1,-1,-1,-1,-1,21,23,25,-1,27,29,31,-1,33,35,37,-1,-1,-1,-1,-1,-1,-1,-1],"loss_changes":[1.7346901E2,2.3775864E1,0E0,3.813774E0,1.4309478E1,0E0,3.1954956E-1,2.333479E-1,1.2321562E1,7.781026E-1,0E0,2.9346442E-1,0E0,0E0,5.4161887E0,0E0,0E0,0E0,0E0,0E0,4.175491E0,3.4296498E0,1.2541816E1,0E0,5.7740045E-1,4.718332E0,2.5620365E-1,0E0,2.8172922E-1,1.0535244E0,3.1195045E-1,0E0,0E0,0E0,0E0,0E0,0E0,0E0,0E0],"parents":[2147483647,0,0,1,1,3,3,4,4,6,6,7,7,8,8,9,9,11,11,14,14,20,20,21,21,22,22,24,24,25,25,26,26,28,28,29,29,30,30],"right_children":[2,4,-1,6,8,-1,10,12,14,16,-1,18,-1,-1,20,-1,-1,-1,-1,-1,22,24,26,-1,28,30,32,-1,34,36,38,-1,-1,-1,-1,-1,-1,-1,-1],"split_conditions":[2.00001E0,2.00001E0,-2.9740503E-1,2.00001E0,2.00001E0,-1.6235444E-1,2.00001E0,2.00001E0,2.00001E0,2.00001E0,2.8485224E-1,2.00001E0,2.8044504E-1,-3.1993598E-1,2.00001E0,-5.495101E-2,2.0137917E-1,1.9006468E-1,2.2083223E-2,2.6090193E-1,2.00001E0,2.00001E0,2.00001E0,-2.132825E-1,2.00001E0,2.00001E0,2.00001E0,-9.489568E-3,2.00001E0,2.00001E0,2.00001E0,-1.6282152E-1,-5.824407E-1,2.5124708E-1,8.2154825E-2,3.1126214E-2,-2.2913046E-1,2.4512176E-1,6.214436E-2],"split_indices":[1,10,0,540,13,0,339,22,22,5,0,103,0,0,37,0,0,0,0,0,7,630,26,0,31,4,540,0,19,12,19,0,0,0,0,0,0,0,0],"split_type":[0,0,0,0,0,0,0,0,0,0,0,0,0,0,0,0,0,0,0,0,0,0,0,0,0,0,0,0,0,0,0,0,0,0,0,0,0,0,0],"sum_hessian":[2.7457965E2,1.6567181E2,1.0890783E2,1.0436816E2,6.1303665E1,1.1701324E0,1.0319802E2,1.7824743E1,4.347892E1,3.193073E0,1.0000495E2,3.6057467E0,1.4218996E1,1.0643183E1,3.283574E1,1.0867753E0,2.1062977E0,1.72564E0,1.8801068E0,6.631272E0,2.6204468E1,1.0532524E1,1.5671943E1,1.5250576E0,9.007466E0,1.162996E1,4.041982E0,1.1182762E0,7.88919E0,5.170374E0,6.4595866E0,1.1828613E0,2.859121E0,5.2941685E0,2.595022E0,1.7284757E0,3.4418983E0,4.454658E0,2.0049284E0],"tree_param":{"num_deleted":"0","num_feature":"4096","num_nodes":"39","size_leaf_vector":"1"}},{"base_weights":[-1.7794376E-2,5.9306943E-1,-2.9643708E-1,8.8347024E-1,1.1518129E-1,-1.8204527E-1,9.1503155E-1,8.221527E-1,-1.8036793E-1,3.0746505E-1,9.30948E-1,3.7404725E-1,2.7457476E-1,-3.1851876E-1,1.0279823E-1,-4.7859836E-2,1.7602058E-1,5.4495666E-2,9.398205E-1,1.7883812E-1,1.3309679E-2,2.5106037E-1,-9.420367E-2,1.0608603E-1,2.842782E-1,1.8945152E-1,-2.6343888E-1,4.5041782E-1,-5.971105E-1,2.2829185E-1,-3.135178E-2,1.6255504E-1,-8.286401E-1,2.0031665E-2,-3.096067E-2,1.8030107E-1,-1.0942239E0,1.579209E-1,-4.0374377E-1],"categories":[],"categories_nodes":[],"categories_segments":[],"categories_sizes":[],"default_left":[0,0,0,0,0,0,0,0,0,0,0,0,0,0,0,0,0,0,0,0,0,0,0,0,0,0,0,0,0,0,0,0,0,0,0,0,0,0,0],"id":24,"left_children":[1,3,-1,5,7,-1,9,11,13,15,17,19,-1,-1,21,-1,-1,-1,23,-1,-1,-1,25,-1,-1,-1,27,29,31,-1,33,-1,35,-1,-1,-1,37,-1,-1],"loss_changes":[1.25682274E2,1.7958729E1,0E0,4.355644E0,1.06666E1,0E0,4.8275757E-1,2.8426456E-1,9.173496E0,5.530925E-1,3.411789E-1,2.8654468E-1,0E0,0E0,4.1858315E0,0E0,0E0,0E0,1.0574341E-2,0E0,0E0,0E0,3.0266962E0,0E0,0E0,0E0,4.935452E0,1.0428101E0,4.0830264E0,0E0,3.2482162E-2,0E0,5.156205E0,0E0,0E0,0E0,4.926977E0,0E0,0E0],"parents":[2147483647,0,0,1,1,3,3,4,4,6,6,7,7,8,8,9,9,10,10,11,11,14,14,18,18,22,22,26,26,27,27,28,28,30,30,32,32,36,36],"right_children":[2,4,-1,6,8,-1,10,12,14,16,18,20,-1,-1,22,-1,-1,-1,24,-1,-1,-1,26,-1,-1,-1,28,30,32,-1,34,-1,36,-1,-1,-1,38,-1,-1],"split_conditions":[2.00001E0,2.00001E0,-2.9643708E-1,2.00001E0,2.00001E0,-1.8204527E-1,2.00001E0,2.00001E0,2.00001E0,2.00001E0,2.00001E0,2.00001E0,2.7457476E-1,-3.1851876E-1,2.00001E0,-4.7859836E-2,1.7602058E-1,5.4495666E-2,2.00001E0,1.7883812E-1,1.3309679E-2,2.5106037E-1,2.00001E0,1.0608603E-1,2.842782E-1,1.8945152E-1,2.00001E0,2.00001E0,2.00001E0,2.2829185E-1,2.00001E0,1.6255504E-1,2.00001E0,2.0031665E-2,-3.096067E-2,1.8030107E-1,2.00001E0,1.579209E-1,-4.0374377E-1],"split_indices":[1,10,0,868,13,0,154,22,22,26,923,23,0,0,37,0,0,0,443,0,0,0,55,0,0,0,64,0,51,0,12,0,209,0,0,0,29,0,0],"split_type":[0,0,0,0,0,0,0,0,0,0,0,0,0,0,0,0,0,0,0,0,0,0,0,0,0,0,0,0,0,0,0,0,0,0,0,0,0,0,0],"sum_hessian":[2.1004776E2,1.291384E2,8.0909355E1,7.979827E1,4.9340126E1,1.276923E0,7.852135E1,1.4020492E1,3.5319633E1,2.5231867E0,7.599816E1,3.274937E0,1.0745555E1,7.9197464E0,2.7399887E1,1.1046813E0,1.4185053E0,1.140669E0,7.485749E1,1.4739E0,1.8010368E0,5.110203E0,2.2289684E1,1.5881102E0,7.326939E1,3.6984768E0,1.8591208E1,5.8104506E0,1.2780756E1,3.1806352E0,2.6298156E0,1.9327412E0,1.0848015E1,1.1415344E0,1.4882812E0,1.5016494E0,9.346366E0,1.1091809E0,8.237185E0],"tree_param":{"num_deleted":"0","num_feature":"4096","num_nodes":"39","size_leaf_vector":"1"}},{"base_weights":[-1.3749276E-2,5.669077E-1,-2.951689E-1,8.464242E-1,1.2159625E-1,-1.6498873E-1,8.8292146E-1,7.800813E-1,-1.5531303E-1,-1.668987E-1,9.178896E-1,3.3220944E-1,2.673538E-1,-3.144853E-1,1.15606554E-1,2.608757E-1,9.3904436E-1,1.755402E-1,-8.6766705E-3,2.398372E-1,-6.5002844E-2,-5.608266E-2,1.6565767E-1,9.409731E-2,9.496069E-1,3.5982615E-1,-3.6216608E-1,1.0781576E-1,2.8842455E-1,-4.307466E-2,4.6195397E-1,2.1086541E-1,-5.0820506E-1,1.7931251E-1,1.212881E-1,-3.193253E-1,6.183915E-1,-8.556008E-3,6.035384E-2,3.656057E-2,-1.6580333E-1,2.2405793E-1,5.6535367E-2],"categories":[],"categories_nodes":[],"categories_segments":[],"categories_sizes":[],"default_left":[0,0,0,0,0,0,0,0,0,0,0,0,0,0,0,0,0,0,0,0,0,0,0,0,0,0,0,0,0,0,0,0,0,0,0,0,0,0,0,0,0,0,0],"id":25,"left_children":[1,3,-1,5,7,-1,9,11,13,-1,15,17,-1,-1,19,21,23,-1,-1,-1,25,-1,-1,-1,27,29,31,-1,-1,-1,33,35,-1,-1,37,39,41,-1,-1,-1,-1,-1,-1],"loss_changes":[9.202872E1,1.2619854E1,0E0,3.677433E0,7.5214E0,0E0,3.6016884E0,3.100171E-1,7.2347507E0,0E0,5.936699E-1,3.836739E-1,0E0,0E0,2.9495623E0,5.2941364E-1,8.5746765E-2,0E0,0E0,0E0,2.5900097E0,0E0,0E0,0E0,4.9053192E-2,5.044037E-1,9.487152E0,0E0,0E0,0E0,2.6607358E-1,2.1968281E0,0E0,0E0,4.571975E-2,5.4927576E-1,1.6704226E-1,0E0,0E0,0E0,0E0,0E0,0E0],"parents":[2147483647,0,0,1,1,3,3,4,4,6,6,7,7,8,8,10,10,11,11,14,14,15,15,16,16,20,20,24,24,25,25,26,26,30,30,31,31,34,34,35,35,36,36],"right_children":[2,4,-1,6,8,-1,10,12,14,-1,16,18,-1,-1,20,22,24,-1,-1,-1,26,-1,-1,-1,28,30,32,-1,-1,-1,34,36,-1,-1,38,40,42,-1,-1,-1,-1,-1,-1],"split_conditions":[2.00001E0,2.00001E0,-2.951689E-1,2.00001E0,2.00001E0,-1.6498873E-1,2.00001E0,2.00001E0,2.00001E0,-1.668987E-1,2.00001E0,2.00001E0,2.673538E-1,-3.144853E-1,2.00001E0,2.00001E0,2.00001E0,1.755402E-1,-8.6766705E-3,2.398372E-1,2.00001E0,-5.608266E-2,1.6565767E-1,9.409731E-2,2.00001E0,2.00001E0,2.00001E0,1.0781576E-1,2.8842455E-1,-4.307466E-2,2.00001E0,2.00001E0,-5.0820506E-1,1.7931251E-1,2.00001E0,2.00001E0,2.00001E0,-8.556008E-3,6.035384E-2,3.656057E-2,-1.6580333E-1,2.2405793E-1,5.6535367E-2],"split_indices":[1,10,0,540,13,0,868,22,22,0,339,103,0,0,37,26,443,0,0,0,7,0,0,0,291,17,26,0,0,0,19,4,0,0,35,12,19,0,0,0,0,0,0],"split_type":[0,0,0,0,0,0,0,0,0,0,0,0,0,0,0,0,0,0,0,0,0,0,0,0,0,0,0,0,0,0,0,0,0,0,0,0,0,0,0,0,0,0,0],"sum_hessian":[1.6137753E2,1.01214066E2,6.0163467E1,6.1629337E1,3.9584724E1,1.2114282E0,6.0417908E1,1.1180532E1,2.8404194E1,1.079448E0,5.933846E1,3.015266E0,8.165266E0,5.94376E0,2.2460434E1,2.266873E0,5.7071587E1,1.4085124E0,1.6067537E0,3.9767215E0,1.8483713E1,1.0346586E0,1.2322143E0,1.4577239E0,5.5613865E1,7.5208797E0,1.0962832E1,1.7073932E0,5.390647E1,1.1999891E0,6.320891E0,8.253446E0,2.709387E0,3.9802454E0,2.3406456E0,3.680957E0,4.5724883E0,1.0377415E0,1.3029039E0,1.4386623E0,2.2422948E0,2.952995E0,1.6194934E0],"tree_param":{"num_deleted":"0","num_feature":"4096","num_nodes":"43","size_leaf_vector":"1"}},{"base_weights":[-1.3262062E-2,5.286409E-1,-2.9350322E-1,8.1328976E-1,1.0890744E-1,-1.5260857E-1,8.5268146E-1,7.336721E-1,-1.4589821E-1,5.0111566E-2,8.774326E-1,4.1777886E-2,2.4201284E-1,-3.0683056E-1,9.672457E-2,8.035217E-2,8.902383E-1,2.2743727E-1,-6.56019E-2,9.125991E-2,2.7137268E-1,4.3795606E-1,-2.6774856E-1,2.0866963E-1,6.3900966E-3,5.1239365E-1,-5.3187454E-1,1.8835574E-1,3.7663754E-2,1.3445716E-1,-7.352907E-1,1.569457E-1,-9.8013425E-1,1.3434742E-1,-3.7737852E-1],"categories":[],"categories_nodes":[],"categories_segments":[],"categories_sizes":[],"default_left":[0,0,0,0,0,0,0,0,0,0,0,0,0,0,0,0,0,0,0,0,0,0,0,0,0,0,0,0,0,0,0,0,0,0,0],"id":26,"left_children":[1,3,-1,5,7,-1,9,11,13,-1,15,-1,-1,-1,17,-1,19,-1,21,-1,-1,23,25,-1,-1,27,29,-1,-1,-1,31,-1,33,-1,-1],"loss_changes":[6.6604904E1,9.657808E0,0E0,2.9570732E0,5.538764E0,0E0,6.5829086E-1,3.2398415E-1,5.4325285E0,0E0,1.1705017E-1,0E0,0E0,0E0,2.256065E0,0E0,9.5970154E-2,0E0,1.8905811E0,0E0,0E0,5.615233E-1,2.9618344E0,0E0,0E0,9.136689E-2,2.371197E0,0E0,0E0,0E0,3.242546E0,0E0,3.6433387E0,0E0,0E0],"parents":[2147483647,0,0,1,1,3,3,4,4,6,6,7,7,8,8,10,10,14,14,16,16,18,18,21,21,22,22,25,25,26,26,30,30,32,32],"right_children":[2,4,-1,6,8,-1,10,12,14,-1,16,-1,-1,-1,18,-1,20,-1,22,-1,-1,24,26,-1,-1,28,30,-1,-1,-1,32,-1,34,-1,-1],"split_conditions":[2.00001E0,2.00001E0,-2.9350322E-1,2.00001E0,2.00001E0,-1.5260857E-1,2.00001E0,2.00001E0,2.00001E0,5.0111566E-2,2.00001E0,4.1777886E-2,2.4201284E-1,-3.0683056E-1,2.00001E0,8.035217E-2,2.00001E0,2.2743727E-1,2.00001E0,9.125991E-2,2.7137268E-1,2.00001E0,2.00001E0,2.0866963E-1,6.3900966E-3,2.00001E0,2.00001E0,1.8835574E-1,3.7663754E-2,1.3445716E-1,2.00001E0,1.569457E-1,2.00001E0,1.3434742E-1,-3.7737852E-1],"split_indices":[1,10,0,540,13,0,154,107,22,0,443,0,0,0,37,0,291,0,64,0,0,0,55,0,0,41,51,0,0,0,209,0,30,0,0],"split_type":[0,0,0,0,0,0,0,0,0,0,0,0,0,0,0,0,0,0,0,0,0,0,0,0,0,0,0,0,0,0,0,0,0,0,0],"sum_hessian":[1.2536737E2,8.057561E1,4.479176E1,4.7455368E1,3.312024E1,1.0284016E0,4.6426968E1,9.05028E0,2.406996E1,1.8875583E0,4.453941E1,1.3084211E0,7.741859E0,4.5197015E0,1.9550257E1,1.3673004E0,4.3172108E1,3.129349E0,1.6420908E1,1.5615305E0,4.1610577E1,4.3695655E0,1.2051343E1,2.286482E0,2.0830836E0,2.8103938E0,9.240949E0,1.6846088E0,1.125785E0,1.3815042E0,7.859445E0,1.0949513E0,6.7644935E0,1.0019653E0,5.7625284E0],"tree_param":{"num_deleted":"0","num_feature":"4096","num_nodes":"35","size_leaf_vector":"1"}},{"base_weights":[-9.065605E-3,4.917247E-1,-2.9132E-1,-2.7749848E-1,5.684576E-1,-2.7879795E-1,6.308331E-1,-2.8327176E-1,6.815858E-1,-2.6373765E-1,7.3153585E-1,-2.0324789E-1,7.840305E-1,-1.6362223E-1,8.2212067E-1,-9.896657E-2,8.5325867E-1,2.9131323E-1,6.1668146E-1,2.4611104E-1,7.531052E-2],"categories":[],"categories_nodes":[],"categories_segments":[],"categories_sizes":[],"default_left":[0,0,0,0,0,0,0,0,0,0,0,0,0,0,0,0,0,0,0,0,0],"id":27,"left_children":[1,3,-1,-1,5,-1,7,-1,9,-1,11,-1,13,-1,15,-1,17,-1,19,-1,-1],"loss_changes":[4.84152E1,7.711834E0,0E0,0E0,6.5024986E0,0E0,5.551052E0,0E0,5.324814E0,0E0,4.875807E0,0E0,3.339428E0,0E0,2.2866936E0,0E0,9.2562866E-1,0E0,1.3524694E0,0E0,0E0],"parents":[2147483647,0,0,1,1,4,4,6,6,8,8,10,10,12,12,14,14,16,16,18,18],"right_children":[2,4,-1,-1,6,-1,8,-1,10,-1,12,-1,14,-1,16,-1,18,-1,20,-1,-1],"split_conditions":[2.00001E0,2.00001E0,-2.9132E-1,-2.7749848E-1,2.00001E0,-2.7879795E-1,2.00001E0,-2.8327176E-1,2.00001E0,-2.6373765E-1,2.00001E0,-2.0324789E-1,2.00001E0,-1.6362223E-1,2.00001E0,-9.896657E-2,2.00001E0,2.9131323E-1,2.00001E0,2.4611104E-1,7.531052E-2],"split_indices":[1,58,0,0,224,0,3568,0,923,0,868,0,544,0,371,0,10,0,12,0,0],"split_type":[0,0,0,0,0,0,0,0,0,0,0,0,0,0,0,0,0,0,0,0,0],"sum_hessian":[9.8505196E1,6.510319E1,3.3402008E1,2.776985E0,6.23262E1,1.9361327E0,6.0390068E1,1.3356115E0,5.9054455E1,1.3166014E0,5.7737854E1,1.6461806E0,5.6091675E1,1.1913629E0,5.490031E1,1.1923578E0,5.3707954E1,3.3783504E1,1.992445E1,1.1997469E1,7.926981E0],"tree_param":{"num_deleted":"0","num_feature":"4096","num_nodes":"21","size_leaf_vector":"1"}},{"base_weights":[-2.1605033E-2,4.329164E-1,-2.884747E-1,8.7516665E-1,1.3707477E-1,4.9094963E-1,2.825097E-1,-3.3152407E-1,3.0229205E-1,2.0718987E-1,3.402641E-2,-2.5037593E-1,5.273968E-1,1.7101052E-1,-6.981641E-1,-1.9243145E-1,6.4487636E-1,1.839793E-1,-3.7195855E-1,2.526652E-1,3.5076535E-1,2.0975667E-1,1.5032555E-1,3.7156633E-1,-1.8524757E-1,1.7332155E-1,-4.9061935E-2,1.1971124E-2,-1.03988454E-1],"categories":[],"categories_nodes":[],"categories_segments":[],"categories_sizes":[],"default_left":[0,0,0,0,0,0,0,0,0,0,0,0,0,0,0,0,0,0,0,0,0,0,0,0,0,0,0,0,0],"id":28,"left_children":[1,3,-1,5,7,9,-1,-1,11,-1,-1,13,15,-1,17,-1,19,-1,-1,-1,21,-1,23,25,27,-1,-1,-1,-1],"loss_changes":[3.404065E1,6.911046E0,0E0,8.353996E-2,7.1855364E0,3.167746E-1,0E0,0E0,3.8955338E0,0E0,0E0,3.8635418E0,3.4095273E0,0E0,5.414938E0,0E0,8.841696E-1,0E0,0E0,0E0,5.845201E-1,0E0,6.287989E-1,6.3267124E-1,1.4696921E-1,0E0,0E0,0E0,0E0],"parents":[2147483647,0,0,1,1,3,3,4,4,5,5,8,8,11,11,12,12,14,14,16,16,20,20,22,22,23,23,24,24],"right_children":[2,4,-1,6,8,10,-1,-1,12,-1,-1,14,16,-1,18,-1,20,-1,-1,-1,22,-1,24,26,28,-1,-1,-1,-1],"split_conditions":[2.00001E0,2.00001E0,-2.884747E-1,2.00001E0,2.00001E0,2.00001E0,2.825097E-1,-3.3152407E-1,2.00001E0,2.0718987E-1,3.402641E-2,2.00001E0,2.00001E0,1.7101052E-1,2.00001E0,-1.9243145E-1,2.00001E0,1.839793E-1,-3.7195855E-1,2.526652E-1,2.00001E0,2.0975667E-1,2.00001E0,2.00001E0,2.00001E0,1.7332155E-1,-4.9061935E-2,1.1971124E-2,-1.03988454E-1],"split_indices":[1,13,0,22,22,10,0,0,4,0,0,64,868,0,29,0,10,0,0,0,55,0,19,0,12,0,0,0,0],"split_type":[0,0,0,0,0,0,0,0,0,0,0,0,0,0,0,0,0,0,0,0,0,0,0,0,0,0,0,0,0],"sum_hessian":[7.7701385E1,5.273909E1,2.4962292E1,2.0353962E1,3.2385128E1,4.241115E0,1.6112848E1,3.1340106E0,2.9251118E1,2.2314806E0,2.0096347E0,8.4334345E0,2.0817684E1,2.8813655E0,5.552068E0,1.4939529E0,1.932373E1,1.584337E0,3.9677315E0,1.044907E1,8.874661E0,2.3322499E0,6.542412E0,3.8782513E0,2.6641605E0,2.7420793E0,1.1361722E0,1.426585E0,1.2375754E0],"tree_param":{"num_deleted":"0","num_feature":"4096","num_nodes":"29","size_leaf_vector":"1"}},{"base_weights":[-1.883814E-2,3.9732033E-1,-2.8479978E-1,8.4157467E-1,1.1669541E-1,4.376441E-1,2.7721247E-1,-3.1272316E-1,2.6968068E-1,1.9335009E-1,2.7811633E-2,-2.1747151E-1,4.6678564E-1,1.4813712E-1,-6.329563E-1,-1.772629E-1,5.776066E-1,1.7062232E-1,-3.4274453E-1,2.3438369E-1,3.0372632E-1,1.9591093E-1,1.1986757E-1,1.3602994E-1,-9.20458E-2,1.141092E-1,-4.8315564E-1,1.5176728E-1,-3.4622073E-1],"categories":[],"categories_nodes":[],"categories_segments":[],"categories_sizes":[],"default_left":[0,0,0,0,0,0,0,0,0,0,0,0,0,0,0,0,0,0,0,0,0,0,0,0,0,0,0,0,0],"id":29,"left_children":[1,3,-1,5,7,9,-1,-1,11,-1,-1,13,15,-1,17,-1,19,-1,-1,-1,21,-1,23,-1,25,-1,27,-1,-1],"loss_changes":[2.4702467E1,5.400973E0,0E0,1.5907383E-1,5.2807803E0,2.8044242E-1,0E0,0E0,2.5694015E0,0E0,0E0,2.7020385E0,2.5233011E0,0E0,4.0433607E0,0E0,7.308612E-1,0E0,0E0,0E0,5.021924E-1,0E0,5.468879E-1,0E0,1.1447873E0,0E0,2.7642913E0,0E0,0E0],"parents":[2147483647,0,0,1,1,3,3,4,4,5,5,8,8,11,11,12,12,14,14,16,16,20,20,22,22,24,24,26,26],"right_children":[2,4,-1,6,8,10,-1,-1,12,-1,-1,14,16,-1,18,-1,20,-1,-1,-1,22,-1,24,-1,26,-1,28,-1,-1],"split_conditions":[2.00001E0,2.00001E0,-2.8479978E-1,2.00001E0,2.00001E0,2.00001E0,2.7721247E-1,-3.1272316E-1,2.00001E0,1.9335009E-1,2.7811633E-2,2.00001E0,2.00001E0,1.4813712E-1,2.00001E0,-1.772629E-1,2.00001E0,1.7062232E-1,-3.4274453E-1,2.3438369E-1,2.00001E0,1.9591093E-1,2.00001E0,1.3602994E-1,2.00001E0,1.141092E-1,2.00001E0,1.5176728E-1,-3.4622073E-1],"split_indices":[1,13,0,22,22,10,0,0,4,0,0,64,868,0,29,0,10,0,0,0,55,0,7,0,26,0,37,0,0],"split_type":[0,0,0,0,0,0,0,0,0,0,0,0,0,0,0,0,0,0,0,0,0,0,0,0,0,0,0,0,0],"sum_hessian":[6.181817E1,4.311032E1,1.870785E1,1.5915589E1,2.719473E1,3.7677429E0,1.2147846E1,2.4929426E0,2.4701788E1,1.8124104E0,1.9553325E0,7.085755E0,1.7616034E1,2.543356E0,4.5423985E0,1.2598996E0,1.6356133E1,1.3179183E0,3.2244804E0,8.317879E0,8.038255E0,1.8919444E0,6.1463103E0,1.9450167E0,4.201294E0,1.9153162E0,2.2859776E0,1.0233474E0,1.2626302E0],"tree_param":{"num_deleted":"0","num_feature":"4096","num_nodes":"29","size_leaf_vector":"1"}},{"base_weights":[-1.6469078E-2,3.6160553E-1,-2.8011185E-1,8.0229324E-1,9.656753E-2,3.8922074E-1,2.7062345E-1,-2.8996217E-1,2.3921484E-1,1.8188103E-1,1.841857E-2,5.032618E-1,-1.37788E-1,6.8997484E-1,1.0297768E-1,-6.5753835E-1,1.9704773E-1,3.979962E-2,2.3543149E-1,1.753285E-1,-2.1782687E-1,4.172832E-2,-3.1468835E-1,1.5940125E-1,-5.412381E-3,-1.07276484E-1,2.2061039E-2,1.3505387E-1,-3.4917617E-1,1.6002676E-1,-2.991641E-1],"categories":[],"categories_nodes":[],"categories_segments":[],"categories_sizes":[],"default_left":[0,0,0,0,0,0,0,0,0,0,0,0,0,0,0,0,0,0,0,0,0,0,0,0,0,0,0,0,0,0,0],"id":30,"left_children":[1,3,-1,5,7,9,-1,-1,11,-1,-1,13,15,17,19,21,23,-1,-1,-1,25,-1,-1,-1,27,-1,-1,-1,29,-1,-1],"loss_changes":[1.7913036E1,4.1984406E0,0E0,2.0995235E-1,3.8703897E0,2.7637935E-1,0E0,0E0,2.2553735E0,0E0,0E0,9.102323E-1,1.8403418E0,3.5963297E-1,9.538855E-1,1.4188132E0,4.5958978E-1,0E0,0E0,0E0,1.8674484E-1,0E0,0E0,0E0,9.7044575E-1,0E0,0E0,0E0,2.5467858E0,0E0,0E0],"parents":[2147483647,0,0,1,1,3,3,4,4,5,5,8,8,11,11,12,12,13,13,14,14,15,15,16,16,20,20,24,24,28,28],"right_children":[2,4,-1,6,8,10,-1,-1,12,-1,-1,14,16,18,20,22,24,-1,-1,-1,26,-1,-1,-1,28,-1,-1,-1,30,-1,-1],"split_conditions":[2.00001E0,2.00001E0,-2.8011185E-1,2.00001E0,2.00001E0,2.00001E0,2.7062345E-1,-2.8996217E-1,2.00001E0,1.8188103E-1,1.841857E-2,2.00001E0,2.00001E0,2.00001E0,2.00001E0,2.00001E0,2.00001E0,3.979962E-2,2.3543149E-1,1.753285E-1,2.00001E0,4.172832E-2,-3.1468835E-1,1.5940125E-1,2.00001E0,-1.07276484E-1,2.2061039E-2,1.3505387E-1,2.00001E0,1.6002676E-1,-2.991641E-1],"split_indices":[1,13,0,22,22,23,0,0,3,0,0,12,4,289,64,64,7,0,0,0,2,0,0,0,26,0,0,0,37,0,0],"split_type":[0,0,0,0,0,0,0,0,0,0,0,0,0,0,0,0,0,0,0,0,0,0,0,0,0,0,0,0,0,0,0],"sum_hessian":[4.9681118E1,3.5609188E1,1.4071932E1,1.2611885E1,2.2997303E1,3.4073424E0,9.204543E0,2.0374033E0,2.0959898E1,1.5390123E0,1.8683301E0,1.2129607E1,8.830292E0,7.7778883E0,4.351719E0,3.0821872E0,5.748104E0,1.4794841E0,6.298404E0,1.4115553E0,2.9401639E0,1.2278606E0,1.8543266E0,1.5554439E0,4.1926603E0,1.8334177E0,1.1067461E0,1.669931E0,2.5227294E0,1.1429483E0,1.379781E0],"tree_param":{"num_deleted":"0","num_feature":"4096","num_nodes":"31","size_leaf_vector":"1"}},{"base_weights":[-1.2872287E-2,3.2401496E-1,-2.7422664E-1,7.580036E-1,7.8246646E-2,5.8611862E-2,2.470605E-1,-2.6584154E-1,2.092028E-1,2.3193236E-1,3.9811626E-2,4.225901E-1,-2.2477646E-1,1.6599432E-1,2.9695155E-2,2.2626482E-1,-3.7937394E-1,-2.9499766E-1,1.8035205E-1,2.5426924E-2,-1.4366724E-1],"categories":[],"categories_nodes":[],"categories_segments":[],"categories_sizes":[],"default_left":[0,0,0,0,0,0,0,0,0,0,0,0,0,0,0,0,0,0,0,0,0],"id":31,"left_children":[1,3,-1,5,7,-1,-1,-1,9,-1,11,13,15,-1,-1,17,-1,19,-1,-1,-1],"loss_changes":[1.2985881E1,3.2644317E0,0E0,2.5026178E-1,2.8388171E0,0E0,0E0,0E0,1.8134704E0,0E0,1.7054862E0,2.348578E-1,5.0019617E0,0E0,0E0,1.7136505E0,0E0,3.1710225E-1,0E0,0E0,0E0],"parents":[2147483647,0,0,1,1,3,3,4,4,8,8,10,10,11,11,12,12,15,15,17,17],"right_children":[2,4,-1,6,8,-1,-1,-1,10,-1,12,14,16,-1,-1,18,-1,20,-1,-1,-1],"split_conditions":[2.00001E0,2.00001E0,-2.7422664E-1,2.00001E0,2.00001E0,5.8611862E-2,2.470605E-1,-2.6584154E-1,2.00001E0,2.3193236E-1,2.00001E0,2.00001E0,2.00001E0,1.6599432E-1,2.9695155E-2,2.00001E0,-3.7937394E-1,2.00001E0,1.8035205E-1,2.5426924E-2,-1.4366724E-1],"split_indices":[1,13,0,107,22,0,0,0,37,0,7,12,26,0,0,4,0,64,0,0,0],"split_type":[0,0,0,0,0,0,0,0,0,0,0,0,0,0,0,0,0,0,0,0,0],"sum_hessian":[4.079629E1,3.0161844E1,1.0634449E1,1.0151556E1,2.0010288E1,1.4743801E0,8.6771755E0,1.7029287E0,1.830736E1,3.405702E0,1.4901657E1,5.8464546E0,9.055203E0,3.6586602E0,2.1877942E0,6.861325E0,2.1938787E0,2.9595697E0,3.9017549E0,1.1414609E0,1.8181089E0],"tree_param":{"num_deleted":"0","num_feature":"4096","num_nodes":"21","size_leaf_vector":"1"}},{"base_weights":[-1.7111393E-2,2.7922544E-1,-2.6698408E-1,7.5145435E-1,7.5626634E-2,7.9849E-2,2.456226E-1,-3.4245136E-1,2.3951967E-1,2.2939804E-1,7.562897E-2,2.0971292E-1,-9.274726E-2,1.6775692E-1,-2.5008056E-1,2.5878567E-1,-6.001466E-1,1.9401485E-1,-1.4981113E-1,1.1753524E-1,-2.6091427E-1,3.180368E-2,-1.04224674E-1],"categories":[],"categories_nodes":[],"categories_segments":[],"categories_sizes":[],"default_left":[0,0,0,0,0,0,0,0,0,0,0,0,0,0,0,0,0,0,0,0,0,0,0],"id":32,"left_children":[1,3,-1,5,7,-1,-1,-1,9,-1,11,-1,13,-1,15,17,19,-1,21,-1,-1,-1,-1],"loss_changes":[9.27501E0,2.5212147E0,0E0,4.220581E-2,4.2326794E0,0E0,0E0,0E0,1.5188149E0,0E0,1.646866E0,0E0,1.4475667E0,0E0,2.107996E0,9.1577566E-1,2.1577935E0,0E0,2.0506848E-1,0E0,0E0,0E0,0E0],"parents":[2147483647,0,0,1,1,3,3,4,4,8,8,10,10,12,12,14,14,15,15,16,16,18,18],"right_children":[2,4,-1,6,8,-1,-1,-1,10,-1,12,-1,14,-1,16,18,20,-1,22,-1,-1,-1,-1],"split_conditions":[2.00001E0,2.00001E0,-2.6698408E-1,2.00001E0,2.00001E0,7.9849E-2,2.456226E-1,-3.4245136E-1,2.00001E0,2.2939804E-1,2.00001E0,2.0971292E-1,2.00001E0,1.6775692E-1,2.00001E0,2.00001E0,2.00001E0,1.9401485E-1,2.00001E0,1.1753524E-1,-2.6091427E-1,3.180368E-2,-1.04224674E-1],"split_indices":[1,27,0,68,22,0,0,0,29,0,37,0,79,0,64,0,55,0,26,0,0,0,0],"split_type":[0,0,0,0,0,0,0,0,0,0,0,0,0,0,0,0,0,0,0,0,0,0,0],"sum_hessian":[3.389812E1,2.5814068E1,8.084054E0,6.9660625E0,1.8848005E1,1.4517044E0,5.514358E0,1.5288982E0,1.7319107E1,3.247562E0,1.4071546E1,2.322139E0,1.1749407E1,1.7876801E0,9.961726E0,4.1662683E0,5.795458E0,1.8382355E0,2.328033E0,1.1415403E0,4.653918E0,1.2165593E0,1.1114738E0],"tree_param":{"num_deleted":"0","num_feature":"4096","num_nodes":"23","size_leaf_vector":"1"}},{"base_weights":[-5.850561E-3,2.622335E-1,-2.5828168E-1,-2.1338621E-1,3.5043374E-1,2.4265392E-1,1.4814968E-1,4.6799824E-1,-1.5553486E-1,1.8689916E-1,5.040387E-3,1.5315492E-1,-3.049299E-1,2.8813472E-1,-5.737085E-1,1.931274E-2,1.1432924E-1,5.580173E-2,-2.3980033E-1],"categories":[],"categories_nodes":[],"categories_segments":[],"categories_sizes":[],"default_left":[0,0,0,0,0,0,0,0,0,0,0,0,0,0,0,0,0,0,0],"id":33,"left_children":[1,3,-1,-1,5,-1,7,9,11,-1,-1,-1,13,15,17,-1,-1,-1,-1],"loss_changes":[6.906836E0,2.2202892E0,0E0,0E0,1.8940744E0,0E0,1.6553706E0,5.6193125E-1,1.0619807E0,0E0,0E0,0E0,1.4509826E0,4.163623E-2,1.1573552E0,0E0,0E0,0E0,0E0],"parents":[2147483647,0,0,1,1,4,4,6,6,7,7,8,8,12,12,13,13,14,14],"right_children":[2,4,-1,-1,6,-1,8,10,12,-1,-1,-1,14,16,18,-1,-1,-1,-1],"split_conditions":[2.00001E0,2.00001E0,-2.5828168E-1,-2.1338621E-1,2.00001E0,2.4265392E-1,2.00001E0,2.00001E0,2.00001E0,1.8689916E-1,5.040387E-3,1.5315492E-1,2.00001E0,2.00001E0,2.00001E0,1.931274E-2,1.1432924E-1,5.580173E-2,-2.3980033E-1],"split_indices":[1,742,0,0,27,0,10,12,29,0,0,0,64,12,16,0,0,0,0],"split_type":[0,0,0,0,0,0,0,0,0,0,0,0,0,0,0,0,0,0,0],"sum_hessian":[2.8144993E1,2.1955053E1,6.1899395E0,1.2370045E0,2.0718048E1,5.425135E0,1.5292913E1,7.1847153E0,8.108198E0,5.0642405E0,2.1204753E0,1.042623E0,7.0655746E0,2.181045E0,4.8845296E0,1.136943E0,1.044102E0,1.158683E0,3.7258468E0],"tree_param":{"num_deleted":"0","num_feature":"4096","num_nodes":"19","size_leaf_vector":"1"}},{"base_weights":[-3.2478552E-3,2.2988738E-1,-2.4811105E-1,-1.9447416E-1,3.120833E-1,6.9817644E-1,1.06426895E-1,1.884097E-2,2.4487601E-1,1.9792698E-1,-3.9440416E-2,3.5962084E-1,-3.0562398E-1,1.628137E-2,1.4917809E-1,1.1567194E-1,-3.3061326E-1,-3.0725136E-1,1.3592894E-1,-9.499322E-3,-1.3160485E-1],"categories":[],"categories_nodes":[],"categories_segments":[],"categories_sizes":[],"default_left":[0,0,0,0,0,0,0,0,0,0,0,0,0,0,0,0,0,0,0,0,0],"id":34,"left_children":[1,3,-1,-1,5,7,9,-1,-1,-1,11,13,15,-1,-1,17,-1,19,-1,-1,-1],"loss_changes":[5.0341845E0,1.6777434E0,0E0,0E0,1.463464E0,4.4020176E-1,1.141139E0,0E0,0E0,0E0,1.3715463E0,1.9205636E-1,2.699427E0,0E0,0E0,9.8379433E-1,0E0,1.02825165E-1,0E0,0E0,0E0],"parents":[2147483647,0,0,1,1,4,4,5,5,6,6,10,10,11,11,12,12,15,15,17,17],"right_children":[2,4,-1,-1,6,8,10,-1,-1,-1,12,14,16,-1,-1,18,-1,20,-1,-1,-1],"split_conditions":[2.00001E0,2.00001E0,-2.4811105E-1,-1.9447416E-1,2.00001E0,2.00001E0,2.00001E0,1.884097E-2,2.4487601E-1,1.9792698E-1,2.00001E0,2.00001E0,2.00001E0,1.628137E-2,1.4917809E-1,2.00001E0,-3.3061326E-1,2.00001E0,1.3592894E-1,-9.499322E-3,-1.3160485E-1],"split_indices":[1,742,0,0,13,56,37,0,0,0,7,35,26,0,0,4,0,12,0,0,0],"split_type":[0,0,0,0,0,0,0,0,0,0,0,0,0,0,0,0,0,0,0,0,0],"sum_hessian":[2.4222353E1,1.9441326E1,4.7810264E0,1.0745742E0,1.836675E1,5.5508623E0,1.2815889E1,1.1099727E0,4.4408894E0,1.9386953E0,1.0877194E1,4.2118225E0,6.6653714E0,1.7418568E0,2.4699655E0,4.918375E0,1.7469965E0,2.222343E0,2.696032E0,1.1183317E0,1.1040112E0],"tree_param":{"num_deleted":"0","num_feature":"4096","num_nodes":"21","size_leaf_vector":"1"}},{"base_weights":[-1.0537755E-2,1.9351192E-1,-2.3658599E-1,2.0570096E-1,3.8612437E-2,1.9271599E-1,-1.07123904E-1,-3.1852195E-1,7.9571456E-2,1.7934841E-1,-5.52735E-2,2.7281272E-1,-2.877163E-1,1.6578211E-1,1.5197909E-2,8.776673E-2,-3.2131425E-1,-4.3328032E-2,5.0072346E-2,-7.998112E-2,1.2388919E-1],"categories":[],"categories_nodes":[],"categories_segments":[],"categories_sizes":[],"default_left":[0,0,0,0,0,0,0,0,0,0,0,0,0,0,0,0,0,0,0,0,0],"id":35,"left_children":[1,3,-1,-1,5,-1,7,-1,9,-1,11,13,15,-1,17,19,-1,-1,-1,-1,-1],"loss_changes":[3.6170204E0,1.3526267E0,0E0,0E0,1.3727839E0,0E0,2.364804E0,0E0,8.45946E-1,0E0,8.522255E-1,3.3185908E-1,1.9838326E0,0E0,1.0852509E-1,7.171317E-1,0E0,0E0,0E0,0E0,0E0],"parents":[2147483647,0,0,1,1,4,4,6,6,8,8,10,10,11,11,12,12,14,14,15,15],"right_children":[2,4,-1,-1,6,-1,8,-1,10,-1,12,14,16,-1,18,20,-1,-1,-1,-1,-1],"split_conditions":[2.00001E0,2.00001E0,-2.3658599E-1,2.0570096E-1,2.00001E0,1.9271599E-1,2.00001E0,-3.1852195E-1,2.00001E0,1.7934841E-1,2.00001E0,2.00001E0,2.00001E0,1.6578211E-1,2.00001E0,2.00001E0,-3.2131425E-1,-4.3328032E-2,5.0072346E-2,-7.998112E-2,1.2388919E-1],"split_indices":[1,23,0,0,51,0,22,0,37,0,7,64,26,0,35,4,0,0,0,0,0],"split_type":[0,0,0,0,0,0,0,0,0,0,0,0,0,0,0,0,0,0,0,0,0],"sum_hessian":[2.082068E1,1.709014E1,3.730541E0,3.2709363E0,1.3819204E1,2.0244012E0,1.1794803E1,1.1626893E0,1.0632113E1,1.4862983E0,9.145815E0,3.7206085E0,5.4252067E0,1.2346117E0,2.4859967E0,4.2675505E0,1.1576564E0,1.2347921E0,1.2512046E0,2.1283958E0,2.1391544E0],"tree_param":{"num_deleted":"0","num_feature":"4096","num_nodes":"21","size_leaf_vector":"1"}},{"base_weights":[-1.37753235E-2,4.37114E-1,-3.1504437E-1,1.7856693E-1,6.3676946E-2,3.5161945E-1,-5.284968E-1,-7.2856925E-2,8.550179E-2,-7.1920184E-3,1.6674027E-1,3.9877992E-2,-7.164877E-1,-4.811344E-2,7.241606E-2,-4.3288056E-2,-2.4795128E-1],"categories":[],"categories_nodes":[],"categories_segments":[],"categories_sizes":[],"default_left":[0,0,0,0,0,0,0,0,0,0,0,0,0,0,0,0,0],"id":36,"left_children":[1,3,5,-1,7,9,11,-1,-1,-1,-1,13,15,-1,-1,-1,-1],"loss_changes":[2.7338216E0,4.3880773E-1,1.8988274E0,0E0,3.081218E-1,2.8326958E-1,1.0455477E0,0E0,0E0,0E0,0E0,1.7239954E-1,3.3429885E-1,0E0,0E0,0E0,0E0],"parents":[2147483647,0,0,1,1,2,2,4,4,5,5,6,6,11,11,12,12],"right_children":[2,4,6,-1,8,10,12,-1,-1,-1,-1,14,16,-1,-1,-1,-1],"split_conditions":[2.00001E0,2.00001E0,2.00001E0,1.7856693E-1,2.00001E0,2.00001E0,2.00001E0,-7.2856925E-2,8.550179E-2,-7.1920184E-3,1.6674027E-1,2.00001E0,2.00001E0,-4.811344E-2,7.241606E-2,-4.3288056E-2,-2.4795128E-1],"split_indices":[10,12,289,0,4,35,20,0,0,0,0,4,26,0,0,0,0],"split_type":[0,0,0,0,0,0,0,0,0,0,0,0,0,0,0,0,0],"sum_hessian":[1.811168E1,7.0738344E0,1.1037846E1,4.552466E0,2.5213685E0,2.5199945E0,8.517851E0,1.01641E0,1.5049585E0,1.1983011E0,1.3216934E0,2.3128908E0,6.20496E0,1.2624264E0,1.0504645E0,1.3734144E0,4.8315454E0],"tree_param":{"num_deleted":"0","num_feature":"4096","num_nodes":"17","size_leaf_vector":"1"}},{"base_weights":[-5.1529612E-3,1.4524046E-1,-2.0996222E-1,2.0011197E-1,1.7670326E-2,1.780955E-1,-1.1605552E-1,-2.73878E-1,6.128332E-2,1.8209548E-1,-1.0002654E-1,1.23121016E-1,-2.4399734E-1,2.0311165E-1,-5.3676414E-1,1.5925217E-1,-4.2962722E-2,-3.181193E-2,-1.8708807E-1],"categories":[],"categories_nodes":[],"categories_segments":[],"categories_sizes":[],"default_left":[0,0,0,0,0,0,0,0,0,0,0,0,0,0,0,0,0,0,0],"id":37,"left_children":[1,3,-1,-1,5,-1,7,-1,9,-1,11,-1,13,15,17,-1,-1,-1,-1],"loss_changes":[1.9569453E0,1.0150148E0,0E0,0E0,1.1027215E0,0E0,1.7135291E0,0E0,9.8777264E-1,0E0,7.6057917E-1,0E0,1.1087115E0,5.0135577E-1,1.1681163E-1,0E0,0E0,0E0,0E0],"parents":[2147483647,0,0,1,1,4,4,6,6,8,8,10,10,12,12,13,13,14,14],"right_children":[2,4,-1,-1,6,-1,8,-1,10,-1,12,-1,14,16,18,-1,-1,-1,-1],"split_conditions":[2.00001E0,2.00001E0,-2.0996222E-1,2.0011197E-1,2.00001E0,1.780955E-1,2.00001E0,-2.73878E-1,2.00001E0,1.8209548E-1,2.00001E0,1.23121016E-1,2.00001E0,2.00001E0,2.00001E0,1.5925217E-1,-4.2962722E-2,-3.181193E-2,-1.8708807E-1],"split_indices":[1,37,0,0,51,0,22,0,13,0,55,0,64,0,20,0,0,0,0],"split_type":[0,0,0,0,0,0,0,0,0,0,0,0,0,0,0,0,0,0,0],"sum_hessian":[1.675717E1,1.4425312E1,2.3318586E0,2.0031261E0,1.2422186E1,1.6925875E0,1.0729598E1,1.1980854E0,9.531512E0,1.54432E0,7.9871926E0,1.3500749E0,6.637118E0,2.747465E0,3.8896527E0,1.1378751E0,1.6095898E0,1.025467E0,2.8641858E0],"tree_param":{"num_deleted":"0","num_feature":"4096","num_nodes":"19","size_leaf_vector":"1"}},{"base_weights":[2.721796E-3,1.394082E-1,-1.962042E-1,1.6379765E-1,-3.8493932E-3,1.7703441E-1,-1.51198E-1,2.1202312E-1,-3.6008862E-1,1.4172234E-1,-2.2709565E-2,-2.730374E-1,5.249416E-2,1.5075396E-1,-2.3510198E-1,2.2021934E-2,-1.270977E-1],"categories":[],"categories_nodes":[],"categories_segments":[],"categories_sizes":[],"default_left":[0,0,0,0,0,0,0,0,0,0,0,0,0,0,0,0,0],"id":38,"left_children":[1,3,-1,-1,5,-1,7,9,11,-1,-1,-1,13,-1,15,-1,-1],"loss_changes":[1.5056379E0,8.0979216E-1,0E0,0E0,1.0735517E0,0E0,8.2047164E-1,3.5119027E-1,1.5448968E0,0E0,0E0,0E0,7.283791E-1,0E0,2.3806794E-1,0E0,0E0],"parents":[2147483647,0,0,1,1,4,4,6,6,7,7,8,8,12,12,14,14],"right_children":[2,4,-1,-1,6,-1,8,10,12,-1,-1,-1,14,-1,16,-1,-1],"split_conditions":[2.00001E0,2.00001E0,-1.962042E-1,1.6379765E-1,2.00001E0,1.7703441E-1,2.00001E0,2.00001E0,2.00001E0,1.4172234E-1,-2.2709565E-2,-2.730374E-1,2.00001E0,1.5075396E-1,2.00001E0,2.2021934E-2,-1.270977E-1],"split_indices":[1,27,0,0,29,0,64,0,4,0,0,0,55,0,19,0,0],"split_type":[0,0,0,0,0,0,0,0,0,0,0,0,0,0,0,0,0],"sum_hessian":[1.4757073E1,1.2866826E1,1.8902469E0,2.6199114E0,1.0246915E1,1.4394772E0,8.807438E0,3.2103148E0,5.597123E0,1.3482621E0,1.8620526E0,1.8820895E0,3.7150338E0,1.1571243E0,2.5579095E0,1.2019792E0,1.3559303E0],"tree_param":{"num_deleted":"0","num_feature":"4096","num_nodes":"17","size_leaf_vector":"1"}},{"base_weights":[3.8930972E-3,3.5057795E-1,-2.2745147E-1,1.8221489E-1,1.2873207E-1,8.605085E-2,-4.011922E-1,-6.1301883E-2,9.932692E-2,-7.172959E-2,-6.2314373E-1,7.631792E-2,-9.170255E-2,-2.1758936E-1,-5.056842E-2],"categories":[],"categories_nodes":[],"categories_segments":[],"categories_sizes":[],"default_left":[0,0,0,0,0,0,0,0,0,0,0,0,0,0,0],"id":39,"left_children":[1,3,5,-1,7,-1,9,-1,-1,11,13,-1,-1,-1,-1],"loss_changes":[1.2183846E0,2.6793998E-1,9.3009806E-1,0E0,3.7287918E-1,0E0,4.8435688E-1,0E0,0E0,3.86165E-1,7.244146E-2,0E0,0E0,0E0,0E0],"parents":[2147483647,0,0,1,1,2,2,4,4,6,6,9,9,10,10],"right_children":[2,4,6,-1,8,-1,10,-1,-1,12,14,-1,-1,-1,-1],"split_conditions":[2.00001E0,2.00001E0,2.00001E0,1.8221489E-1,2.00001E0,8.605085E-2,2.00001E0,-6.1301883E-2,9.932692E-2,2.00001E0,2.00001E0,7.631792E-2,-9.170255E-2,-2.1758936E-1,-5.056842E-2],"split_indices":[10,13,289,0,4,0,12,0,0,3,4,0,0,0,0],"split_type":[0,0,0,0,0,0,0,0,0,0,0,0,0,0,0],"sum_hessian":[1.3196923E1,5.0755258E0,8.121397E0,1.5469464E0,3.5285792E0,1.8864367E0,6.2349606E0,1.3298732E0,2.1987062E0,3.042251E0,3.1927097E0,1.2342668E0,1.8079842E0,2.1206331E0,1.0720764E0],"tree_param":{"num_deleted":"0","num_feature":"4096","num_nodes":"15","size_leaf_vector":"1"}},{"base_weights":[4.6769273E-3,1.7241907E-1,-1.0655567E-1,1.5302357E-1,-2.2037666E-1,2.0483427E-1,-3.856466E-1,1.198098E-1,-1.5048315E-2,6.508158E-2,-5.6688666E-1,8.825453E-2,-5.9830103E-2,-2.5134826E-1,-1.8927161E-1,-1.3661225E-2,-8.0834664E-2],"categories":[],"categories_nodes":[],"categories_segments":[],"categories_sizes":[],"default_left":[0,0,0,0,0,0,0,0,0,0,0,0,0,0,0,0,0],"id":40,"left_children":[1,-1,3,-1,5,7,9,-1,-1,11,13,-1,-1,-1,15,-1,-1],"loss_changes":[9.136917E-1,0E0,9.611284E-1,0E0,8.4544164E-1,2.0385383E-1,7.068131E-1,0E0,0E0,2.555537E-1,4.5036638E-1,0E0,0E0,0E0,3.127183E-2,0E0,0E0],"parents":[2147483647,0,0,2,2,4,4,5,5,6,6,9,9,10,10,14,14],"right_children":[2,-1,4,-1,6,8,10,-1,-1,12,14,-1,-1,-1,16,-1,-1],"split_conditions":[2.00001E0,1.7241907E-1,2.00001E0,1.5302357E-1,2.00001E0,2.00001E0,2.00001E0,1.198098E-1,-1.5048315E-2,2.00001E0,2.00001E0,8.825453E-2,-5.9830103E-2,-2.5134826E-1,2.00001E0,-1.3661225E-2,-8.0834664E-2],"split_indices":[37,0,51,0,20,17,64,0,0,26,4,0,0,0,3,0,0],"split_type":[0,0,0,0,0,0,0,0,0,0,0,0,0,0,0,0,0],"sum_hessian":[1.2443793E1,1.351353E0,1.1092441E1,1.185966E0,9.906474E0,2.7057238E0,7.200751E0,1.2136672E0,1.4920565E0,2.2488835E0,4.951867E0,1.1450157E0,1.1038678E0,2.1735785E0,2.7782888E0,1.556286E0,1.2220029E0],"tree_param":{"num_deleted":"0","num_feature":"4096","num_nodes":"17","size_leaf_vector":"1"}},{"base_weights":[1.1797685E-2,2.9934254E-1,-1.7784007E-1,1.3678227E-1,-8.6951675E-4,1.0129548E-1,-3.3132786E-1,6.406461E-2,-4.845574E-1,-1.9843072E-2,-1.9133012E-1],"categories":[],"categories_nodes":[],"categories_segments":[],"categories_sizes":[],"default_left":[0,0,0,0,0,0,0,0,0,0,0],"id":41,"left_children":[1,3,5,-1,-1,-1,7,-1,9,-1,-1],"loss_changes":[7.3763365E-1,2.5504112E-1,7.5991225E-1,0E0,0E0,0E0,6.7254937E-1,0E0,3.1845808E-1,0E0,0E0],"parents":[2147483647,0,0,1,1,2,2,6,6,8,8],"right_children":[2,4,6,-1,-1,-1,8,-1,10,-1,-1],"split_conditions":[2.00001E0,2.00001E0,2.00001E0,1.3678227E-1,-8.6951675E-4,1.0129548E-1,2.00001E0,6.406461E-2,2.00001E0,-1.9843072E-2,-1.9133012E-1],"split_indices":[10,12,297,0,0,0,319,0,20,0,0],"split_type":[0,0,0,0,0,0,0,0,0,0,0],"sum_hessian":[1.155101E1,4.360601E0,7.190409E0,2.5373852E0,1.8232156E0,1.3744463E0,5.8159633E0,1.1901603E0,4.625803E0,1.6235698E0,3.002233E0],"tree_param":{"num_deleted":"0","num_feature":"4096","num_nodes":"11","size_leaf_vector":"1"}},{"base_weights":[1.6543975E-2,1.3229519E-1,-1.0350017E-1,1.2556483E-1,-2.2648647E-1,1.6925482E-1,-4.5031208E-1,1.16975956E-1,-1.518589E-2,1.0703532E-1,-2.1227135E-1],"categories":[],"categories_nodes":[],"categories_segments":[],"categories_sizes":[],"default_left":[0,0,0,0,0,0,0,0,0,0,0],"id":42,"left_children":[1,-1,3,-1,5,7,9,-1,-1,-1,-1],"loss_changes":[6.6282195E-1,0E0,7.530494E-1,0E0,8.686702E-1,2.1181479E-1,1.4956822E0,0E0,0E0,0E0,0E0],"parents":[2147483647,0,0,2,2,4,4,5,5,6,6],"right_children":[2,-1,4,-1,6,8,10,-1,-1,-1,-1],"split_conditions":[2.00001E0,1.3229519E-1,2.00001E0,1.2556483E-1,2.00001E0,2.00001E0,2.00001E0,1.16975956E-1,-1.518589E-2,1.0703532E-1,-2.1227135E-1],"split_indices":[27,0,55,0,64,0,30,0,0,0,0],"split_type":[0,0,0,0,0,0,0,0,0,0,0],"sum_hessian":[1.1113079E1,1.8606976E0,9.252381E0,1.305901E0,7.9464803E0,2.9588356E0,4.9876447E0,1.0907694E0,1.8680663E0,1.1120266E0,3.8756182E0],"tree_param":{"num_deleted":"0","num_feature":"4096","num_nodes":"11","size_leaf_vector":"1"}},{"base_weights":[3.338102E-2,1.521053E-1,-7.157072E-2,-1.9669224E-1,7.1000986E-2,1.543015E-1,-5.2981842E-2,2.135722E-1,-2.3069479E-1,8.08972E-4,9.003299E-2,9.9324726E-2,-1.3628092E-1],"categories":[],"categories_nodes":[],"categories_segments":[],"categories_sizes":[],"default_left":[0,0,0,0,0,0,0,0,0,0,0,0,0],"id":43,"left_children":[1,-1,3,-1,5,-1,7,9,11,-1,-1,-1,-1],"loss_changes":[5.943975E-1,0E0,8.8486993E-1,0E0,5.2163225E-1,0E0,4.251646E-1,6.659211E-2,8.0876493E-1,0E0,0E0,0E0,0E0],"parents":[2147483647,0,0,2,2,4,4,6,6,7,7,8,8],"right_children":[2,-1,4,-1,6,-1,8,10,12,-1,-1,-1,-1],"split_conditions":[2.00001E0,1.521053E-1,2.00001E0,-1.9669224E-1,2.00001E0,1.543015E-1,2.00001E0,2.00001E0,2.00001E0,8.08972E-4,9.003299E-2,9.9324726E-2,-1.3628092E-1],"split_indices":[51,0,22,0,13,0,64,19,55,0,0,0,0],"split_type":[0,0,0,0,0,0,0,0,0,0,0,0,0],"sum_hessian":[1.0227545E1,1.1602938E0,9.067251E0,1.0729692E0,7.994282E0,1.0590107E0,6.935271E0,2.6934886E0,4.241782E0,1.0837533E0,1.6097354E0,1.0706646E0,3.1711175E0],"tree_param":{"num_deleted":"0","num_feature":"4096","num_nodes":"13","size_leaf_vector":"1"}},{"base_weights":[4.0892974E-2,1.3925265E-1,-5.3238768E-2,1.4631051E-1,-2.439346E-1,3.1139663E-1,-2.1552686E-2,9.213508E-2,-4.7147703E-1,2.4423027E-2,1.1848802E-1,-6.9416696E-3,-2.3709019E-1],"categories":[],"categories_nodes":[],"categories_segments":[],"categories_sizes":[],"default_left":[0,0,0,0,0,0,0,0,0,0,0,0,0],"id":44,"left_children":[1,-1,3,5,7,9,-1,-1,11,-1,-1,-1,-1],"loss_changes":[4.4184852E-1,0E0,3.9573592E-1,2.113935E-1,7.9845244E-1,2.8867364E-2,0E0,0E0,5.654847E-1,0E0,0E0,0E0,0E0],"parents":[2147483647,0,0,2,2,3,3,4,4,5,5,8,8],"right_children":[2,-1,4,6,8,10,-1,-1,12,-1,-1,-1,-1],"split_conditions":[2.00001E0,1.3925265E-1,2.00001E0,2.00001E0,2.00001E0,2.00001E0,-2.1552686E-2,9.213508E-2,2.00001E0,2.4423027E-2,1.1848802E-1,-6.9416696E-3,-2.3709019E-1],"split_indices":[51,0,3,12,7,7,0,0,26,0,0,0,0],"split_type":[0,0,0,0,0,0,0,0,0,0,0,0,0],"sum_hessian":[9.469156E0,1.0075185E0,8.4616375E0,4.248572E0,4.213066E0,2.1751287E0,2.073443E0,1.1290568E0,3.0840092E0,1.1058356E0,1.0692931E0,1.7274289E0,1.3565804E0],"tree_param":{"num_deleted":"0","num_feature":"4096","num_nodes":"13","size_leaf_vector":"1"}},{"base_weights":[4.111156E-2,1.16153315E-1,-6.464509E-2,9.209964E-2,-1.6000104E-1,1.2887536E-1,-3.5163477E-1,9.94807E-2,-2.0935478E-2,4.208986E-2,-1.6726273E-1],"categories":[],"categories_nodes":[],"categories_segments":[],"categories_sizes":[],"default_left":[0,0,0,0,0,0,0,0,0,0,0],"id":45,"left_children":[1,-1,3,-1,5,7,9,-1,-1,-1,-1],"loss_changes":[3.9521977E-1,0E0,3.5404E-1,0E0,4.6076658E-1,1.731516E-1,5.623978E-1,0E0,0E0,0E0,0E0],"parents":[2147483647,0,0,2,2,4,4,5,5,6,6],"right_children":[2,-1,4,-1,6,8,10,-1,-1,-1,-1],"split_conditions":[2.00001E0,1.16153315E-1,2.00001E0,9.209964E-2,2.00001E0,2.00001E0,2.00001E0,9.94807E-2,-2.0935478E-2,4.208986E-2,-1.6726273E-1],"split_indices":[27,0,55,0,64,7,20,0,0,0,0],"split_type":[0,0,0,0,0,0,0,0,0,0,0],"sum_hessian":[9.11483E0,1.5106206E0,7.6042094E0,1.0994946E0,6.504715E0,2.7247732E0,3.7799418E0,1.017377E0,1.7073961E0,1.2093385E0,2.5706031E0],"tree_param":{"num_deleted":"0","num_feature":"4096","num_nodes":"11","size_leaf_vector":"1"}},{"base_weights":[4.6150755E-2,-9.668546E-2,1.3414145E-1,2.2744718E-1,-7.867801E-2,-4.1726686E-2,4.1415113E-1,8.187968E-2,-8.236757E-2,1.723241E-2,1.6709885E-1],"categories":[],"categories_nodes":[],"categories_segments":[],"categories_sizes":[],"default_left":[0,0,0,0,0,0,0,0,0,0,0],"id":46,"left_children":[1,-1,3,5,-1,7,9,-1,-1,-1,-1],"loss_changes":[3.5640544E-1,0E0,3.7418413E-1,3.9014176E-1,0E0,3.641043E-1,1.95885E-1,0E0,0E0,0E0,0E0],"parents":[2147483647,0,0,2,2,3,3,5,5,6,6],"right_children":[2,-1,4,6,-1,8,10,-1,-1,-1,-1],"split_conditions":[2.00001E0,-9.668546E-2,2.00001E0,2.00001E0,-7.867801E-2,2.00001E0,2.00001E0,8.187968E-2,-8.236757E-2,1.723241E-2,1.6709885E-1],"split_indices":[22,0,2,4,0,64,35,0,0,0,0],"split_type":[0,0,0,0,0,0,0,0,0,0,0],"sum_hessian":[8.660217E0,1.1562095E0,7.5040083E0,6.4192524E0,1.0847558E0,2.9470112E0,3.4722412E0,1.1800338E0,1.7669773E0,1.3937985E0,2.0784428E0],"tree_param":{"num_deleted":"0","num_feature":"4096","num_nodes":"11","size_leaf_vector":"1"}},{"base_weights":[3.6820788E-2,2.4330038E-1,-1.0471325E-1,1.19033E-1,-7.077738E-3,6.850359E-2,-2.4322337E-1,3.9354656E-3,-3.460378E-1,9.453936E-3,-1.8008338E-1],"categories":[],"categories_nodes":[],"categories_segments":[],"categories_sizes":[],"default_left":[0,0,0,0,0,0,0,0,0,0,0],"id":47,"left_children":[1,3,5,-1,-1,-1,7,-1,9,-1,-1],"loss_changes":[2.977142E-1,1.7687187E-1,3.427624E-1,0E0,0E0,0E0,1.3319701E-1,0E0,3.5686225E-1,0E0,0E0],"parents":[2147483647,0,0,1,1,2,2,6,6,8,8],"right_children":[2,4,6,-1,-1,-1,8,-1,10,-1,-1],"split_conditions":[2.00001E0,2.00001E0,2.00001E0,1.19033E-1,-7.077738E-3,6.850359E-2,2.00001E0,3.9354656E-3,2.00001E0,9.453936E-3,-1.8008338E-1],"split_indices":[10,12,289,0,0,0,26,0,7,0,0],"split_type":[0,0,0,0,0,0,0,0,0,0,0],"sum_hessian":[8.3155775E0,3.0894506E0,5.2261267E0,1.6525201E0,1.4369305E0,1.3445257E0,3.8816009E0,1.3609151E0,2.520686E0,1.3668861E0,1.1537997E0],"tree_param":{"num_deleted":"0","num_feature":"4096","num_nodes":"11","size_leaf_vector":"1"}},{"base_weights":[2.8568018E-2,9.740529E-2,-7.3779E-2,7.213276E-2,-2.1357232E-1,-3.942147E-2,6.0405117E-2,-8.0712445E-2,-2.3575917E-2],"categories":[],"categories_nodes":[],"categories_segments":[],"categories_sizes":[],"default_left":[0,0,0,0,0,0,0,0,0],"id":48,"left_children":[1,-1,3,5,7,-1,-1,-1,-1],"loss_changes":[3.015655E-1,0E0,1.7087737E-1,1.4420553E-1,9.893969E-3,0E0,0E0,0E0,0E0],"parents":[2147483647,0,0,2,2,3,3,4,4],"right_children":[2,-1,4,6,8,-1,-1,-1,-1],"split_conditions":[2.00001E0,9.740529E-2,2.00001E0,2.00001E0,2.00001E0,-3.942147E-2,6.0405117E-2,-8.0712445E-2,-2.3575917E-2],"split_indices":[13,0,3,4,19,0,0,0,0],"split_type":[0,0,0,0,0,0,0,0,0],"sum_hessian":[8.160066E0,1.5379611E0,6.6221046E0,3.476965E0,3.1451395E0,1.3436238E0,2.1333413E0,1.5252627E0,1.6198767E0],"tree_param":{"num_deleted":"0","num_feature":"4096","num_nodes":"9","size_leaf_vector":"1"}},{"base_weights":[2.27335E-2,9.3050025E-2,-7.204609E-2,-2.3955607E-1,5.0577693E-2,4.6292726E-2,-1.6803405E-1,1.9838539E-1,-7.543954E-2,-1.7124372E-2,1.003741E-1],"categories":[],"categories_nodes":[],"categories_segments":[],"categories_sizes":[],"default_left":[0,0,0,0,0,0,0,0,0,0,0],"id":49,"left_children":[1,-1,3,5,7,-1,-1,9,-1,-1,-1],"loss_changes":[2.6893082E-1,0E0,1.686024E-1,5.149683E-1,2.831157E-1,0E0,0E0,1.6059029E-1,0E0,0E0,0E0],"parents":[2147483647,0,0,2,2,3,3,4,4,7,7],"right_children":[2,-1,4,6,8,-1,-1,10,-1,-1,-1],"split_conditions":[2.00001E0,9.3050025E-2,2.00001E0,2.00001E0,2.00001E0,4.6292726E-2,-1.6803405E-1,2.00001E0,-7.543954E-2,-1.7124372E-2,1.003741E-1],"split_indices":[31,0,4,64,2,0,0,35,0,0,0],"split_type":[0,0,0,0,0,0,0,0,0,0,0],"sum_hessian":[8.051363E0,1.4330178E0,6.6183453E0,2.3941863E0,4.224159E0,1.306961E0,1.0872253E0,3.0666506E0,1.1575084E0,1.2683808E0,1.7982697E0],"tree_param":{"num_deleted":"0","num_feature":"4096","num_nodes":"11","size_leaf_vector":"1"}},{"base_weights":[1.3635974E-2,9.698776E-2,-7.306336E-2,1.972024E-1,-2.164247E-1,1.1185107E-2,7.930045E-2,1.49513E-2,-3.6686763E-1,-3.4332257E-2,-1.336765E-1],"categories":[],"categories_nodes":[],"categories_segments":[],"categories_sizes":[],"default_left":[0,0,0,0,0,0,0,0,0,0,0],"id":50,"left_children":[1,-1,3,5,7,-1,-1,-1,9,-1,-1],"loss_changes":[2.5909343E-1,0E0,3.397815E-1,2.4294287E-2,2.3808119E-1,0E0,0E0,0E0,2.1053076E-2,0E0,0E0],"parents":[2147483647,0,0,2,2,3,3,4,4,8,8],"right_children":[2,-1,4,6,8,-1,-1,-1,10,-1,-1],"split_conditions":[2.00001E0,9.698776E-2,2.00001E0,2.00001E0,2.00001E0,1.1185107E-2,7.930045E-2,1.49513E-2,2.00001E0,-3.4332257E-2,-1.336765E-1],"split_indices":[41,0,20,4,3,0,0,0,26,0,0],"split_type":[0,0,0,0,0,0,0,0,0,0,0],"sum_hessian":[7.7709036E0,1.1028951E0,6.6680083E0,2.1809344E0,4.4870744E0,1.1047182E0,1.0762162E0,1.8613968E0,2.6256773E0,1.207488E0,1.4181895E0],"tree_param":{"num_deleted":"0","num_feature":"4096","num_nodes":"11","size_leaf_vector":"1"}},{"base_weights":[1.4212144E-2,8.5911036E-2,-6.419468E-2,7.798499E-2,-1.5499268E-1,6.029505E-2,-3.0161652E-1,-3.3605967E-2,5.822919E-2,2.2265753E-2,-1.3813122E-1],"categories":[],"categories_nodes":[],"categories_segments":[],"categories_sizes":[],"default_left":[0,0,0,0,0,0,0,0,0,0,0],"id":51,"left_children":[1,-1,3,-1,5,7,9,-1,-1,-1,-1],"loss_changes":[2.0355918E-1,0E0,2.6261175E-1,0E0,2.2423048E-1,1.0192902E-1,2.7588892E-1,0E0,0E0,0E0,0E0],"parents":[2147483647,0,0,2,2,4,4,5,5,6,6],"right_children":[2,-1,4,-1,6,8,10,-1,-1,-1,-1],"split_conditions":[2.00001E0,8.5911036E-2,2.00001E0,7.798499E-2,2.00001E0,2.00001E0,2.00001E0,-3.3605967E-2,5.822919E-2,2.2265753E-2,-1.3813122E-1],"split_indices":[27,0,55,0,64,19,20,0,0,0,0],"split_type":[0,0,0,0,0,0,0,0,0,0,0],"sum_hessian":[7.6777906E0,1.1239804E0,6.55381E0,1.0264574E0,5.527353E0,2.4778717E0,3.049481E0,1.154222E0,1.3236498E0,1.0640901E0,1.9853909E0],"tree_param":{"num_deleted":"0","num_feature":"4096","num_nodes":"11","size_leaf_vector":"1"}},{"base_weights":[1.8296331E-2,8.98231E-2,-7.5379126E-2,3.1499368E-1,-7.978265E-2,1.1476161E-1,3.2477964E-2,7.7657126E-2,-2.615429E-1,-1.7435845E-2,-1.1480381E-1],"categories":[],"categories_nodes":[],"categories_segments":[],"categories_sizes":[],"default_left":[0,0,0,0,0,0,0,0,0,0,0],"id":52,"left_children":[1,3,-1,5,7,-1,-1,-1,9,-1,-1],"loss_changes":[1.8539988E-1,3.0815518E-1,0E0,5.8680177E-3,3.7699097E-1,0E0,0E0,0E0,7.059196E-2,0E0,0E0],"parents":[2147483647,0,0,1,1,3,3,4,4,8,8],"right_children":[2,4,-1,6,8,-1,-1,-1,10,-1,-1],"split_conditions":[2.00001E0,2.00001E0,-7.5379126E-2,2.00001E0,2.00001E0,1.1476161E-1,3.2477964E-2,7.7657126E-2,2.00001E0,-1.7435845E-2,-1.1480381E-1],"split_indices":[2,64,0,12,13,0,0,0,12,0,0],"split_type":[0,0,0,0,0,0,0,0,0,0,0],"sum_hessian":[7.4452367E0,6.4109054E0,1.0343311E0,2.3860054E0,4.0249E0,1.1574466E0,1.2285588E0,1.2576287E0,2.7672713E0,1.585142E0,1.1821293E0],"tree_param":{"num_deleted":"0","num_feature":"4096","num_nodes":"11","size_leaf_vector":"1"}},{"base_weights":[1.5814671E-2,1.6019376E-1,-1.2374838E-1,-8.200337E-3,8.991725E-2,1.3019065E-3,-1.7629507E-1,1.5791188E-3,-7.9921335E-2],"categories":[],"categories_nodes":[],"categories_segments":[],"categories_sizes":[],"default_left":[0,0,0,0,0,0,0,0,0],"id":53,"left_children":[1,3,5,-1,-1,-1,7,-1,-1],"loss_changes":[1.8599603E-1,1.256585E-1,3.2785922E-2,0E0,0E0,0E0,5.698698E-2,0E0,0E0],"parents":[2147483647,0,0,1,1,2,2,6,6],"right_children":[2,4,6,-1,-1,-1,8,-1,-1],"split_conditions":[2.00001E0,2.00001E0,2.00001E0,-8.200337E-3,8.991725E-2,1.3019065E-3,2.00001E0,1.5791188E-3,-7.9921335E-2],"split_indices":[3,7,10,0,0,0,4,0,0],"split_type":[0,0,0,0,0,0,0,0,0],"sum_hessian":[7.2467704E0,3.4892697E0,3.757501E0,1.8316447E0,1.6576251E0,1.3599334E0,2.3975673E0,1.1075605E0,1.2900069E0],"tree_param":{"num_deleted":"0","num_feature":"4096","num_nodes":"9","size_leaf_vector":"1"}},{"base_weights":[1.2289287E-2,8.038548E-2,-6.2272612E-2,9.6334115E-2,-1.7822301E-1,1.9444114E-2,-2.965044E-1,-4.930478E-4,-1.6299614E-1],"categories":[],"categories_nodes":[],"categories_segments":[],"categories_sizes":[],"default_left":[0,0,0,0,0,0,0,0,0],"id":54,"left_children":[1,-1,3,-1,5,-1,7,-1,-1],"loss_changes":[1.73247E-1,0E0,3.7596208E-1,0E0,1.9595578E-1,0E0,3.131261E-1,0E0,0E0],"parents":[2147483647,0,0,2,2,4,4,6,6],"right_children":[2,-1,4,-1,6,-1,8,-1,-1],"split_conditions":[2.00001E0,8.038548E-2,2.00001E0,9.6334115E-2,2.00001E0,1.9444114E-2,2.00001E0,-4.930478E-4,-1.6299614E-1],"split_indices":[55,0,31,0,7,0,26,0,0],"split_type":[0,0,0,0,0,0,0,0,0],"sum_hessian":[7.2129626E0,1.042996E0,6.1699667E0,1.0218492E0,5.1481175E0,1.8332714E0,3.3148463E0,1.9691015E0,1.3457446E0],"tree_param":{"num_deleted":"0","num_feature":"4096","num_nodes":"9","size_leaf_vector":"1"}},{"base_weights":[1.3222108E-2,1.7327069E-1,-8.828242E-2,9.617035E-2,-1.4163378E-2,5.3117584E-2,-1.9734004E-1,-1.7825466E-3,-2.6764432E-1,1.4622423E-2,-1.4425994E-1],"categories":[],"categories_nodes":[],"categories_segments":[],"categories_sizes":[],"default_left":[0,0,0,0,0,0,0,0,0,0,0],"id":55,"left_children":[1,3,5,-1,-1,-1,7,-1,9,-1,-1],"loss_changes":[1.4694089E-1,1.2822708E-1,1.9759923E-1,0E0,0E0,0E0,5.83784E-2,0E0,2.4178563E-1,0E0,0E0],"parents":[2147483647,0,0,1,1,2,2,6,6,8,8],"right_children":[2,4,6,-1,-1,-1,8,-1,10,-1,-1],"split_conditions":[2.00001E0,2.00001E0,2.00001E0,9.617035E-2,-1.4163378E-2,5.3117584E-2,2.00001E0,-1.7825466E-3,2.00001E0,1.4622423E-2,-1.4425994E-1],"split_indices":[10,12,289,0,0,0,26,0,7,0,0],"split_type":[0,0,0,0,0,0,0,0,0,0,0],"sum_hessian":[7.103343E0,2.4823081E0,4.621035E0,1.215997E0,1.266311E0,1.1644223E0,3.4566128E0,1.2199376E0,2.2366753E0,1.2110648E0,1.0256104E0],