{"learner":{"attributes":{"scikit_learn":"{\"_estimator_type\": \"classifier\"}"},"feature_names":[],"feature_types":[],"gradient_booster":{"model":{"gbtree_model_param":{"num_parallel_tree":"1","num_trees":"100"},"iteration_indptr":[0,1,2,3,4,5,6,7,8,9,10,11,12,13,14,15,16,17,18,19,20,21,22,23,24,25,26,27,28,29,30,31,32,33,34,35,36,37,38,39,40,41,42,43,44,45,46,47,48,49,50,51,52,53,54,55,56,57,58,59,60,61,62,63,64,65,66,67,68,69,70,71,72,73,74,75,76,77,78,79,80,81,82,83,84,85,86,87,88,89,90,91,92,93,94,95,96,97,98,99,100],"tree_info":[0,0,0,0,0,0,0,0,0,0,0,0,0,0,0,0,0,0,0,0,0,0,0,0,0,0,0,0,0,0,0,0,0,0,0,0,0,0,0,0,0,0,0,0,0,0,0,0,0,0,0,0,0,0,0,0,0,0,0,0,0,0,0,0,0,0,0,0,0,0,0,0,0,0,0,0,0,0,0,0,0,0,0,0,0,0,0,0,0,0,0,0,0,0,0,0,0,0,0,0],"trees":[{"base_weights":[3.4151302E-8,1.6472862E0,-5.9997654E-1,-5.99836E-1,1.857739E0,-5.9968203E-1,1.9709601E0,-5.97754E-1,1.9868655E0,-5.9185106E-1,1.9912091E0,-5.866535E-1,1.9938409E0,-5.764576E-1,1.9953078E0,-5.6064314E-1,1.9961615E0,-5.499876E-1,1.9968207E0,-5.454423E-1,5.9922606E-1],"categories":[],"categories_nodes":[],"categories_segments":[],"categories_sizes":[],"default_left":[0,0,0,0,0,0,0,0,0,0,0,0,0,0,0,0,0,0,0,0,0],"id":0,"left_children":[1,3,-1,-1,5,-1,7,-1,9,-1,11,-1,13,-1,15,-1,17,-1,19,-1,-1],"loss_changes":[4.390027E5,5.6082312E4,0E0,0E0,3.0169766E4,0E0,4.234828E3,0E0,1.1536875E3,0E0,6.9740625E2,0E0,3.87125E2,0E0,2.2375E2,0E0,1.7203125E2,0E0,1.5615625E2,0E0,0E0],"parents":[2147483647,0,0,1,1,4,4,6,6,8,8,10,10,12,12,14,14,16,16,18,18],"right_children":[2,4,-1,-1,6,-1,8,-1,10,-1,12,-1,14,-1,16,-1,18,-1,20,-1,-1],"split_conditions":[2.00001E0,2.00001E0,-5.9997654E-1,-5.99836E-1,2.00001E0,-5.9968203E-1,2.00001E0,-5.97754E-1,2.00001E0,-5.9185106E-1,2.00001E0,-5.866535E-1,2.00001E0,-5.764576E-1,2.00001E0,-5.6064314E-1,2.00001E0,-5.499876E-1,2.00001E0,-5.454423E-1,5.9922606E-1],"split_indices":[1,98,0,0,224,0,540,0,561,0,849,0,533,0,783,0,1409,0,1300,0,0],"split_type":[0,0,0,0,0,0,0,0,0,0,0,0,0,0,0,0,0,0,0,0,0],"sum_hessian":[1.332535E5,7.306875E4,6.018475E4,3.98625E3,6.90825E4,1.96975E3,6.711275E4,2.6775E2,6.6845E4,7.275E1,6.677225E4,4.4E1,6.672825E4,2.45E1,6.670375E4,1.425E1,6.66895E4,1.1E1,6.66785E4,1E1,6.66685E4],"tree_param":{"num_deleted":"0","num_feature":"4096","num_nodes":"21","size_leaf_vector":"1"}},{"base_weights":[-6.618785E-5,1.275254E0,-4.646315E-1,-4.645358E-1,1.4381766E0,-4.644308E-1,1.5258319E0,-4.6311745E-1,1.538157E0,-4.5910344E-1,1.5415322E0,-4.5557725E-1,1.5435821E0,-4.4868025E-1,1.5447301E0,-5.510518E-1,1.5454496E0,-6.4764684E-1,1.5460008E0,-7.0424557E-1,4.6393016E-1],"categories":[],"categories_nodes":[],"categories_segments":[],"categories_sizes":[],"default_left":[0,0,0,0,0,0,0,0,0,0,0,0,0,0,0,0,0,0,0,0,0],"id":1,"left_children":[1,3,-1,-1,5,-1,7,-1,9,-1,11,-1,13,-1,15,-1,17,-1,19,-1,-1],"loss_changes":[2.40888E5,3.077229E4,0E0,0E0,1.655543E4,0E0,2.3265312E3,0E0,6.360781E2,0E0,3.8575E2,0E0,2.154375E2,0E0,1.5142188E2,0E0,1.27984375E2,0E0,1.06515625E2,0E0,0E0],"parents":[2147483647,0,0,1,1,4,4,6,6,8,8,10,10,12,12,14,14,16,16,18,18],"right_children":[2,4,-1,-1,6,-1,8,-1,10,-1,12,-1,14,-1,16,-1,18,-1,20,-1,-1],"split_conditions":[2.00001E0,2.00001E0,-4.646315E-1,-4.645358E-1,2.00001E0,-4.644308E-1,2.00001E0,-4.6311745E-1,2.00001E0,-4.5910344E-1,2.00001E0,-4.5557725E-1,2.00001E0,-4.4868025E-1,2.00001E0,-5.510518E-1,2.00001E0,-6.4764684E-1,2.00001E0,-7.0424557E-1,4.6393016E-1],"split_indices":[1,98,0,0,224,0,540,0,561,0,849,0,533,0,1048,0,58,0,816,0,0],"split_type":[0,0,0,0,0,0,0,0,0,0,0,0,0,0,0,0,0,0,0,0,0],"sum_hessian":[1.2196072E5,6.688378E4,5.507694E4,3.648091E3,6.3235688E4,1.8027344E3,6.1432953E4,2.451848E2,6.118777E4,6.673257E1,6.112104E4,4.0420715E1,6.1080617E4,2.2571997E1,6.1058043E4,1.2447239E1,6.1045598E4,8.500255E0,6.1037098E4,6.1836443E0,6.1030914E4],"tree_param":{"num_deleted":"0","num_feature":"4096","num_nodes":"21","size_leaf_vector":"1"}},{"base_weights":[-1.5384951E-4,1.1064337E0,-4.0344545E-1,-4.0334603E-1,1.2477663E0,-1.3491113E0,1.3237876E0,-4.0323344E-1,-5.047542E-1,-4.0190968E-1,1.3347108E0,-3.9748037E-1,1.3375407E0,-3.9397904E-1,1.3393111E0,-4.3113455E-1,1.3402597E0,-2.1615207E0,1.340937E0,-3.3006144E-1,-8.1244963E-1,-4.6974704E-1,1.3415842E0,-5.166456E-1,4.026512E-1],"categories":[],"categories_nodes":[],"categories_segments":[],"categories_sizes":[],"default_left":[0,0,0,0,0,0,0,0,0,0,0,0,0,0,0,0,0,0,0,0,0,0,0,0,0],"id":2,"left_children":[1,3,-1,-1,5,7,9,-1,-1,-1,11,-1,13,-1,15,-1,17,19,21,-1,-1,-1,23,-1,-1],"loss_changes":[1.512999E5,1.9322969E4,0E0,0E0,1.0413172E4,2.397461E-1,1.4925078E3,0E0,0E0,0E0,3.8585156E2,0E0,2.4098438E2,0E0,1.3608594E2,0E0,1.2367969E2,2.9563713E0,9.789844E1,0E0,0E0,0E0,9.3765625E1,0E0,0E0],"parents":[2147483647,0,0,1,1,4,4,5,5,6,6,10,10,12,12,14,14,16,16,17,17,18,18,22,22],"right_children":[2,4,-1,-1,6,8,10,-1,-1,-1,12,-1,14,-1,16,-1,18,20,22,-1,-1,-1,24,-1,-1],"split_conditions":[2.00001E0,2.00001E0,-4.0344545E-1,-4.0334603E-1,2.00001E0,2.00001E0,2.00001E0,-4.0323344E-1,-5.047542E-1,-4.0190968E-1,2.00001E0,-3.9748037E-1,2.00001E0,-3.9397904E-1,2.00001E0,-4.3113455E-1,2.00001E0,2.00001E0,2.00001E0,-3.3006144E-1,-8.1244963E-1,-4.6974704E-1,2.00001E0,-5.166456E-1,4.026512E-1],"split_indices":[1,98,0,0,222,224,540,0,0,0,561,0,849,0,864,0,277,783,58,0,0,0,1300,0,0],"split_type":[0,0,0,0,0,0,0,0,0,0,0,0,0,0,0,0,0,0,0,0,0,0,0,0,0],"sum_hessian":[1.0167882E5,5.577726E4,4.590156E4,3.0405735E3,5.2736688E4,1.4994371E3,5.123725E4,1.4822399E3,1.7197252E1,2.0877419E2,5.1028477E4,5.3741802E1,5.0974734E4,3.3526775E1,5.0941207E4,1.6880672E1,5.092433E4,9.231453E0,5.0915098E4,4.1625237E0,5.068929E0,1.0795271E1,5.09043E4,9.179363E0,5.089512E4],"tree_param":{"num_deleted":"0","num_feature":"4096","num_nodes":"25","size_leaf_vector":"1"}},{"base_weights":[-2.6794855E-4,1.0110288E0,-3.6909887E-1,-3.689801E-1,1.1401399E0,-3.6922017E-1,1.2097383E0,-3.6722848E-1,1.21953E0,-3.6212593E-1,1.222224E0,-3.57929E-1,1.2238703E0,-3.8808802E-1,1.2249794E0,-4.7083512E-1,1.2257711E0,-4.7551277E-1,1.2265046E0,-5.7842046E-1,3.6813203E-1],"categories":[],"categories_nodes":[],"categories_segments":[],"categories_sizes":[],"default_left":[0,0,0,0,0,0,0,0,0,0,0,0,0,0,0,0,0,0,0,0,0],"id":3,"left_children":[1,3,-1,-1,5,-1,7,-1,9,-1,11,-1,13,-1,15,-1,17,-1,19,-1,-1],"loss_changes":[1.0100496E5,1.289432E4,0E0,0E0,6.953949E3,0E0,9.7697266E2,0E0,2.680078E2,0E0,1.633789E2,0E0,1.1521094E2,0E0,9.192969E1,0E0,8.578906E1,0E0,7.959766E1,0E0,0E0],"parents":[2147483647,0,0,1,1,4,4,6,6,8,8,10,10,12,12,14,14,16,16,18,18],"right_children":[2,4,-1,-1,6,-1,8,-1,10,-1,12,-1,14,-1,16,-1,18,-1,20,-1,-1],"split_conditions":[2.00001E0,2.00001E0,-3.6909887E-1,-3.689801E-1,2.00001E0,-3.6922017E-1,2.00001E0,-3.6722848E-1,2.00001E0,-3.6212593E-1,2.00001E0,-3.57929E-1,2.00001E0,-3.8808802E-1,2.00001E0,-4.7083512E-1,2.00001E0,-4.7551277E-1,2.00001E0,-5.7842046E-1,3.6813203E-1],"split_indices":[1,98,0,0,224,0,540,0,561,0,849,0,533,0,1048,0,1409,0,816,0,0],"split_type":[0,0,0,0,0,0,0,0,0,0,0,0,0,0,0,0,0,0,0,0,0],"sum_hessian":[8.11945E4,4.455979E4,3.663471E4,2.4269565E3,4.2132832E4,1.2010847E3,4.0931746E4,1.6351825E2,4.076823E4,4.47157E1,4.072351E4,2.7244064E1,4.069627E4,1.7408024E1,4.0678863E4,1.0960999E1,4.0667902E4,1.0046007E1,4.0657855E4,7.148008E0,4.0650707E4],"tree_param":{"num_deleted":"0","num_feature":"4096","num_nodes":"21","size_leaf_vector":"1"}},{"base_weights":[-3.9453726E-4,9.512283E-1,-3.477668E-1,-3.4761676E-1,1.0726639E0,-3.486739E-1,1.1380762E0,-3.4546292E-1,1.1474897E0,-3.58762E-1,1.1499406E0,-1.8017818E0,1.1512467E0,-3.157897E-1,-2.4919014E0,-3.2896054E-1,1.1524043E0,-2.8463486E-1,-9.2529E-1,-1.802811E0,1.153147E0,-2.6136458E-1,-6.3475025E-1,-4.7940078E-1,1.1539347E0,-4.740855E-1,3.464102E-1],"categories":[],"categories_nodes":[],"categories_segments":[],"categories_sizes":[],"default_left":[0,0,0,0,0,0,0,0,0,0,0,0,0,0,0,0,0,0,0,0,0,0,0,0,0,0,0],"id":4,"left_children":[1,3,-1,-1,5,-1,7,-1,9,-1,11,13,15,-1,17,-1,19,-1,-1,21,23,-1,-1,-1,25,-1,-1],"loss_changes":[6.9776164E4,8.903197E3,0E0,0E0,4.804078E3,0E0,6.8928125E2,0E0,1.8394922E2,0E0,1.2449609E2,4.8397903E0,8.386328E1,0E0,3.273426E0,0E0,7.171484E1,0E0,0E0,5.949631E-1,7.058594E1,0E0,0E0,0E0,6.823047E1,0E0,0E0],"parents":[2147483647,0,0,1,1,4,4,6,6,8,8,10,10,11,11,12,12,14,14,16,16,19,19,20,20,24,24],"right_children":[2,4,-1,-1,6,-1,8,-1,10,-1,12,14,16,-1,18,-1,20,-1,-1,22,24,-1,-1,-1,26,-1,-1],"split_conditions":[2.00001E0,2.00001E0,-3.477668E-1,-3.4761676E-1,2.00001E0,-3.486739E-1,2.00001E0,-3.4546292E-1,2.00001E0,-3.58762E-1,2.00001E0,2.00001E0,2.00001E0,-3.157897E-1,2.00001E0,-3.2896054E-1,2.00001E0,-2.8463486E-1,-9.2529E-1,2.00001E0,2.00001E0,-2.6136458E-1,-6.3475025E-1,-4.7940078E-1,2.00001E0,-4.740855E-1,3.464102E-1],"split_indices":[1,98,0,0,222,0,540,0,715,0,868,729,849,0,224,0,277,0,0,1048,1300,0,0,0,590,0,0],"split_type":[0,0,0,0,0,0,0,0,0,0,0,0,0,0,0,0,0,0,0,0,0,0,0,0,0,0,0],"sum_hessian":[6.32717E4,3.4741973E4,2.8529729E4,1.8902483E3,3.2851723E4,9.336992E2,3.1918025E4,1.3019232E2,3.1787832E4,3.2703136E1,3.1755129E4,1.3434824E1,3.1741695E4,7.652765E0,5.782059E0,1.5852091E1,3.1725842E4,2.3256488E0,3.4564102E0,7.3615227E0,3.171848E4,2.8029182E0,4.5586042E0,8.499195E0,3.1709982E4,8.302585E0,3.170168E4],"tree_param":{"num_deleted":"0","num_feature":"4096","num_nodes":"27","size_leaf_vector":"1"}},{"base_weights":[-5.995162E-4,9.107073E-1,-3.337293E-1,-3.3353493E-1,1.0269047E0,-3.337848E-1,1.0895693E0,-3.3069295E-1,1.098414E0,-3.2874113E-1,1.1010375E0,-1.441545E0,1.1026039E0,-2.926195E-1,-5.065033E-1,-3.7380478E-1,1.104089E0,-5.531535E-1,1.1051065E0,-1.101452E0,1.1056634E0,-9.263732E-1,3.3186734E-1],"categories":[],"categories_nodes":[],"categories_segments":[],"categories_sizes":[],"default_left":[0,0,0,0,0,0,0,0,0,0,0,0,0,0,0,0,0,0,0,0,0,0,0],"id":5,"left_children":[1,3,-1,-1,5,-1,7,-1,9,-1,11,13,15,-1,-1,-1,17,-1,19,-1,21,-1,-1],"loss_changes":[4.921835E4,6.274783E3,0E0,0E0,3.3859453E3,0E0,4.7671094E2,0E0,1.418418E2,0E0,9.876953E1,1.3138962E-1,8.643359E1,0E0,0E0,0E0,7.513281E1,0E0,6.887305E1,0E0,6.0734375E1,0E0,0E0],"parents":[2147483647,0,0,1,1,4,4,6,6,8,8,10,10,11,11,12,12,16,16,18,18,20,20],"right_children":[2,4,-1,-1,6,-1,8,-1,10,-1,12,14,16,-1,-1,-1,18,-1,20,-1,22,-1,-1],"split_conditions":[2.00001E0,2.00001E0,-3.337293E-1,-3.3353493E-1,2.00001E0,-3.337848E-1,2.00001E0,-3.3069295E-1,2.00001E0,-3.2874113E-1,2.00001E0,2.00001E0,2.00001E0,-2.926195E-1,-5.065033E-1,-3.7380478E-1,2.00001E0,-5.531535E-1,2.00001E0,-1.101452E0,2.00001E0,-9.263732E-1,3.3186734E-1],"split_indices":[1,98,0,0,224,0,540,0,561,0,816,849,533,0,0,0,59,0,890,0,534,0,0],"split_type":[0,0,0,0,0,0,0,0,0,0,0,0,0,0,0,0,0,0,0,0,0,0,0],"sum_hessian":[4.8574195E4,2.6694428E4,2.1879766E4,1.4498739E3,2.5244553E4,7.1787427E2,2.452668E4,9.807431E1,2.4428605E4,2.8676476E1,2.4399928E4,1.4456598E1,2.438547E4,6.718706E0,7.737892E0,1.4880659E1,2.4370592E4,7.782903E0,2.4362809E4,2.071837E0,2.4360736E4,2.5224354E0,2.4358213E4],"tree_param":{"num_deleted":"0","num_feature":"4096","num_nodes":"23","size_leaf_vector":"1"}},{"base_weights":[-8.677287E-4,8.816008E-1,-3.2414994E-1,-3.2389456E-1,9.939858E-1,-3.2563546E-1,1.0549209E0,-3.2026657E-1,1.063675E0,-3.1461683E-1,1.0661601E0,-3.2301044E-1,1.0682169E0,-4.3492013E-1,1.0696791E0,-1.3231091E0,1.070299E0,-6.530118E-1,1.0713441E0,-4.491303E-1,3.2178846E-1],"categories":[],"categories_nodes":[],"categories_segments":[],"categories_sizes":[],"default_left":[0,0,0,0,0,0,0,0,0,0,0,0,0,0,0,0,0,0,0,0,0],"id":6,"left_children":[1,3,-1,-1,5,-1,7,-1,9,-1,11,-1,13,-1,15,-1,17,-1,19,-1,-1],"loss_changes":[3.518951E4,4.480615E3,0E0,0E0,2.4368145E3,0E0,3.4813867E2,0E0,9.875391E1,0E0,8.302734E1,0E0,6.9890625E1,0E0,6.773828E1,0E0,6.527344E1,0E0,6.276172E1,0E0,0E0],"parents":[2147483647,0,0,1,1,4,4,6,6,8,8,10,10,12,12,14,14,16,16,18,18],"right_children":[2,4,-1,-1,6,-1,8,-1,10,-1,12,-1,14,-1,16,-1,18,-1,20,-1,-1],"split_conditions":[2.00001E0,2.00001E0,-3.2414994E-1,-3.2389456E-1,2.00001E0,-3.2563546E-1,2.00001E0,-3.2026657E-1,2.00001E0,-3.1461683E-1,2.00001E0,-3.2301044E-1,2.00001E0,-4.3492013E-1,2.00001E0,-1.3231091E0,2.00001E0,-6.530118E-1,2.00001E0,-4.491303E-1,3.2178846E-1],"split_indices":[1,98,0,0,222,0,540,0,561,0,849,0,783,0,1464,0,556,0,1300,0,0],"split_type":[0,0,0,0,0,0,0,0,0,0,0,0,0,0,0,0,0,0,0,0,0],"sum_hessian":[3.693301E4,2.032223E4,1.6610781E4,1.1009393E3,1.9221291E4,5.467403E2,1.867455E4,7.6209724E1,1.859834E4,2.1359179E1,1.8576982E4,1.7312473E1,1.855967E4,1.0197382E1,1.8549473E4,1.2934344E0,1.8548178E4,5.2980647E0,1.854288E4,8.682882E0,1.8534197E4],"tree_param":{"num_deleted":"0","num_feature":"4096","num_nodes":"21","size_leaf_vector":"1"}},{"base_weights":[-1.2086029E-3,8.597871E-1,-3.174526E-1,-3.1711444E-1,9.6927655E-1,-3.1790754E-1,1.0288256E0,-3.1224304E-1,1.0372126E0,-3.682218E-1,1.039654E0,-1.3872992E0,1.0404882E0,-3.0185813E-1,1.0428317E0,-4.1277474E-1,1.0447222E0,-4.3701145E-1,1.0464258E0,-5.029156E-1,3.143361E-1],"categories":[],"categories_nodes":[],"categories_segments":[],"categories_sizes":[],"default_left":[0,0,0,0,0,0,0,0,0,0,0,0,0,0,0,0,0,0,0,0,0],"id":7,"left_children":[1,3,-1,-1,5,-1,7,-1,9,-1,11,-1,13,-1,15,-1,17,-1,19,-1,-1],"loss_changes":[2.5390234E4,3.2279043E3,0E0,0E0,1.7584775E3,0E0,2.4636328E2,0E0,7.908984E1,0E0,7.124902E1,0E0,6.847656E1,0E0,6.565332E1,0E0,6.1322266E1,0E0,5.3728516E1,0E0,0E0],"parents":[2147483647,0,0,1,1,4,4,6,6,8,8,10,10,12,12,14,14,16,16,18,18],"right_children":[2,4,-1,-1,6,-1,8,-1,10,-1,12,-1,14,-1,16,-1,18,-1,20,-1,-1],"split_conditions":[2.00001E0,2.00001E0,-3.174526E-1,-3.1711444E-1,2.00001E0,-3.1790754E-1,2.00001E0,-3.1224304E-1,2.00001E0,-3.682218E-1,2.00001E0,-1.3872992E0,2.00001E0,-3.0185813E-1,2.00001E0,-4.1277474E-1,2.00001E0,-4.3701145E-1,2.00001E0,-5.029156E-1,3.143361E-1],"split_indices":[1,98,0,0,224,0,540,0,533,0,2489,0,561,0,816,0,1048,0,59,0,0],"split_type":[0,0,0,0,0,0,0,0,0,0,0,0,0,0,0,0,0,0,0,0,0],"sum_hessian":[2.7898016E4,1.5374374E4,1.2523643E4,8.302638E2,1.454411E4,4.1421188E2,1.4129898E4,5.65318E1,1.4073366E4,1.4614977E1,1.4058751E4,1.254348E0,1.4057497E4,1.5587188E1,1.404191E4,1.0399422E1,1.4031511E4,8.968293E0,1.4022542E4,6.3914104E0,1.401615E4],"tree_param":{"num_deleted":"0","num_feature":"4096","num_nodes":"21","size_leaf_vector":"1"}},{"base_weights":[-1.6703068E-3,8.422546E-1,-3.1269068E-1,-3.1224066E-1,9.493692E-1,-3.1557393E-1,1.0081476E0,-3.0596486E-1,1.0165601E0,-3.1866848E-1,1.0196747E0,-1.8526634E0,1.0217705E0,-2.2165594E-1,-6.05705E-1,-3.4106693E-1,1.024311E0,-8.9942634E-1,1.0255401E0,-4.2541003E-1,1.0276155E0,-1.0321039E0,3.0859223E-1],"categories":[],"categories_nodes":[],"categories_segments":[],"categories_sizes":[],"default_left":[0,0,0,0,0,0,0,0,0,0,0,0,0,0,0,0,0,0,0,0,0,0,0],"id":8,"left_children":[1,3,-1,-1,5,-1,7,-1,9,-1,11,13,15,-1,-1,-1,17,-1,19,-1,21,-1,-1],"loss_changes":[1.8429777E4,2.3383135E3,0E0,0E0,1.290874E3,0E0,1.8277539E2,0E0,6.9771484E1,0E0,6.566406E1,5.2337646E-3,5.9223633E1,0E0,0E0,0E0,5.5353516E1,0E0,5.507422E1,0E0,5.1926758E1,0E0,0E0],"parents":[2147483647,0,0,1,1,4,4,6,6,8,8,10,10,11,11,12,12,16,16,18,18,20,20],"right_children":[2,4,-1,-1,6,-1,8,-1,10,-1,12,14,16,-1,-1,-1,18,-1,20,-1,22,-1,-1],"split_conditions":[2.00001E0,2.00001E0,-3.1269068E-1,-3.1224066E-1,2.00001E0,-3.1557393E-1,2.00001E0,-3.0596486E-1,2.00001E0,-3.1866848E-1,2.00001E0,2.00001E0,2.00001E0,-2.2165594E-1,-6.05705E-1,-3.4106693E-1,2.00001E0,-8.9942634E-1,2.00001E0,-4.2541003E-1,2.00001E0,-1.0321039E0,3.0859223E-1],"split_indices":[1,98,0,0,222,0,540,0,849,0,630,224,715,0,0,0,258,0,1300,0,3510,0,0],"split_type":[0,0,0,0,0,0,0,0,0,0,0,0,0,0,0,0,0,0,0,0,0,0,0],"sum_hessian":[2.0983492E4,1.1586963E4,9.396529E3,6.231622E2,1.0963801E4,3.123412E2,1.065146E4,4.3504044E1,1.0607956E4,1.536103E1,1.0592595E4,7.079351E0,1.0585516E4,1.6270418E0,5.452309E0,1.19187355E1,1.0573597E4,2.4850442E0,1.0571111E4,8.39223E0,1.056272E4,1.6535232E0,1.0561066E4],"tree_param":{"num_deleted":"0","num_feature":"4096","num_nodes":"23","size_leaf_vector":"1"}},{"base_weights":[-2.3009635E-3,8.2683855E-1,-3.0926326E-1,-3.0866233E-1,9.3180597E-1,-3.1155E-1,9.894233E-1,-3.132661E-1,9.9756455E-1,-1.7907578E0,1.0004305E0,-2.1822219E-1,-6.0376287E-1,-3.7528995E-1,1.0038816E0,-2.0208216E0,1.006245E0,-2.5148863E-1,-7.734247E-1,-4.187226E-1,1.0090854E0,-1.0503064E0,1.010393E0,-4.3945763E-1,3.0383402E-1],"categories":[],"categories_nodes":[],"categories_segments":[],"categories_sizes":[],"default_left":[0,0,0,0,0,0,0,0,0,0,0,0,0,0,0,0,0,0,0,0,0,0,0,0,0],"id":9,"left_children":[1,3,-1,-1,5,-1,7,-1,9,11,13,-1,-1,-1,15,17,19,-1,-1,-1,21,-1,23,-1,-1],"loss_changes":[1.3427263E4,1.6989907E3,0E0,0E0,9.377246E2,0E0,1.3377734E2,0E0,6.560547E1,5.5431366E-1,6.3246582E1,0E0,0E0,0E0,5.89834E1,2.1566963E0,5.5722656E1,0E0,0E0,0E0,5.0431152E1,0E0,4.8461914E1,0E0,0E0],"parents":[2147483647,0,0,1,1,4,4,6,6,8,8,9,9,10,10,14,14,15,15,16,16,20,20,22,22],"right_children":[2,4,-1,-1,6,-1,8,-1,10,12,14,-1,-1,-1,16,18,20,-1,-1,-1,22,-1,24,-1,-1],"split_conditions":[2.00001E0,2.00001E0,-3.0926326E-1,-3.0866233E-1,2.00001E0,-3.1155E-1,2.00001E0,-3.132661E-1,2.00001E0,2.00001E0,2.00001E0,-2.1822219E-1,-6.0376287E-1,-3.7528995E-1,2.00001E0,2.00001E0,2.00001E0,-2.5148863E-1,-7.734247E-1,-4.187226E-1,2.00001E0,-1.0503064E0,2.00001E0,-4.3945763E-1,3.0383402E-1],"split_indices":[1,98,0,0,222,0,544,0,277,12,720,0,0,0,534,533,58,0,0,0,2489,0,590,0,0],"split_type":[0,0,0,0,0,0,0,0,0,0,0,0,0,0,0,0,0,0,0,0,0,0,0,0,0],"sum_hessian":[1.5742298E4,8.716272E3,7.026025E3,4.6616516E2,8.250107E3,2.339183E2,8.016189E3,3.1455729E1,7.9847334E3,7.5578904E0,7.977176E3,2.042912E0,5.5149784E0,1.1656258E1,7.965519E3,5.55243E0,7.959967E3,2.580607E0,2.9718232E0,8.822505E0,7.9511445E3,1.5286747E0,7.9496157E3,7.068916E0,7.942547E3],"tree_param":{"num_deleted":"0","num_feature":"4096","num_nodes":"25","size_leaf_vector":"1"}},{"base_weights":[-3.1755115E-3,8.1158006E-1,-3.0677292E-1,-3.0596867E-1,9.1434866E-1,-3.0824444E-1,9.7103256E-1,-3.1020328E-1,9.790163E-1,-4.396479E-1,9.830941E-1,-3.0017555E-1,9.8766786E-1,-2.3753498E0,9.9014974E-1,-1.9771387E-1,-8.26656E-1,-4.054518E-1,9.937922E-1,-3.994064E-1,9.9725944E-1,-3.552118E-1,3.0018997E-1],"categories":[],"categories_nodes":[],"categories_segments":[],"categories_sizes":[],"default_left":[0,0,0,0,0,0,0,0,0,0,0,0,0,0,0,0,0,0,0,0,0,0,0],"id":10,"left_children":[1,3,-1,-1,5,-1,7,-1,9,-1,11,-1,13,15,17,-1,-1,-1,19,-1,21,-1,-1],"loss_changes":[9.800387E3,1.2352905E3,0E0,0E0,6.845581E2,0E0,9.7612305E1,0E0,6.1361816E1,0E0,5.5441406E1,0E0,5.233496E1,1.2574177E0,5.238867E1,0E0,0E0,0E0,4.950586E1,0E0,4.5103516E1,0E0,0E0],"parents":[2147483647,0,0,1,1,4,4,6,6,8,8,10,10,12,12,13,13,14,14,18,18,20,20],"right_children":[2,4,-1,-1,6,-1,8,-1,10,-1,12,-1,14,16,18,-1,-1,-1,20,-1,22,-1,-1],"split_conditions":[2.00001E0,2.00001E0,-3.0677292E-1,-3.0596867E-1,2.00001E0,-3.0824444E-1,2.00001E0,-3.1020328E-1,2.00001E0,-4.396479E-1,2.00001E0,-3.0017555E-1,2.00001E0,2.00001E0,2.00001E0,-1.9771387E-1,-8.26656E-1,-4.054518E-1,2.00001E0,-3.994064E-1,2.00001E0,-3.552118E-1,3.0018997E-1],"split_indices":[1,98,0,0,224,0,544,0,816,0,561,0,890,533,1300,0,0,0,783,0,720,0,0],"split_type":[0,0,0,0,0,0,0,0,0,0,0,0,0,0,0,0,0,0,0,0,0,0,0],"sum_hessian":[1.1797699E4,6.557124E3,5.2405747E3,3.4791324E2,6.209211E3,1.7562624E2,6.033585E3,2.3419756E1,6.010165E3,9.412295E0,6.000753E3,1.3303145E1,5.9874497E3,3.7103314E0,5.9837393E3,1.1685209E0,2.5418105E0,8.718478E0,5.9750205E3,8.326501E0,5.9666943E3,8.674041E0,5.95802E3],"tree_param":{"num_deleted":"0","num_feature":"4096","num_nodes":"23","size_leaf_vector":"1"}},{"base_weights":[-4.135478E-3,7.9749423E-1,-3.0494854E-1,-3.0387092E-1,8.982211E-1,-3.0834383E-1,9.5472157E-1,-2.9037586E-1,9.629215E-1,-5.0182194E-1,9.6697253E-1,-3.4072825E-1,9.720406E-1,-9.0389997E-1,9.745686E-1,-8.2853407E-1,9.772507E-1,-4.6157682E-1,9.811883E-1,-4.9865294E-1,2.9540533E-1],"categories":[],"categories_nodes":[],"categories_segments":[],"categories_sizes":[],"default_left":[0,0,0,0,0,0,0,0,0,0,0,0,0,0,0,0,0,0,0,0,0],"id":11,"left_children":[1,3,-1,-1,5,-1,7,-1,9,-1,11,-1,13,-1,15,-1,17,-1,19,-1,-1],"loss_changes":[7.1672764E3,8.997134E2,0E0,0E0,5.0913672E2,0E0,7.246045E1,0E0,4.986035E1,0E0,4.918701E1,0E0,4.8286133E1,0E0,4.7790527E1,0E0,4.605957E1,0E0,4.313672E1,0E0,0E0],"parents":[2147483647,0,0,1,1,4,4,6,6,8,8,10,10,12,12,14,14,16,16,18,18],"right_children":[2,4,-1,-1,6,-1,8,-1,10,-1,12,-1,14,-1,16,-1,18,-1,20,-1,-1],"split_conditions":[2.00001E0,2.00001E0,-3.0494854E-1,-3.0387092E-1,2.00001E0,-3.0834383E-1,2.00001E0,-2.9037586E-1,2.00001E0,-5.0182194E-1,2.00001E0,-3.4072825E-1,2.00001E0,-9.0389997E-1,2.00001E0,-8.2853407E-1,2.00001E0,-4.6157682E-1,2.00001E0,-4.9865294E-1,2.9540533E-1],"split_indices":[1,98,0,0,222,0,540,0,277,0,533,0,774,0,258,0,59,0,590,0,0],"split_type":[0,0,0,0,0,0,0,0,0,0,0,0,0,0,0,0,0,0,0,0,0],"sum_hessian":[8.829726E3,4.927853E3,3.9018728E3,2.5924783E2,4.668605E3,1.3256131E2,4.536044E3,1.8766617E1,4.5172773E3,6.300336E0,4.510977E3,1.0309939E1,4.500667E3,2.098279E0,4.498569E3,2.489043E0,4.4960796E3,6.416887E0,4.4896626E3,5.3034687E0,4.4843594E3],"tree_param":{"num_deleted":"0","num_feature":"4096","num_nodes":"21","size_leaf_vector":"1"}},{"base_weights":[-5.6907735E-3,7.7963024E-1,-3.0360085E-1,-3.0215582E-1,8.7770605E-1,-3.0569556E-1,9.3275464E-1,1.0065651E0,7.1215016E-1,-2.4391343E-1,1.0097692E0,9.145902E-1,2.166628E-3,-2.5641477E-1,3.036412E-1,-4.2203617E-1,9.3784523E-1,8.0191004E-1,-1.3133862E0,-7.3346025E-1,9.505167E-1,-3.7845424E-1,8.576097E-1,2.79216E-1,-1.9765778E0,-3.7649265E-1,9.683347E-1,-3.128112E-1,9.108688E-1,-2.980278E-1,-2.2311606E0,-6.651066E-1,9.781341E-1,-2.3009185E-1,9.4745415E-1,-3.0934843E-1,-2.4842963E0,-2.3385274E-1,2.9649282E-1,-1.6157617E-1,2.9000536E-1,-2.5064775E-1,-8.1195086E-1],"categories":[],"categories_nodes":[],"categories_segments":[],"categories_sizes":[],"default_left":[0,0,0,0,0,0,0,0,0,0,0,0,0,0,0,0,0,0,0,0,0,0,0,0,0,0,0,0,0,0,0,0,0,0,0,0,0,0,0,0,0,0,0],"id":12,"left_children":[1,3,-1,-1,5,-1,7,9,11,-1,13,15,17,-1,-1,-1,19,21,23,-1,25,-1,27,-1,29,-1,31,-1,33,-1,35,-1,37,-1,39,-1,41,-1,-1,-1,-1,-1,-1],"loss_changes":[5.232846E3,6.5263794E2,0E0,0E0,3.6911694E2,0E0,5.508838E1,1.5778809E1,1.23983246E2,0E0,1.2175049E1,3.7555176E1,2.0347285E2,0E0,0E0,0E0,3.0836182E1,1.4905449E1,1.1066074E2,0E0,2.7285706E1,0E0,1.2863045E1,0E0,1.1990128E1,0E0,2.2728516E1,0E0,7.7880096E0,0E0,1.0889679E1,0E0,1.2526611E1,0E0,3.7506332E0,0E0,1.0876556E1,0E0,0E0,0E0,0E0,0E0,0E0],"parents":[2147483647,0,0,1,1,4,4,6,6,7,7,8,8,10,10,11,11,12,12,16,16,17,17,18,18,20,20,22,22,24,24,26,26,28,28,30,30,32,32,34,34,36,36],"right_children":[2,4,-1,-1,6,-1,8,10,12,-1,14,16,18,-1,-1,-1,20,22,24,-1,26,-1,28,-1,30,-1,32,-1,34,-1,36,-1,38,-1,40,-1,42,-1,-1,-1,-1,-1,-1],"split_conditions":[2.00001E0,2.00001E0,-3.0360085E-1,-3.0215582E-1,2.00001E0,-3.0569556E-1,2.00001E0,2.00001E0,2.00001E0,-2.4391343E-1,2.00001E0,2.00001E0,2.00001E0,-2.5641477E-1,3.036412E-1,-4.2203617E-1,2.00001E0,2.00001E0,2.00001E0,-7.3346025E-1,2.00001E0,-3.7845424E-1,2.00001E0,2.79216E-1,2.00001E0,-3.7649265E-1,2.00001E0,-3.128112E-1,2.00001E0,-2.980278E-1,2.00001E0,-6.651066E-1,2.00001E0,-2.3009185E-1,2.00001E0,-3.0934843E-1,2.00001E0,-2.3385274E-1,2.9649282E-1,-1.6157617E-1,2.9000536E-1,-2.5064775E-1,-8.1195086E-1],"split_indices":[1,98,0,0,222,0,10,540,19,0,868,630,12,0,0,0,1579,60,297,0,277,0,83,0,561,0,1494,0,720,0,849,0,540,0,540,0,540,0,0,0,0,0,0],"split_type":[0,0,0,0,0,0,0,0,0,0,0,0,0,0,0,0,0,0,0,0,0,0,0,0,0,0,0,0,0,0,0,0,0,0,0,0,0,0,0,0,0,0,0],"sum_hessian":[6.6195273E3,3.7181367E3,2.9013906E3,1.929819E2,3.5251548E3,9.893265E1,3.4262222E3,2.5645908E3,8.616313E2,4.0636134E0,2.560527E3,6.702363E2,1.9139496E2,2.7915585E0,2.5577356E3,6.0575924E0,6.641787E2,1.1927589E2,7.211908E1,1.7623762E0,6.624163E2,2.566068E0,1.16709816E2,1.6359259E1,5.575982E1,4.7522573E0,6.5766406E2,2.67531E0,1.1403451E2,1.2477231E1,4.328259E1,1.3262298E0,6.563378E2,2.0074396E0,1.1202707E2,8.423624E0,3.4858963E1,3.3425984E0,6.5299524E2,1.0861577E0,1.1094091E2,4.705258E0,3.0153706E1],"tree_param":{"num_deleted":"0","num_feature":"4096","num_nodes":"43","size_leaf_vector":"1"}},{"base_weights":[-6.411971E-3,7.716533E-1,-3.0259484E-1,-3.0065694E-1,8.687155E-1,-3.0312547E-1,9.232943E-1,1.0024862E0,6.9100374E-1,-2.3095673E-1,1.0058712E0,8.9456266E-1,-1.7444227E-3,-2.3705803E-1,3.025322E-1,-3.783194E-1,9.1869706E-1,7.6744646E-1,-1.2115493E0,-3.562166E-1,9.403942E-1,-3.4089962E-1,8.260387E-1,2.6907206E-1,-1.8062023E0,-6.530074E-1,9.5457315E-1,-2.7696648E-1,8.834195E-1,-2.866424E-1,-2.0041068E0,-6.0264796E-1,9.6574414E-1,-2.1466897E-1,9.2487293E-1,-2.908751E-1,-2.2019594E0,-3.807888E-1,2.9231435E-1,1.7643234E-1,2.8456554E-1,-2.3833837E-1,-7.110852E-1],"categories":[],"categories_nodes":[],"categories_segments":[],"categories_sizes":[],"default_left":[0,0,0,0,0,0,0,0,0,0,0,0,0,0,0,0,0,0,0,0,0,0,0,0,0,0,0,0,0,0,0,0,0,0,0,0,0,0,0,0,0,0,0],"id":13,"left_children":[1,3,-1,-1,5,-1,7,9,11,-1,13,15,17,-1,-1,-1,19,21,23,-1,25,-1,27,-1,29,-1,31,-1,33,-1,35,-1,37,-1,39,-1,41,-1,-1,-1,-1,-1,-1],"loss_changes":[3.8476877E3,4.791217E2,0E0,0E0,2.7109485E2,0E0,4.6406006E1,1.2216187E1,9.224844E1,0E0,9.583496E0,2.746225E1,1.4010976E2,0E0,0E0,0E0,2.399112E1,1.1205868E1,7.499233E1,0E0,2.4001007E1,0E0,9.8367E0,0E0,5.826126E0,0E0,1.8309387E1,0E0,6.4636765E0,0E0,5.3133545E0,0E0,1.0759369E1,0E0,1.2598419E-1,0E0,5.167679E0,0E0,0E0,0E0,0E0,0E0,0E0],"parents":[2147483647,0,0,1,1,4,4,6,6,7,7,8,8,10,10,11,11,12,12,16,16,17,17,18,18,20,20,22,22,24,24,26,26,28,28,30,30,32,32,34,34,36,36],"right_children":[2,4,-1,-1,6,-1,8,10,12,-1,14,16,18,-1,-1,-1,20,22,24,-1,26,-1,28,-1,30,-1,32,-1,34,-1,36,-1,38,-1,40,-1,42,-1,-1,-1,-1,-1,-1],"split_conditions":[2.00001E0,2.00001E0,-3.0259484E-1,-3.0065694E-1,2.00001E0,-3.0312547E-1,2.00001E0,2.00001E0,2.00001E0,-2.3095673E-1,2.00001E0,2.00001E0,2.00001E0,-2.3705803E-1,3.025322E-1,-3.783194E-1,2.00001E0,2.00001E0,2.00001E0,-3.562166E-1,2.00001E0,-3.4089962E-1,2.00001E0,2.6907206E-1,2.00001E0,-6.530074E-1,2.00001E0,-2.7696648E-1,2.00001E0,-2.866424E-1,2.00001E0,-6.0264796E-1,2.00001E0,-2.1466897E-1,2.00001E0,-2.908751E-1,2.00001E0,-3.807888E-1,2.9231435E-1,1.7643234E-1,2.8456554E-1,-2.3833837E-1,-7.110852E-1],"split_indices":[1,98,0,0,222,0,10,540,19,0,868,630,12,0,0,0,556,60,297,0,1579,0,58,0,561,0,1494,0,720,0,849,0,59,0,4,0,540,0,0,0,0,0,0],"split_type":[0,0,0,0,0,0,0,0,0,0,0,0,0,0,0,0,0,0,0,0,0,0,0,0,0,0,0,0,0,0,0,0,0,0,0,0,0,0,0,0,0,0,0],"sum_hessian":[4.9321616E3,2.7767341E3,2.1554272E3,1.4357268E2,2.6331616E3,7.382632E1,2.5593352E3,1.906172E3,6.531632E2,3.2019877E0,1.90297E3,5.0459912E2,1.4856407E2,2.280599E0,1.9006895E3,5.0194836E0,4.9957965E2,9.1044106E1,5.751997E1,4.546397E0,4.9503323E2,2.1691813E0,8.887492E1,1.2541918E1,4.4978054E1,1.5509868E0,4.9348227E2,2.343506E0,8.653142E1,9.588435E0,3.5389618E1,1.1816927E0,4.9230057E2,1.7756945E0,8.475572E1,6.6289515E0,2.8760666E1,1.3332089E0,4.9096735E2,7.265214E0,7.749051E1,3.6830988E0,2.5077568E1],"tree_param":{"num_deleted":"0","num_feature":"4096","num_nodes":"43","size_leaf_vector":"1"}},{"base_weights":[-7.5038555E-3,7.62008E-1,-3.0183244E-1,-2.9923475E-1,8.578425E-1,-3.0047512E-1,9.118486E-1,9.9901366E-1,6.629699E-1,-2.1730942E-1,1.0026356E0,8.6645746E-1,-9.092782E-3,-2.186371E-1,3.016374E-1,-3.43798E-1,8.913012E-1,7.2264874E-1,-1.1353751E0,-5.463779E-1,9.069012E-1,-3.13035E-1,7.8317916E-1,8.5419005E-1,-1.6845465E0,-3.135377E-1,9.2985195E-1,-2.4826287E-1,8.429286E-1,6.952781E-2,2.707781E-1,-2.753022E-1,-1.8458953E0,-5.463862E-1,9.4239837E-1,-1.968747E-1,8.86555E-1,-2.7401313E-1,-2.009239E0,-2.3705141E-1,2.8833553E-1,-1.655394E-1,2.7606308E-1,-2.2515073E-1,-6.438938E-1],"categories":[],"categories_nodes":[],"categories_segments":[],"categories_sizes":[],"default_left":[0,0,0,0,0,0,0,0,0,0,0,0,0,0,0,0,0,0,0,0,0,0,0,0,0,0,0,0,0,0,0,0,0,0,0,0,0,0,0,0,0,0,0,0,0],"id":14,"left_children":[1,3,-1,-1,5,-1,7,9,11,-1,13,15,17,-1,-1,-1,19,21,23,-1,25,-1,27,29,31,-1,33,-1,35,-1,-1,-1,37,-1,39,-1,41,-1,43,-1,-1,-1,-1,-1,-1],"loss_changes":[2.8271318E3,3.5122156E2,0E0,0E0,1.9885071E2,0E0,4.09021E1,9.571045E0,6.837933E1,0E0,7.6451416E0,2.0208588E1,9.7397156E1,0E0,0E0,0E0,1.7716919E1,8.476208E0,5.2288166E1,0E0,1.7912933E1,0E0,7.419098E0,1.1411047E-1,2.8605194E0,0E0,1.4635437E1,0E0,5.0187263E0,0E0,0E0,0E0,2.6463165E0,0E0,1.2865082E1,0E0,3.7194557E0,0E0,2.5651016E0,0E0,0E0,0E0,0E0,0E0,0E0],"parents":[2147483647,0,0,1,1,4,4,6,6,7,7,8,8,10,10,11,11,12,12,16,16,17,17,18,18,20,20,22,22,23,23,24,24,26,26,28,28,32,32,34,34,36,36,38,38],"right_children":[2,4,-1,-1,6,-1,8,10,12,-1,14,16,18,-1,-1,-1,20,22,24,-1,26,-1,28,30,32,-1,34,-1,36,-1,-1,-1,38,-1,40,-1,42,-1,44,-1,-1,-1,-1,-1,-1],"split_conditions":[2.00001E0,2.00001E0,-3.0183244E-1,-2.9923475E-1,2.00001E0,-3.0047512E-1,2.00001E0,2.00001E0,2.00001E0,-2.1730942E-1,2.00001E0,2.00001E0,2.00001E0,-2.186371E-1,3.016374E-1,-3.43798E-1,2.00001E0,2.00001E0,2.00001E0,-5.463779E-1,2.00001E0,-3.13035E-1,2.00001E0,2.00001E0,2.00001E0,-3.135377E-1,2.00001E0,-2.4826287E-1,2.00001E0,6.952781E-2,2.707781E-1,-2.753022E-1,2.00001E0,-5.463862E-1,2.00001E0,-1.968747E-1,2.00001E0,-2.7401313E-1,2.00001E0,-2.3705141E-1,2.8833553E-1,-1.655394E-1,2.7606308E-1,-2.2515073E-1,-6.438938E-1],"split_indices":[1,98,0,0,222,0,10,540,19,0,868,630,12,0,0,0,1579,60,297,0,556,0,58,4,561,0,1494,0,720,0,0,0,849,0,540,0,540,0,540,0,0,0,0,0,0],"split_type":[0,0,0,0,0,0,0,0,0,0,0,0,0,0,0,0,0,0,0,0,0,0,0,0,0,0,0,0,0,0,0,0,0,0,0,0,0,0,0,0,0,0,0,0,0],"sum_hessian":[3.6770662E3,2.076883E3,1.6001831E3,1.0679479E2,1.9700884E3,5.5109993E1,1.9149784E3,1.4160275E3,4.9895087E2,2.5523574E0,1.4134751E3,3.8276715E2,1.1618372E2,1.8818191E0,1.4115933E3,4.1173363E0,3.786498E2,7.064458E1,4.5539146E1,1.5033047E0,3.7714648E2,1.802898E0,6.8841675E1,9.730738E0,3.580841E1,3.865166E0,3.7328134E2,2.0027013E0,6.6838974E1,1.1197468E0,8.610991E0,7.386888E0,2.8421522E1,1.0401361E0,3.7224118E2,1.492947E0,6.534603E1,5.2188997E0,2.3202621E1,3.5384865E0,3.687027E2,1.1420383E0,6.420399E1,2.9144678E0,2.0288155E1],"tree_param":{"num_deleted":"0","num_feature":"4096","num_nodes":"45","size_leaf_vector":"1"}},{"base_weights":[-8.923838E-3,7.5172913E-1,-3.012408E-1,-3.0244726E-1,8.467176E-1,-2.9802516E-1,9.072161E-1,9.9655473E-1,6.5613097E-1,-2.0377679E-1,1.000513E0,8.544711E-1,7.214315E-3,-2.0132245E-1,3.010961E-1,-3.1185195E-1,8.825011E-1,7.352625E-1,-1.066677E0,-3.1492493E-1,9.0884715E-1,-1.5187775E-1,8.8874555E-1,2.6568174E-1,-1.5896354E0,-4.5384252E-1,9.269393E-1,2.3343647E-1,-2.653046E-1,6.8308395E-1,2.9172894E-1,-2.6354483E-1,-1.7253766E0,-2.235591E-1,9.46488E-1,2.794742E-1,2.6479384E-1,-2.5792307E-1,-1.8653448E0,-3.3058572E-1,2.8864598E-1,2.1514443E-1,-3.6494646E-2,-2.1137169E-1,-5.949323E-1],"categories":[],"categories_nodes":[],"categories_segments":[],"categories_sizes":[],"default_left":[0,0,0,0,0,0,0,0,0,0,0,0,0,0,0,0,0,0,0,0,0,0,0,0,0,0,0,0,0,0,0,0,0,0,0,0,0,0,0,0,0,0,0,0,0],"id":15,"left_children":[1,3,-1,-1,5,-1,7,9,11,-1,13,15,17,-1,-1,-1,19,21,23,-1,25,27,29,-1,31,-1,33,-1,-1,35,-1,-1,37,-1,39,41,-1,-1,43,-1,-1,-1,-1,-1,-1],"loss_changes":[2.0767063E3,2.607827E2,0E0,0E0,1.6519592E2,0E0,3.1408813E1,7.65979E0,4.8649628E1,0E0,6.187256E0,1.6288101E1,7.0764015E1,0E0,0E0,0E0,1.5505859E1,7.4787235E0,3.8746075E1,0E0,1.3781235E1,6.6887264E0,1.2959671E-1,0E0,1.3033066E0,0E0,9.892853E0,0E0,0E0,1.0985188E0,0E0,0E0,1.2417221E0,0E0,9.989334E0,1.3142331E0,0E0,0E0,1.2493286E0,0E0,0E0,0E0,0E0,0E0,0E0],"parents":[2147483647,0,0,1,1,4,4,6,6,7,7,8,8,10,10,11,11,12,12,16,16,17,17,18,18,20,20,21,21,22,22,24,24,26,26,29,29,32,32,34,34,35,35,38,38],"right_children":[2,4,-1,-1,6,-1,8,10,12,-1,14,16,18,-1,-1,-1,20,22,24,-1,26,28,30,-1,32,-1,34,-1,-1,36,-1,-1,38,-1,40,42,-1,-1,44,-1,-1,-1,-1,-1,-1],"split_conditions":[2.00001E0,2.00001E0,-3.012408E-1,-3.0244726E-1,2.00001E0,-2.9802516E-1,2.00001E0,2.00001E0,2.00001E0,-2.0377679E-1,2.00001E0,2.00001E0,2.00001E0,-2.0132245E-1,3.010961E-1,-3.1185195E-1,2.00001E0,2.00001E0,2.00001E0,-3.1492493E-1,2.00001E0,2.00001E0,2.00001E0,2.6568174E-1,2.00001E0,-4.5384252E-1,2.00001E0,2.3343647E-1,-2.653046E-1,2.00001E0,2.9172894E-1,-2.6354483E-1,2.00001E0,-2.235591E-1,2.00001E0,2.00001E0,2.6479384E-1,-2.5792307E-1,2.00001E0,-3.3058572E-1,2.8864598E-1,2.1514443E-1,-3.6494646E-2,-2.1137169E-1,-5.949323E-1],"split_indices":[1,58,0,0,222,0,10,540,19,0,868,277,12,0,0,0,630,4,297,0,1579,64,35,0,561,0,540,0,0,289,0,0,849,0,258,13,0,0,540,0,0,0,0,0,0],"split_type":[0,0,0,0,0,0,0,0,0,0,0,0,0,0,0,0,0,0,0,0,0,0,0,0,0,0,0,0,0,0,0,0,0,0,0,0,0,0,0,0,0,0,0,0,0],"sum_hessian":[2.7413E3,1.5538885E3,1.1874116E3,7.908257E1,1.4748059E3,4.6453274E1,1.4283527E3,1.0513151E3,3.7703763E2,2.0752947E0,1.0492397E3,2.885317E2,8.850592E1,1.5688839E0,1.0476709E3,3.681612E0,2.848501E2,5.2934277E1,3.5571644E1,3.3091292E0,2.8154095E2,7.808894E0,4.5125385E1,7.3689165E0,2.8202728E1,1.4751422E0,2.8006583E2,3.4130762E0,4.395818E0,1.5701117E1,2.9424267E1,5.717951E0,2.2484777E1,2.807429E0,2.772584E2,5.988981E0,9.712135E0,4.123767E0,1.8361012E1,1.5779257E0,2.7568045E2,2.4872446E0,3.5017362E0,2.3343725E0,1.6026638E1],"tree_param":{"num_deleted":"0","num_feature":"4096","num_nodes":"45","size_leaf_vector":"1"}},{"base_weights":[-9.928817E-3,7.424973E-1,-3.0076432E-1,-3.0001605E-1,8.364939E-1,-2.9507044E-1,8.964851E-1,9.937846E-1,6.30444E-1,-1.897665E-1,9.9813473E-1,8.2905734E-1,7.1238633E-3,-1.8522803E-1,3.0050138E-1,-2.8508115E-1,8.5832465E-1,6.998597E-1,-1.0131669E0,-2.888011E-1,8.859889E-1,-2.4084075E-1,7.768535E-1,2.5611803E-1,-1.5013934E0,-3.823134E-1,9.064718E-1,-2.584748E-1,8.4382147E-1,-2.511101E-1,-1.6134492E0,-3.0984172E-1,9.232545E-1,4.5446795E-1,2.628993E-1,-2.4215049E-1,-1.730641E0,-2.0958744E-1,2.832403E-1,2.201809E-1,-4.5526776E-2,-1.9736117E-1,-5.4911023E-1],"categories":[],"categories_nodes":[],"categories_segments":[],"categories_sizes":[],"default_left":[0,0,0,0,0,0,0,0,0,0,0,0,0,0,0,0,0,0,0,0,0,0,0,0,0,0,0,0,0,0,0,0,0,0,0,0,0,0,0,0,0,0,0],"id":16,"left_children":[1,3,-1,-1,5,-1,7,9,11,-1,13,15,17,-1,-1,-1,19,21,23,-1,25,-1,27,-1,29,-1,31,-1,33,-1,35,-1,37,39,-1,-1,41,-1,-1,-1,-1,-1,-1],"loss_changes":[1.527491E3,1.9138623E2,0E0,0E0,1.2146362E2,0E0,2.7061768E1,6.160034E0,3.5793915E1,0E0,5.0735474E0,1.2235413E1,5.0810337E1,0E0,0E0,0E0,1.174765E1,5.576746E0,2.7781883E1,0E0,1.060495E1,0E0,5.2512016E0,0E0,3.922119E-1,0E0,7.8575897E0,0E0,1.0954857E-1,0E0,3.9392853E-1,0E0,7.799515E0,9.8710144E-1,0E0,0E0,4.7266388E-1,0E0,0E0,0E0,0E0,0E0,0E0],"parents":[2147483647,0,0,1,1,4,4,6,6,7,7,8,8,10,10,11,11,12,12,16,16,17,17,18,18,20,20,22,22,24,24,26,26,28,28,30,30,32,32,33,33,36,36],"right_children":[2,4,-1,-1,6,-1,8,10,12,-1,14,16,18,-1,-1,-1,20,22,24,-1,26,-1,28,-1,30,-1,32,-1,34,-1,36,-1,38,40,-1,-1,42,-1,-1,-1,-1,-1,-1],"split_conditions":[2.00001E0,2.00001E0,-3.0076432E-1,-3.0001605E-1,2.00001E0,-2.9507044E-1,2.00001E0,2.00001E0,2.00001E0,-1.897665E-1,2.00001E0,2.00001E0,2.00001E0,-1.8522803E-1,3.0050138E-1,-2.8508115E-1,2.00001E0,2.00001E0,2.00001E0,-2.888011E-1,2.00001E0,-2.4084075E-1,2.00001E0,2.5611803E-1,2.00001E0,-3.823134E-1,2.00001E0,-2.584748E-1,2.00001E0,-2.511101E-1,2.00001E0,-3.0984172E-1,2.00001E0,2.00001E0,2.628993E-1,-2.4215049E-1,2.00001E0,-2.0958744E-1,2.832403E-1,2.201809E-1,-4.5526776E-2,-1.9736117E-1,-5.4911023E-1],"split_indices":[1,58,0,0,222,0,10,540,19,0,868,277,12,0,0,0,630,783,297,0,1579,0,1914,0,561,0,258,0,4,0,849,0,540,64,0,0,540,0,0,0,0,0,0],"split_type":[0,0,0,0,0,0,0,0,0,0,0,0,0,0,0,0,0,0,0,0,0,0,0,0,0,0,0,0,0,0,0,0,0,0,0,0,0,0,0,0,0,0,0],"sum_hessian":[2.0431865E3,1.1623514E3,8.808351E2,5.899711E1,1.1033544E3,3.4716E1,1.0686383E3,7.8046313E2,2.8817523E2,1.6967776E0,7.7876636E2,2.182898E2,6.9885445E1,1.3218179E0,7.774445E2,3.0232067E0,2.1526659E2,4.181132E1,2.8074123E1,2.715582E0,2.1255101E2,1.5784473E0,4.0232872E1,5.664693E0,2.240943E1,1.4213518E0,2.1112965E2,1.113929E0,3.9118946E1,4.456626E0,1.7952805E1,1.2920425E0,2.0983762E2,4.16893E0,3.4950016E1,3.2792327E0,1.4673571E1,2.2545054E0,2.075831E2,2.7092845E0,1.4596454E0,1.8941962E0,1.2779375E1],"tree_param":{"num_deleted":"0","num_feature":"4096","num_nodes":"43","size_leaf_vector":"1"}},{"base_weights":[-1.175858E-2,7.305909E-1,-3.0035877E-1,-2.9733625E-1,8.233799E-1,-2.916222E-1,8.8276887E-1,9.9091834E-1,5.968932E-1,-1.7609216E-1,9.9576414E-1,2.9539177E-1,2.7025545E-1,-1.7041296E-1,2.9993784E-1,-5.8715034E-1,5.932546E-1,6.973371E-1,-1.0657612E0,-3.2554287E-1,6.682955E-1,1.1360159E-2,2.6180425E-1,2.529229E-1,-1.6149532E0,-4.0903032E-1,7.233452E-1,-7.947224E-1,-4.2360568E-1,-2.3230238E-1,7.946999E-1,-2.2963713E-1,2.5118807E-1],"categories":[],"categories_nodes":[],"categories_segments":[],"categories_sizes":[],"default_left":[0,0,0,0,0,0,0,0,0,0,0,0,0,0,0,0,0,0,0,0,0,0,0,0,0,0,0,0,0,0,0,0,0],"id":17,"left_children":[1,3,-1,-1,5,-1,7,9,11,-1,13,-1,15,-1,-1,17,19,21,23,-1,25,-1,-1,-1,27,-1,29,-1,-1,-1,31,-1,-1],"loss_changes":[1.121124E3,1.4013559E2,0E0,0E0,8.915094E1,0E0,2.4205505E1,5.022156E0,2.7933548E1,0E0,4.215515E0,0E0,3.419834E1,0E0,0E0,2.161362E1,1.1969828E1,1.1024919E0,2.770394E1,0E0,1.0613689E1,0E0,0E0,0E0,4.2659378E-1,0E0,9.641388E0,0E0,0E0,0E0,6.0310783E0,0E0,0E0],"parents":[2147483647,0,0,1,1,4,4,6,6,7,7,8,8,10,10,12,12,15,15,16,16,17,17,18,18,20,20,24,24,26,26,30,30],"right_children":[2,4,-1,-1,6,-1,8,10,12,-1,14,-1,16,-1,-1,18,20,22,24,-1,26,-1,-1,-1,28,-1,30,-1,-1,-1,32,-1,-1],"split_conditions":[2.00001E0,2.00001E0,-3.0035877E-1,-2.9733625E-1,2.00001E0,-2.916222E-1,2.00001E0,2.00001E0,2.00001E0,-1.7609216E-1,2.00001E0,2.9539177E-1,2.00001E0,-1.7041296E-1,2.9993784E-1,2.00001E0,2.00001E0,2.00001E0,2.00001E0,-3.2554287E-1,2.00001E0,1.1360159E-2,2.6180425E-1,2.529229E-1,2.00001E0,-4.0903032E-1,2.00001E0,-7.947224E-1,-4.2360568E-1,-2.3230238E-1,2.00001E0,-2.2963713E-1,2.5118807E-1],"split_indices":[1,58,0,0,222,0,10,540,13,0,868,0,4,0,0,64,630,63,29,0,105,0,0,0,81,0,540,0,0,0,87,0,0],"split_type":[0,0,0,0,0,0,0,0,0,0,0,0,0,0,0,0,0,0,0,0,0,0,0,0,0,0,0,0,0,0,0,0,0],"sum_hessian":[1.5243641E3,8.710781E2,6.53286E2,4.404964E1,8.270285E2,2.5988031E1,8.0104047E2,5.793867E2,2.2165375E2,1.4060798E0,5.7798065E2,1.0042569E2,1.21228065E2,1.1254275E0,5.768552E2,3.2948368E1,8.827969E1,8.82011E0,2.4128258E1,3.2019851E0,8.507771E1,2.1079695E0,6.7121406E0,5.271361E0,1.8856897E1,1.6173798E0,8.346033E1,1.1160123E0,1.7740885E1,3.3474593E0,8.011287E1,1.6780107E0,7.843486E1],"tree_param":{"num_deleted":"0","num_feature":"4096","num_nodes":"33","size_leaf_vector":"1"}},{"base_weights":[-1.3634244E-2,7.1751326E-1,-2.99987E-1,-3.051093E-1,8.0782366E-1,-2.9882684E-1,8.676466E-1,9.8779374E-1,5.6357265E-1,-1.6153404E-1,2.9794547E-1,7.868674E-1,-7.196718E-2,-2.9692465E-1,8.1061804E-1,6.459115E-1,-9.8716474E-1,-2.723194E-1,8.340656E-1,-9.4518974E-2,7.9709643E-1,2.1256375E-1,-4.1286972E-1,-2.3095614E-1,8.601262E-1,1.8859322E-1,-1.7838761E-1,5.037698E-1,2.7915078E-1,-2.6724935E-1,8.8314277E-1,1.0816037E-1,2.1944335E-1,-1.9551961E-1,2.723064E-1,1.6115837E-1,-6.0614113E-2],"categories":[],"categories_nodes":[],"categories_segments":[],"categories_sizes":[],"default_left":[0,0,0,0,0,0,0,0,0,0,0,0,0,0,0,0,0,0,0,0,0,0,0,0,0,0,0,0,0,0,0,0,0,0,0,0,0],"id":18,"left_children":[1,3,-1,-1,5,-1,7,9,11,-1,-1,13,15,-1,17,19,21,-1,23,25,27,-1,-1,-1,29,-1,-1,31,-1,-1,33,35,-1,-1,-1,-1,-1],"loss_changes":[8.2239655E2,1.0341455E2,0E0,0E0,6.8103546E1,0E0,2.149533E1,4.0618286E0,2.4647503E1,0E0,0E0,6.2165756E0,3.0839298E1,0E0,5.8809204E0,3.0268164E0,1.4567799E1,0E0,5.927971E0,2.3139997E0,3.9218998E-1,0E0,0E0,0E0,5.801674E0,0E0,0E0,7.36918E-1,0E0,0E0,5.237694E0,7.051522E-1,0E0,0E0,0E0,0E0,0E0],"parents":[2147483647,0,0,1,1,4,4,6,6,7,7,8,8,11,11,12,12,14,14,15,15,16,16,18,18,19,19,20,20,24,24,27,27,30,30,31,31],"right_children":[2,4,-1,-1,6,-1,8,10,12,-1,-1,14,16,-1,18,20,22,-1,24,26,28,-1,-1,-1,30,-1,-1,32,-1,-1,34,36,-1,-1,-1,-1,-1],"split_conditions":[2.00001E0,2.00001E0,-2.99987E-1,-3.051093E-1,2.00001E0,-2.9882684E-1,2.00001E0,2.00001E0,2.00001E0,-1.6153404E-1,2.9794547E-1,2.00001E0,2.00001E0,-2.9692465E-1,2.00001E0,2.00001E0,2.00001E0,-2.723194E-1,2.00001E0,2.00001E0,2.00001E0,2.1256375E-1,-4.1286972E-1,-2.3095614E-1,2.00001E0,1.8859322E-1,-1.7838761E-1,2.00001E0,2.7915078E-1,-2.6724935E-1,2.00001E0,2.00001E0,2.1944335E-1,-1.9551961E-1,2.723064E-1,1.6115837E-1,-6.0614113E-2],"split_indices":[1,59,0,0,224,0,10,540,19,0,0,272,12,0,1579,4,297,0,630,64,35,0,0,0,923,0,0,289,0,0,556,13,0,0,0,0,0],"split_type":[0,0,0,0,0,0,0,0,0,0,0,0,0,0,0,0,0,0,0,0,0,0,0,0,0,0,0,0,0,0,0,0,0,0,0,0,0],"sum_hessian":[1.1384055E3,6.539292E2,4.8447638E2,3.1854525E1,6.2207465E2,1.9465227E1,6.0260944E2,4.303277E2,1.7228175E2,1.1572978E0,4.291704E2,1.2731274E2,4.496901E1,1.1429707E0,1.2616977E2,2.5366121E1,1.9602886E1,1.1907762E0,1.2497899E2,4.3647075E0,2.1001413E1,3.505107E0,1.6097778E1,1.5418777E0,1.2343711E2,1.6793362E0,2.6853714E0,8.058657E0,1.2942758E1,1.1123527E0,1.2232476E2,3.4827979E0,4.5758586E0,1.523196E0,1.2080157E2,1.1544298E0,2.3283682E0],"tree_param":{"num_deleted":"0","num_feature":"4096","num_nodes":"37","size_leaf_vector":"1"}},{"base_weights":[-1.5438272E-2,6.9906455E-1,-2.9961517E-1,-2.921601E-1,7.893252E-1,-2.944988E-1,8.4716505E-1,9.825235E-1,5.217217E-1,-1.7217778E-1,2.96947E-1,2.90661E-1,1.7864707E-1,6.451201E-1,-3.9583704E-1,-6.3321866E-2,8.293315E-1,7.2447205E-1,-1.0056602E0,4.124491E-1,-3.5566565E-1,-2.3226798E-1,2.7058697E-1,-2.0068997E-1,2.72728E-1,-8.094865E-2,-1.2454344E0,2.2808474E-1,6.2123863E-3,-2.200222E-1,2.0739293E-1,1.541298E-1,-1.3799852E0,1.1973701E-1,-1.7248522E-1,-1.1905956E-2,-4.3857887E-1],"categories":[],"categories_nodes":[],"categories_segments":[],"categories_sizes":[],"default_left":[0,0,0,0,0,0,0,0,0,0,0,0,0,0,0,0,0,0,0,0,0,0,0,0,0,0,0,0,0,0,0,0,0,0,0,0,0],"id":19,"left_children":[1,3,-1,-1,5,-1,7,9,11,-1,-1,-1,13,15,17,19,21,23,25,27,-1,-1,-1,-1,-1,29,31,-1,33,-1,-1,-1,35,-1,-1,-1,-1],"loss_changes":[6.01475E2,7.564067E1,0E0,0E0,4.907901E1,0E0,1.9603546E1,4.219513E0,2.0731674E1,0E0,0E0,0E0,2.1247786E1,5.7440205E0,2.5134409E1,5.7903247E0,4.7374516E0,3.9969487E0,5.1208744E0,1.0853926E0,0E0,0E0,0E0,0E0,0E0,3.4892564E0,5.1191883E0,0E0,1.2722975E0,0E0,0E0,0E0,1.8727264E0,0E0,0E0,0E0,0E0],"parents":[2147483647,0,0,1,1,4,4,6,6,7,7,8,8,12,12,13,13,14,14,15,15,16,16,17,17,18,18,19,19,25,25,26,26,28,28,32,32],"right_children":[2,4,-1,-1,6,-1,8,10,12,-1,-1,-1,14,16,18,20,22,24,26,28,-1,-1,-1,-1,-1,30,32,-1,34,-1,-1,-1,36,-1,-1,-1,-1],"split_conditions":[2.00001E0,2.00001E0,-2.9961517E-1,-2.921601E-1,2.00001E0,-2.944988E-1,2.00001E0,2.00001E0,2.00001E0,-1.7217778E-1,2.96947E-1,2.90661E-1,2.00001E0,2.00001E0,2.00001E0,2.00001E0,2.00001E0,2.00001E0,2.00001E0,2.00001E0,-3.5566565E-1,-2.3226798E-1,2.7058697E-1,-2.0068997E-1,2.72728E-1,2.00001E0,2.00001E0,2.2808474E-1,2.00001E0,-2.200222E-1,2.0739293E-1,1.541298E-1,2.00001E0,1.1973701E-1,-1.7248522E-1,-1.1905956E-2,-4.3857887E-1],"split_indices":[1,58,0,0,224,0,10,868,13,0,0,0,12,4,289,3,630,630,64,11,0,0,0,0,0,540,117,0,64,0,0,0,27,0,0,0,0],"split_type":[0,0,0,0,0,0,0,0,0,0,0,0,0,0,0,0,0,0,0,0,0,0,0,0,0,0,0,0,0,0,0,0,0,0,0,0,0],"sum_hessian":[8.5413055E2,4.9484146E2,3.592891E2,2.4830578E1,4.700109E2,1.435977E1,4.5565112E2,3.2037967E2,1.3527145E2,1.133232E0,3.1924646E2,5.793607E1,7.733538E1,4.261204E1,3.4723335E1,8.929014E0,3.368303E1,1.2172736E1,2.25506E1,6.7147584E0,2.2142565E0,1.0408342E0,3.2642193E1,1.1171947E0,1.1055542E1,4.918718E0,1.7631882E1,3.1478977E0,3.5668604E0,2.6934278E0,2.2252903E0,1.0524975E0,1.6579384E1,2.3149855E0,1.2518749E0,1.0407627E0,1.5538621E1],"tree_param":{"num_deleted":"0","num_feature":"4096","num_nodes":"37","size_leaf_vector":"1"}},{"base_weights":[-1.6391212E-2,6.837216E-1,-2.9920998E-1,-3.0046988E-1,7.7101743E-1,-2.8868482E-1,8.290922E-1,9.7190464E-1,4.991779E-1,-1.7132555E-1,2.9484203E-1,2.8513584E-1,1.724773E-1,6.036243E-1,-3.634728E-1,7.8043337E-3,7.8800195E-1,6.657725E-1,-9.085462E-1,2.1478134E-1,-3.5619932E-1,2.6425588E-1,4.8872063E-1,3.2911986E-1,2.4092449E-1,1.509681E-1,-1.014562E0,3.8835967E-1,-4.3761685E-1,7.189603E-2,2.3872207E-1,-2.8936908E-2,1.943462E-1,-2.015519E-1,-1.1908126E0,-7.808996E-2,2.1494357E-1,1.6352901E-1,-7.178036E-2,-2.0619255E-1,1.6859524E-1,-4.4140764E-2,-3.889975E-1],"categories":[],"categories_nodes":[],"categories_segments":[],"categories_sizes":[],"default_left":[0,0,0,0,0,0,0,0,0,0,0,0,0,0,0,0,0,0,0,0,0,0,0,0,0,0,0,0,0,0,0,0,0,0,0,0,0,0,0,0,0,0,0],"id":20,"left_children":[1,3,-1,-1,5,-1,7,9,11,-1,-1,-1,13,15,17,19,21,23,25,-1,27,-1,29,31,-1,-1,33,35,-1,37,-1,-1,-1,39,41,-1,-1,-1,-1,-1,-1,-1,-1],"loss_changes":[4.4110834E2,5.5912704E1,0E0,0E0,3.6724686E1,0E0,1.5811111E1,4.6040497E0,1.5544386E1,0E0,0E0,0E0,1.47828665E1,3.8721447E0,1.6718243E1,2.665871E0,3.1842422E-1,2.2204733E-1,3.3842869E0,0E0,6.185772E0,0E0,1.046916E0,7.0571965E-1,0E0,0E0,2.366619E0,1.2242312E0,0E0,8.3112586E-1,0E0,0E0,0E0,2.0347598E0,1.4382038E0,0E0,0E0,0E0,0E0,0E0,0E0,0E0,0E0],"parents":[2147483647,0,0,1,1,4,4,6,6,7,7,8,8,12,12,13,13,14,14,15,15,16,16,17,17,18,18,20,20,22,22,23,23,26,26,27,27,29,29,33,33,34,34],"right_children":[2,4,-1,-1,6,-1,8,10,12,-1,-1,-1,14,16,18,20,22,24,26,-1,28,-1,30,32,-1,-1,34,36,-1,38,-1,-1,-1,40,42,-1,-1,-1,-1,-1,-1,-1,-1],"split_conditions":[2.00001E0,2.00001E0,-2.9920998E-1,-3.0046988E-1,2.00001E0,-2.8868482E-1,2.00001E0,2.00001E0,2.00001E0,-1.7132555E-1,2.9484203E-1,2.8513584E-1,2.00001E0,2.00001E0,2.00001E0,2.00001E0,2.00001E0,2.00001E0,2.00001E0,2.1478134E-1,2.00001E0,2.6425588E-1,2.00001E0,2.00001E0,2.4092449E-1,1.509681E-1,2.00001E0,2.00001E0,-4.3761685E-1,2.00001E0,2.3872207E-1,-2.8936908E-2,1.943462E-1,2.00001E0,2.00001E0,-7.808996E-2,2.1494357E-1,1.6352901E-1,-7.178036E-2,-2.0619255E-1,1.6859524E-1,-4.4140764E-2,-3.889975E-1],"split_indices":[1,59,0,0,224,0,10,540,13,0,0,0,12,4,289,18,19,35,37,0,64,0,35,7,0,0,64,7,0,55,0,0,0,540,41,0,0,0,0,0,0,0,0],"split_type":[0,0,0,0,0,0,0,0,0,0,0,0,0,0,0,0,0,0,0,0,0,0,0,0,0,0,0,0,0,0,0,0,0,0,0,0,0,0,0,0,0,0,0],"sum_hessian":[6.402793E2,3.7380283E2,2.664765E2,1.7893183E1,3.5590964E2,1.1033511E1,3.4487613E2,2.3932974E2,1.05546364E2,1.3186349E0,2.3801111E2,4.3521053E1,6.2025314E1,3.4303482E1,2.7721832E1,8.352982E0,2.59505E1,9.521411E0,1.820042E1,2.5076845E0,5.8452973E0,1.8322716E1,7.6277847E0,3.7425075E0,5.778903E0,1.0095749E0,1.7190845E1,3.8757024E0,1.9695951E0,3.7588127E0,3.868972E0,1.9011531E0,1.8413544E0,3.4446907E0,1.3746155E1,1.3713552E0,2.504347E0,1.1929071E0,2.5659056E0,2.1663244E0,1.2783664E0,1.4857943E0,1.2260361E1],"tree_param":{"num_deleted":"0","num_feature":"4096","num_nodes":"43","size_leaf_vector":"1"}},{"base_weights":[-1.6367245E-2,6.6425395E-1,-2.9873556E-1,9.551599E-1,1.644182E-1,-1.8480834E-1,9.700989E-1,2.7942103E-1,-1.9043268E-1,-1.5803964E-1,2.947033E-1,-3.1874722E-1,1.5697558E-1,5.448706E-1,-3.1406763E-1,-2.1291763E-1,6.166226E-1,5.924578E-1,-7.911354E-1,-3.7691823E-1,7.1945506E-1,2.3869918E-1,2.907978E-1,1.318559E-1,-9.0147126E-1,5.4749E-3,-1.7053014E-1,2.3240548E-1,8.176599E-1,2.0111483E-1,-4.6927646E-2,2.269423E-2,-1.0022806E0,2.3203833E-1,-2.516053E-1,2.6327807E-1,4.144735E-1,1.2992257E-1,-3.4366053E-1,1.6653198E-1,-4.701741E-4],"categories":[],"categories_nodes":[],"categories_segments":[],"categories_sizes":[],"default_left":[0,0,0,0,0,0,0,0,0,0,0,0,0,0,0,0,0,0,0,0,0,0,0,0,0,0,0,0,0,0,0,0,0,0,0,0,0,0,0,0,0],"id":21,"left_children":[1,3,-1,5,7,-1,9,-1,11,-1,-1,-1,13,15,17,-1,19,21,23,25,27,-1,29,-1,31,-1,-1,33,35,-1,-1,-1,37,-1,-1,-1,39,-1,-1,-1,-1],"loss_changes":[3.23039E2,4.1418015E1,0E0,4.834961E0,2.913498E1,0E0,3.8025665E0,0E0,2.2456358E1,0E0,0E0,0E0,9.943494E0,3.1109E0,1.11887455E1,0E0,3.1957426E0,3.2758975E-1,2.6596212E0,2.6322687E-1,1.0671511E0,0E0,9.9545795E-1,0E0,1.6149492E0,0E0,0E0,4.0142555E0,1.5522575E-1,0E0,0E0,0E0,3.422945E0,0E0,0E0,0E0,2.743582E-1,0E0,0E0,0E0,0E0],"parents":[2147483647,0,0,1,1,3,3,4,4,6,6,8,8,12,12,13,13,14,14,16,16,17,17,18,18,19,19,20,20,22,22,24,24,27,27,28,28,32,32,36,36],"right_children":[2,4,-1,6,8,-1,10,-1,12,-1,-1,-1,14,16,18,-1,20,22,24,26,28,-1,30,-1,32,-1,-1,34,36,-1,-1,-1,38,-1,-1,-1,40,-1,-1,-1,-1],"split_conditions":[2.00001E0,2.00001E0,-2.9873556E-1,2.00001E0,2.00001E0,-1.8480834E-1,2.00001E0,2.7942103E-1,2.00001E0,-1.5803964E-1,2.947033E-1,-3.1874722E-1,2.00001E0,2.00001E0,2.00001E0,-2.1291763E-1,2.00001E0,2.00001E0,2.00001E0,2.00001E0,2.00001E0,2.3869918E-1,2.00001E0,1.318559E-1,2.00001E0,5.4749E-3,-1.7053014E-1,2.00001E0,2.00001E0,2.0111483E-1,-4.6927646E-2,2.269423E-2,2.00001E0,2.3203833E-1,-2.516053E-1,2.6327807E-1,2.00001E0,1.2992257E-1,-3.4366053E-1,1.6653198E-1,-4.701741E-4],"split_indices":[1,10,0,868,13,0,540,0,22,0,0,0,12,630,289,0,105,64,6,35,4,0,55,0,297,0,0,64,0,0,0,0,154,0,0,0,2,0,0,0,0],"split_type":[0,0,0,0,0,0,0,0,0,0,0,0,0,0,0,0,0,0,0,0,0,0,0,0,0,0,0,0,0,0,0,0,0,0,0,0,0,0,0,0,0],"sum_hessian":[4.8260553E2,2.8492563E2,1.9767992E2,1.7952852E2,1.0539711E2,1.3119296E0,1.7821658E2,3.2824497E1,7.257261E1,1.1051153E0,1.7711147E2,2.0088495E1,5.2484116E1,2.8696428E1,2.3787687E1,1.0714039E0,2.7625025E1,8.118678E0,1.5669008E1,2.3410478E0,2.5283978E1,3.8724654E0,4.246213E0,1.043758E0,1.4625251E1,1.059537E0,1.2815107E0,4.8075147E0,2.0476461E1,2.0268857E0,2.2193272E0,1.3911167E0,1.3234134E1,3.3786707E0,1.428844E0,1.6802177E1,3.6742857E0,1.017369E0,1.2216764E1,2.4962316E0,1.1780541E0],"tree_param":{"num_deleted":"0","num_feature":"4096","num_nodes":"41","size_leaf_vector":"1"}},{"base_weights":[-1.6765187E-2,6.434939E-1,-2.9815054E-1,9.4220877E-1,1.5566741E-1,-1.7005515E-1,9.589894E-1,2.719006E-1,-1.7500052E-1,8.595729E-2,2.8939262E-1,-3.197396E-1,1.4632766E-1,2.7160436E-1,-8.466252E-2,-5.138281E-1,2.208508E-2,4.698069E-1,-4.3036285E-1,7.342899E-1,-3.4380335E-2,4.1943166E-1,-8.056635E-1,2.424681E-1,7.335392E-2,2.0055157E-1,-4.532263E-1,2.008517E-1,1.2221734E-1,2.2085463E-3,-9.7243243E-1,1.687349E-1,-2.8791004E-1,1.5806942E-1,-6.647421E-2,-8.50378E-2,-3.2380083E-1],"categories":[],"categories_nodes":[],"categories_segments":[],"categories_sizes":[],"default_left":[0,0,0,0,0,0,0,0,0,0,0,0,0,0,0,0,0,0,0,0,0,0,0,0,0,0,0,0,0,0,0,0,0,0,0,0,0],"id":22,"left_children":[1,3,-1,5,7,-1,9,-1,11,-1,-1,-1,13,-1,15,-1,17,19,21,23,25,27,29,-1,-1,-1,31,-1,33,-1,35,-1,-1,-1,-1,-1,-1],"loss_changes":[2.3628691E2,3.1705727E1,0E0,3.9716263E0,2.1062025E1,0E0,2.3394012E-1,0E0,1.71296E1,0E0,0E0,0E0,7.871371E0,0E0,6.1206355E0,0E0,7.055863E0,2.356671E0,5.871277E0,2.1928072E-1,2.3552585E0,3.620957E-1,1.6853476E0,0E0,0E0,0E0,3.093358E0,0E0,6.666436E-1,0E0,4.5106506E-1,0E0,0E0,0E0,0E0,0E0,0E0],"parents":[2147483647,0,0,1,1,3,3,4,4,6,6,8,8,12,12,14,14,16,16,17,17,18,18,19,19,20,20,21,21,22,22,26,26,28,28,30,30],"right_children":[2,4,-1,6,8,-1,10,-1,12,-1,-1,-1,14,-1,16,-1,18,20,22,24,26,28,30,-1,-1,-1,32,-1,34,-1,36,-1,-1,-1,-1,-1,-1],"split_conditions":[2.00001E0,2.00001E0,-2.9815054E-1,2.00001E0,2.00001E0,-1.7005515E-1,2.00001E0,2.719006E-1,2.00001E0,8.595729E-2,2.8939262E-1,-3.197396E-1,2.00001E0,2.7160436E-1,2.00001E0,-5.138281E-1,2.00001E0,2.00001E0,2.00001E0,2.00001E0,2.00001E0,2.00001E0,2.00001E0,2.424681E-1,7.335392E-2,2.0055157E-1,2.00001E0,2.008517E-1,2.00001E0,2.2085463E-3,2.00001E0,1.687349E-1,-2.8791004E-1,1.5806942E-1,-6.647421E-2,-8.50378E-2,-3.2380083E-1],"split_indices":[1,10,0,868,13,0,923,0,22,0,0,0,37,0,81,0,12,19,289,0,64,64,7,0,0,0,55,0,55,0,64,0,0,0,0,0,0],"split_type":[0,0,0,0,0,0,0,0,0,0,0,0,0,0,0,0,0,0,0,0,0,0,0,0,0,0,0,0,0,0,0,0,0,0,0,0,0],"sum_hessian":[3.6427725E2,2.175848E2,1.4669244E2,1.3437215E2,8.3212654E1,1.1172698E0,1.3325487E2,2.4913712E1,5.8298946E1,1.5416396E0,1.3171323E2,1.4840551E1,4.3458393E1,9.458592E0,3.39998E1,1.1663196E0,3.283348E1,1.6483648E1,1.6349834E1,1.0512626E1,5.971022E0,4.972653E0,1.1377181E1,8.568868E0,1.9437581E0,2.006968E0,3.964054E0,2.0202374E0,2.9524152E0,2.0991826E0,9.277998E0,1.2822088E0,2.6818454E0,1.1115006E0,1.8409146E0,1.7367188E0,7.5412793E0],"tree_param":{"num_deleted":"0","num_feature":"4096","num_nodes":"37","size_leaf_vector":"1"}},{"base_weights":[-1.7495565E-2,6.143194E-1,-2.9740503E-1,9.186617E-1,1.430878E-1,-1.625099E-1,9.4084907E-1,8.73931E-1,-1.6175577E-1,4.0155318E-1,2.8623077E-1,4.146805E-1,2.822412E-1,-3.200178E-1,1.309457E-1,-5.9181567E-2,2.0120347E-1,1.8193789E-1,2.7839357E-2,2.6368564E-1,-7.54521E-2,2.2666623E-1,-2.5892416E-1,5.146236E-1,-6.298523E-1,-1.6105422E-1,7.415331E-1,2.090633E-1,-8.7049025E-1,7.644916E-2,2.5050005E-1,1.9343182E-1,-1.1999356E0,1.6098775E-1,-4.239703E-1],"categories":[],"categories_nodes":[],"categories_segments":[],"categories_sizes":[],"default_left":[0,0,0,0,0,0,0,0,0,0,0,0,0,0,0,0,0,0,0,0,0,0,0,0,0,0,0,0,0,0,0,0,0,0,0],"id":23,"left_children":[1,3,-1,5,7,-1,9,11,13,15,-1,17,-1,-1,19,-1,-1,-1,-1,-1,21,-1,23,25,27,-1,29,-1,31,-1,-1,-1,33,-1,-1],"loss_changes":[1.7187238E2,2.4168236E1,0E0,3.8393326E0,1.5218299E1,0E0,3.429947E-1,2.263956E-1,1.3012507E1,8.032868E-1,0E0,2.1161908E-1,0E0,0E0,5.8730226E0,0E0,0E0,0E0,0E0,0E0,4.83039E0,0E0,7.6826553E0,2.5125043E0,6.2842026E0,0E0,1.3790798E-1,0E0,8.510122E0,0E0,0E0,0E0,5.603136E0,0E0,0E0],"parents":[2147483647,0,0,1,1,3,3,4,4,6,6,7,7,8,8,9,9,11,11,14,14,20,20,22,22,23,23,24,24,26,26,28,28,32,32],"right_children":[2,4,-1,6,8,-1,10,12,14,16,-1,18,-1,-1,20,-1,-1,-1,-1,-1,22,-1,24,26,28,-1,30,-1,32,-1,-1,-1,34,-1,-1],"split_conditions":[2.00001E0,2.00001E0,-2.9740503E-1,2.00001E0,2.00001E0,-1.625099E-1,2.00001E0,2.00001E0,2.00001E0,2.00001E0,2.8623077E-1,2.00001E0,2.822412E-1,-3.200178E-1,2.00001E0,-5.9181567E-2,2.0120347E-1,1.8193789E-1,2.7839357E-2,2.6368564E-1,2.00001E0,2.2666623E-1,2.00001E0,2.00001E0,2.00001E0,-1.6105422E-1,2.00001E0,2.090633E-1,2.00001E0,7.644916E-2,2.5050005E-1,1.9343182E-1,2.00001E0,1.6098775E-1,-4.239703E-1],"split_indices":[1,10,0,540,13,0,154,22,22,5,0,23,0,0,37,0,0,0,0,0,55,0,64,540,209,0,63,0,51,0,0,0,29,0,0],"split_type":[0,0,0,0,0,0,0,0,0,0,0,0,0,0,0,0,0,0,0,0,0,0,0,0,0,0,0,0,0,0,0,0,0,0,0],"sum_hessian":[2.773431E2,1.6843527E2,1.0890783E2,1.01762825E2,6.667244E1,1.1725355E0,1.00590294E2,1.9074858E1,4.7597584E1,3.163476E0,9.742682E1,3.3397975E0,1.573506E1,1.0986197E1,3.6611385E1,1.063683E0,2.099793E0,1.5388453E0,1.8009521E0,7.2128296E0,2.9398556E1,4.752918E0,2.4645638E1,7.86217E0,1.6783466E1,1.1530708E0,6.7090993E0,2.2856793E0,1.4497788E1,1.6811932E0,5.0279064E0,2.4182143E0,1.2079574E1,1.1555861E0,1.0923987E1],"tree_param":{"num_deleted":"0","num_feature":"4096","num_nodes":"35","size_leaf_vector":"1"}},{"base_weights":[-1.5239087E-2,5.9465754E-1,-2.9643708E-1,8.8793534E-1,1.4754497E-1,-1.789282E-1,9.19178E-1,8.4005094E-1,-1.4592472E-1,3.0664635E-1,9.3566394E-1,3.693259E-1,2.7681127E-1,-3.1889722E-1,1.4027707E-1,-4.7506478E-2,1.756841E-1,5.499595E-2,2.8346333E-1,1.771954E-1,5.973463E-3,2.543084E-1,-5.564074E-2,-3.5240197E-1,7.983485E-2,4.152712E-1,-2.4269807E-1,2.149463E-1,2.2678201E-1,3.9028504E-1,-5.4074E-1,5.4448897E-1,-8.849682E-2,2.5228197E-2,1.604846E-1,-2.1248912E-3,-6.696263E-1,1.9921865E-1,5.1385205E-2,1.7187682E-1,-1.4181624E-1,-7.219398E-2,-2.199405E-1],"categories":[],"categories_nodes":[],"categories_segments":[],"categories_sizes":[],"default_left":[0,0,0,0,0,0,0,0,0,0,0,0,0,0,0,0,0,0,0,0,0,0,0,0,0,0,0,0,0,0,0,0,0,0,0,0,0,0,0,0,0,0,0],"id":24,"left_children":[1,3,-1,5,7,-1,9,11,13,15,17,19,-1,-1,21,-1,-1,-1,-1,-1,-1,-1,23,-1,25,27,29,-1,31,33,35,37,39,-1,-1,-1,41,-1,-1,-1,-1,-1,-1],"loss_changes":[1.2613828E2,1.700531E1,0E0,4.1988487E0,1.0886581E1,0E0,4.9559784E-1,2.7833462E-1,1.0136493E1,5.491461E-1,3.464737E-1,3.009892E-1,0E0,0E0,4.1890554E0,0E0,0E0,0E0,0E0,0E0,0E0,0E0,3.7840075E0,0E0,2.5511973E0,4.8881578E-1,2.5084672E0,0E0,9.0151584E-1,1.5341944E-1,5.9356093E-1,8.1851006E-2,1.5760862E0,0E0,0E0,0E0,1.4166594E-2,0E0,0E0,0E0,0E0,0E0,0E0],"parents":[2147483647,0,0,1,1,3,3,4,4,6,6,7,7,8,8,9,9,10,10,11,11,14,14,22,22,24,24,25,25,26,26,28,28,29,29,30,30,31,31,32,32,36,36],"right_children":[2,4,-1,6,8,-1,10,12,14,16,18,20,-1,-1,22,-1,-1,-1,-1,-1,-1,-1,24,-1,26,28,30,-1,32,34,36,38,40,-1,-1,-1,42,-1,-1,-1,-1,-1,-1],"split_conditions":[2.00001E0,2.00001E0,-2.9643708E-1,2.00001E0,2.00001E0,-1.789282E-1,2.00001E0,2.00001E0,2.00001E0,2.00001E0,2.00001E0,2.00001E0,2.7681127E-1,-3.1889722E-1,2.00001E0,-4.7506478E-2,1.756841E-1,5.499595E-2,2.8346333E-1,1.771954E-1,5.973463E-3,2.543084E-1,2.00001E0,-3.5240197E-1,2.00001E0,2.00001E0,2.00001E0,2.149463E-1,2.00001E0,2.00001E0,2.00001E0,2.00001E0,2.00001E0,2.5228197E-2,1.604846E-1,-2.1248912E-3,2.00001E0,1.9921865E-1,5.1385205E-2,1.7187682E-1,-1.4181624E-1,-7.219398E-2,-2.199405E-1],"split_indices":[1,10,0,868,13,0,339,22,22,26,923,103,0,0,37,0,0,0,0,0,0,0,105,0,12,16,289,0,64,35,7,0,117,0,0,0,64,0,0,0,0,0,0],"split_type":[0,0,0,0,0,0,0,0,0,0,0,0,0,0,0,0,0,0,0,0,0,0,0,0,0,0,0,0,0,0,0,0,0,0,0,0,0,0,0,0,0,0,0],"sum_hessian":[2.1059312E2,1.2968376E2,8.0909355E1,7.7719025E1,5.1964737E1,1.2291898E0,7.648984E1,1.4912634E1,3.7052105E1,2.5184307E0,7.3971405E1,3.0441322E0,1.1868502E1,8.167418E0,2.8884686E1,1.1064608E0,1.4119699E0,1.1477621E0,7.282365E1,1.4409834E0,1.6031488E0,5.543066E0,2.334162E1,1.6923144E0,2.1649305E1,1.0471424E1,1.1177881E1,2.9522874E0,7.519137E0,3.479213E0,7.6986685E0,3.383037E0,4.1361E0,1.6237453E0,1.8554677E0,1.7028655E0,5.995803E0,1.9718999E0,1.4111372E0,1.3393569E0,2.7967427E0,1.3907751E0,4.6050277E0],"tree_param":{"num_deleted":"0","num_feature":"4096","num_nodes":"43","size_leaf_vector":"1"}},{"base_weights":[-1.2564633E-2,5.5416906E-1,-2.951689E-1,8.5042655E-1,1.400959E-1,-1.6523711E-1,8.881747E-1,8.0083585E-1,-1.19514525E-1,-1.6406313E-1,9.2299354E-1,3.2874388E-1,2.7009076E-1,-3.1539786E-1,1.3053866E-1,2.5552332E-1,9.4500005E-1,1.6822617E-1,-3.0365877E-3,2.4350959E-1,-3.4192506E-2,-5.785933E-2,1.6483977E-1,8.948893E-2,2.8622624E-1,3.895268E-1,-3.3680674E-1,-1.989422E-1,6.340358E-1,2.5852382E-1,-5.51311E-1,7.482448E-1,6.377073E-2,-3.2900938E-1,6.790961E-1,6.305987E-2,2.4291076E-1,5.9241965E-2,-1.9277905E-1,2.3657867E-1,7.866496E-2],"categories":[],"categories_nodes":[],"categories_segments":[],"categories_sizes":[],"default_left":[0,0,0,0,0,0,0,0,0,0,0,0,0,0,0,0,0,0,0,0,0,0,0,0,0,0,0,0,0,0,0,0,0,0,0,0,0,0,0,0,0],"id":25,"left_children":[1,3,-1,5,7,-1,9,11,13,-1,15,17,-1,-1,19,21,23,-1,-1,-1,25,-1,-1,-1,-1,27,29,-1,31,33,-1,35,-1,37,39,-1,-1,-1,-1,-1,-1],"loss_changes":[9.1383446E1,1.274316E1,0E0,3.7116547E0,7.8023324E0,0E0,3.4881935E0,3.052206E-1,7.8553343E0,0E0,6.202545E-1,3.0468598E-1,0E0,0E0,3.058022E0,5.334116E-1,4.698181E-2,0E0,0E0,0E0,3.042657E0,0E0,0E0,0E0,0E0,2.9747162E0,1.2790001E1,0E0,2.5319982E-1,2.878471E0,0E0,3.950095E-2,0E0,9.7818655E-1,9.397149E-2,0E0,0E0,0E0,0E0,0E0,0E0],"parents":[2147483647,0,0,1,1,3,3,4,4,6,6,7,7,8,8,10,10,11,11,14,14,15,15,16,16,20,20,25,25,26,26,28,28,29,29,31,31,33,33,34,34],"right_children":[2,4,-1,6,8,-1,10,12,14,-1,16,18,-1,-1,20,22,24,-1,-1,-1,26,-1,-1,-1,-1,28,30,-1,32,34,-1,36,-1,38,40,-1,-1,-1,-1,-1,-1],"split_conditions":[2.00001E0,2.00001E0,-2.951689E-1,2.00001E0,2.00001E0,-1.6523711E-1,2.00001E0,2.00001E0,2.00001E0,-1.6406313E-1,2.00001E0,2.00001E0,2.7009076E-1,-3.1539786E-1,2.00001E0,2.00001E0,2.00001E0,1.6822617E-1,-3.0365877E-3,2.4350959E-1,2.00001E0,-5.785933E-2,1.6483977E-1,8.948893E-2,2.8622624E-1,2.00001E0,2.00001E0,-1.989422E-1,2.00001E0,2.00001E0,-5.51311E-1,2.00001E0,6.377073E-2,2.00001E0,2.00001E0,6.305987E-2,2.4291076E-1,5.9241965E-2,-1.9277905E-1,2.3657867E-1,7.866496E-2],"split_indices":[1,10,0,540,13,0,868,22,22,0,154,23,0,0,37,26,443,0,0,0,7,0,0,0,0,630,26,0,19,4,0,31,0,12,19,0,0,0,0,0,0],"split_type":[0,0,0,0,0,0,0,0,0,0,0,0,0,0,0,0,0,0,0,0,0,0,0,0,0,0,0,0,0,0,0,0,0,0,0,0,0,0,0,0,0],"sum_hessian":[1.6401443E2,1.0385097E2,6.0163467E1,5.992357E1,4.3927402E1,1.2154301E0,5.8708138E1,1.1802882E1,3.212452E1,1.0423316E0,5.7665806E1,2.8032184E0,8.999664E0,6.1187754E0,2.6005745E1,2.2430828E0,5.542272E1,1.2752805E0,1.5279378E0,4.2995954E0,2.170615E1,1.0243629E0,1.2187198E0,1.236719E0,5.4186005E1,8.92383E0,1.278232E1,1.3593563E0,7.5644736E0,9.7448E0,3.0375206E0,5.341657E0,2.2228167E0,4.156267E0,5.5885324E0,1.0007344E0,4.3409224E0,1.6897011E0,2.4665658E0,3.7198083E0,1.8687242E0],"tree_param":{"num_deleted":"0","num_feature":"4096","num_nodes":"41","size_leaf_vector":"1"}},{"base_weights":[-1.344361E-2,5.1941246E-1,-2.9350322E-1,8.1700474E-1,1.2642519E-1,-1.528402E-1,8.5783774E-1,2.383811E-1,-1.0858902E-1,4.9827922E-2,8.8359964E-1,-3.5147175E-1,1.5517329E-1,7.518956E-2,8.9482117E-1,2.4509504E-1,-4.2485025E-2,8.501171E-2,2.7229124E-1,5.721094E-1,-3.7920654E-1,2.3247133E-1,5.2057732E-2,1.9077574E-1,-7.768007E-1,1.7450276E-1,-3.4810048E-1],"categories":[],"categories_nodes":[],"categories_segments":[],"categories_sizes":[],"default_left":[0,0,0,0,0,0,0,0,0,0,0,0,0,0,0,0,0,0,0,0,0,0,0,0,0,0,0],"id":26,"left_children":[1,3,-1,5,7,-1,9,-1,11,-1,13,-1,15,-1,17,-1,19,-1,-1,21,23,-1,-1,-1,25,-1,-1],"loss_changes":[6.6184586E1,9.597168E0,0E0,2.9837437E0,5.8849554E0,0E0,6.727638E-1,0E0,8.087834E0,0E0,8.899307E-2,0E0,3.1055589E0,0E0,7.935333E-2,0E0,4.154538E0,0E0,0E0,4.4212365E-1,5.6979976E0,0E0,0E0,0E0,5.736711E0,0E0,0E0],"parents":[2147483647,0,0,1,1,3,3,4,4,6,6,8,8,10,10,12,12,14,14,16,16,19,19,20,20,24,24],"right_children":[2,4,-1,6,8,-1,10,-1,12,-1,14,-1,16,-1,18,-1,20,-1,-1,22,24,-1,-1,-1,26,-1,-1],"split_conditions":[2.00001E0,2.00001E0,-2.9350322E-1,2.00001E0,2.00001E0,-1.528402E-1,2.00001E0,2.383811E-1,2.00001E0,4.9827922E-2,2.00001E0,-3.5147175E-1,2.00001E0,7.518956E-2,2.00001E0,2.4509504E-1,2.00001E0,8.501171E-2,2.7229124E-1,2.00001E0,2.00001E0,2.3247133E-1,5.2057732E-2,1.9077574E-1,2.00001E0,1.7450276E-1,-3.4810048E-1],"split_indices":[1,10,0,540,27,0,339,0,22,0,443,0,29,0,291,0,64,0,0,0,55,0,0,0,51,0,0],"split_type":[0,0,0,0,0,0,0,0,0,0,0,0,0,0,0,0,0,0,0,0,0,0,0,0,0,0,0],"sum_hessian":[1.26737114E2,8.194535E1,4.479176E1,4.601854E1,3.592681E1,1.0315487E0,4.498699E1,8.728726E0,2.7198086E1,1.882639E0,4.310435E1,4.722849E0,2.2475237E1,1.1573436E0,4.194701E1,4.448205E0,1.802703E1,1.3356373E0,4.061137E1,6.1332946E0,1.1893736E1,3.439281E0,2.6940138E0,3.1786594E0,8.715076E0,1.8050343E0,6.910043E0],"tree_param":{"num_deleted":"0","num_feature":"4096","num_nodes":"27","size_leaf_vector":"1"}},{"base_weights":[-1.0911535E-2,4.8154792E-1,-2.9132E-1,2.7083552E-1,1.930388E-1,-3.3246118E-1,3.5161206E-1,-3.3815652E-1,4.3965226E-1,-2.1189718E-1,5.216015E-1,-5.739811E-2,7.331225E-1,1.8036021E-1,-5.084466E-1,2.6109326E-1,5.055441E-1,2.0618738E-1,-3.821364E-1,6.682833E-1,1.7675416E-1,2.4004379E-1,2.7688563E-1,1.5497927E-1,-4.4632383E-2,1.5977725E-1,-4.442477E-2,-7.841568E-2,5.2196007E-2],"categories":[],"categories_nodes":[],"categories_segments":[],"categories_sizes":[],"default_left":[0,0,0,0,0,0,0,0,0,0,0,0,0,0,0,0,0,0,0,0,0,0,0,0,0,0,0,0,0],"id":27,"left_children":[1,3,-1,-1,5,-1,7,-1,9,-1,11,13,15,-1,17,-1,19,-1,-1,21,23,-1,25,-1,27,-1,-1,-1,-1],"loss_changes":[4.798695E1,7.9799824E0,0E0,0E0,8.869059E0,0E0,5.363411E0,0E0,3.749968E0,0E0,4.2281027E0,3.2979481E0,3.4388256E-1,0E0,6.8424993E0,0E0,5.14791E-1,0E0,0E0,1.6825128E-1,4.1999868E-1,0E0,4.518599E-1,0E0,2.4048245E-1,0E0,0E0,0E0,0E0],"parents":[2147483647,0,0,1,1,4,4,6,6,8,8,10,10,11,11,12,12,14,14,16,16,19,19,20,20,22,22,24,24],"right_children":[2,4,-1,-1,6,-1,8,-1,10,-1,12,14,16,-1,18,-1,20,-1,-1,22,24,-1,26,-1,28,-1,-1,-1,-1],"split_conditions":[2.00001E0,2.00001E0,-2.9132E-1,2.7083552E-1,2.00001E0,-3.3246118E-1,2.00001E0,-3.3815652E-1,2.00001E0,-2.1189718E-1,2.00001E0,2.00001E0,2.00001E0,1.8036021E-1,2.00001E0,2.6109326E-1,2.00001E0,2.0618738E-1,-3.821364E-1,2.00001E0,2.00001E0,2.4004379E-1,2.00001E0,1.5497927E-1,2.00001E0,1.5977725E-1,-4.442477E-2,-7.841568E-2,5.2196007E-2],"split_indices":[1,13,0,0,22,0,590,0,868,0,4,64,10,0,29,0,3,0,0,19,20,0,12,0,64,0,0,0,0],"split_type":[0,0,0,0,0,0,0,0,0,0,0,0,0,0,0,0,0,0,0,0,0,0,0,0,0,0,0,0,0],"sum_hessian":[9.9498245E1,6.609624E1,3.3402008E1,2.600238E1,4.0093857E1,3.704702E0,3.6389156E1,1.3814813E0,3.5007675E1,1.8278613E0,3.3179813E1,9.072947E0,2.4106867E1,3.5526483E0,5.5202985E0,1.3278271E1,1.0828597E1,2.194181E0,3.3261175E0,6.5526958E0,4.275901E0,4.120246E0,2.4324496E0,1.1606933E0,3.1152077E0,1.3605514E0,1.0718982E0,1.4660494E0,1.6491582E0],"tree_param":{"num_deleted":"0","num_feature":"4096","num_nodes":"29","size_leaf_vector":"1"}},{"base_weights":[-1.3605803E-2,4.4087276E-1,-2.884747E-1,8.6944425E-1,1.6618288E-1,4.45581E-1,2.8238797E-1,-3.159997E-1,3.1309718E-1,2.0568143E-1,1.9117218E-3,-2.9579258E-1,4.0065053E-1,-1.9524707E-1,4.7959134E-1,-1.8468465E-1,5.670337E-1,9.320502E-3,7.605742E-1,2.1735765E-1,-4.787087E-1,2.7188298E-1,5.2763915E-1,1.9239643E-1,-3.6705825E-1,6.7605215E-1,1.9922869E-1,2.3505858E-1,6.79785E-2,1.638327E-1,-2.621672E-2],"categories":[],"categories_nodes":[],"categories_segments":[],"categories_sizes":[],"default_left":[0,0,0,0,0,0,0,0,0,0,0,0,0,0,0,0,0,0,0,0,0,0,0,0,0,0,0,0,0,0,0],"id":28,"left_children":[1,3,-1,5,7,9,-1,-1,11,-1,-1,-1,13,-1,15,-1,17,19,21,-1,23,-1,25,-1,-1,27,29,-1,-1,-1,-1],"loss_changes":[3.452272E1,6.234229E0,0E0,2.1790695E-1,6.467253E0,5.1557726E-1,0E0,0E0,3.960018E0,0E0,0E0,0E0,2.8085465E0,0E0,3.0833526E0,0E0,2.903058E0,3.124548E0,2.006855E-1,0E0,5.2331285E0,0E0,3.571341E-1,0E0,0E0,1.3799548E-1,5.009475E-1,0E0,0E0,0E0,0E0],"parents":[2147483647,0,0,1,1,3,3,4,4,5,5,8,8,12,12,14,14,16,16,17,17,18,18,20,20,22,22,25,25,26,26],"right_children":[2,4,-1,6,8,10,-1,-1,12,-1,-1,-1,14,-1,16,-1,18,20,22,-1,24,-1,26,-1,-1,28,30,-1,-1,-1,-1],"split_conditions":[2.00001E0,2.00001E0,-2.884747E-1,2.00001E0,2.00001E0,2.00001E0,2.8238797E-1,-3.159997E-1,2.00001E0,2.0568143E-1,1.9117218E-3,-2.9579258E-1,2.00001E0,-1.9524707E-1,2.00001E0,-1.8468465E-1,2.00001E0,2.00001E0,2.00001E0,2.1735765E-1,2.00001E0,2.7188298E-1,2.00001E0,1.9239643E-1,-3.6705825E-1,2.00001E0,2.00001E0,2.3505858E-1,6.79785E-2,1.638327E-1,-2.621672E-2],"split_indices":[1,13,0,22,22,10,0,0,590,0,0,0,868,0,540,0,4,64,10,0,29,0,19,0,0,2,297,0,0,0,0],"split_type":[0,0,0,0,0,0,0,0,0,0,0,0,0,0,0,0,0,0,0,0,0,0,0,0,0,0,0,0,0,0,0],"sum_hessian":[7.814581E1,5.318352E1,2.4962292E1,1.9927471E1,3.325605E1,3.9321167E0,1.5995354E1,2.9122403E0,3.034381E1,2.179848E0,1.7522688E0,1.2680279E0,2.907578E1,1.5245584E0,2.7551222E1,1.5904721E0,2.596075E1,6.958126E0,1.9002625E1,2.625651E0,4.3324757E0,9.911953E0,9.090671E0,1.7858852E0,2.5465903E0,5.5320888E0,3.5585818E0,3.864672E0,1.6674169E0,1.2004164E0,2.3581653E0],"tree_param":{"num_deleted":"0","num_feature":"4096","num_nodes":"31","size_leaf_vector":"1"}},{"base_weights":[-1.3283977E-2,4.0730366E-1,-2.8479978E-1,8.351513E-1,1.4224945E-1,3.954718E-1,2.7705908E-1,-2.94454E-1,2.820291E-1,1.9191068E-1,1.5508913E-3,-2.6072955E-1,3.7092102E-1,6.247661E-1,-2.1538706E-2,2.4202004E-1,1.9915663E-1,-6.1626273E-1,2.4694549E-1,1.8235458E-1,-9.025238E-2,6.584896E-2,-3.5796538E-1,1.869978E-1,5.3360946E-2,-8.719009E-2,5.7108607E-2,1.4219989E-1,-1.4843461E-1,1.0967949E-1,-4.673076E-1,-4.957848E-2,-1.8292598E-1],"categories":[],"categories_nodes":[],"categories_segments":[],"categories_sizes":[],"default_left":[0,0,0,0,0,0,0,0,0,0,0,0,0,0,0,0,0,0,0,0,0,0,0,0,0,0,0,0,0,0,0,0,0],"id":29,"left_children":[1,3,-1,5,7,9,-1,-1,11,-1,-1,-1,13,15,17,-1,19,21,23,-1,25,-1,-1,-1,27,-1,-1,-1,29,-1,31,-1,-1],"loss_changes":[2.5031965E1,4.8587737E0,0E0,2.7923203E-1,4.723398E0,4.2800087E-1,0E0,0E0,2.978046E0,0E0,0E0,0E0,2.4834876E0,1.0079207E0,1.861442E0,0E0,7.464206E-1,2.0053144E0,5.561236E-1,0E0,2.9675776E-1,0E0,0E0,0E0,6.1660784E-1,0E0,0E0,0E0,1.0085143E0,0E0,5.3816915E-2,0E0,0E0],"parents":[2147483647,0,0,1,1,3,3,4,4,5,5,8,8,12,12,13,13,14,14,16,16,17,17,18,18,20,20,24,24,28,28,30,30],"right_children":[2,4,-1,6,8,10,-1,-1,12,-1,-1,-1,14,16,18,-1,20,22,24,-1,26,-1,-1,-1,28,-1,-1,-1,30,-1,32,-1,-1],"split_conditions":[2.00001E0,2.00001E0,-2.8479978E-1,2.00001E0,2.00001E0,2.00001E0,2.7705908E-1,-2.94454E-1,2.00001E0,1.9191068E-1,1.5508913E-3,-2.6072955E-1,2.00001E0,2.00001E0,2.00001E0,2.4202004E-1,2.00001E0,2.00001E0,2.00001E0,1.8235458E-1,2.00001E0,6.584896E-2,-3.5796538E-1,1.869978E-1,2.00001E0,-8.719009E-2,5.7108607E-2,1.4219989E-1,2.00001E0,1.0967949E-1,2.00001E0,-4.957848E-2,-1.8292598E-1],"split_indices":[1,13,0,22,22,10,0,0,590,0,0,0,3,12,4,0,64,64,55,0,2,0,0,0,7,0,0,0,26,0,10,0,0],"split_type":[0,0,0,0,0,0,0,0,0,0,0,0,0,0,0,0,0,0,0,0,0,0,0,0,0,0,0,0,0,0,0,0,0],"sum_hessian":[6.16007E1,4.289285E1,1.870785E1,1.5584938E1,2.730791E1,3.5246673E0,1.2060271E1,2.3547735E0,2.4953138E1,1.7749839E0,1.7496834E0,1.1595994E0,2.379354E1,1.4088861E1,9.704677E0,9.242007E0,4.8468547E0,2.615561E0,7.0891156E0,1.5531905E0,3.2936642E0,1.3212295E0,1.2943316E0,1.6537886E0,5.435327E0,1.900704E0,1.3929603E0,1.3248318E0,4.110495E0,1.5175791E0,2.592916E0,1.5232164E0,1.0696998E0],"tree_param":{"num_deleted":"0","num_feature":"4096","num_nodes":"33","size_leaf_vector":"1"}},{"base_weights":[-1.3575786E-2,3.5891965E-1,-2.8011185E-1,7.9513913E-1,1.1075371E-1,3.5040125E-1,2.7043542E-1,2.4472351E-1,-8.125362E-2,1.7827755E-1,1.240086E-3,2.0571204E-1,-2.4907508E-1,2.1466723E-1,-4.96178E-1,-8.6293384E-2,3.6140454E-1,2.902311E-2,-3.9974755E-1,2.0255324E-1,-4.410593E-3,-3.9742872E-1,4.244406E-1,6.314613E-2,-7.724917E-2,3.5004053E-2,-6.03891E-1,1.7760408E-1,1.702994E-1,-2.5629489E-2,-2.3728406E-1,1.3606098E-1,-5.138013E-2],"categories":[],"categories_nodes":[],"categories_segments":[],"categories_sizes":[],"default_left":[0,0,0,0,0,0,0,0,0,0,0,0,0,0,0,0,0,0,0,0,0,0,0,0,0,0,0,0,0,0,0,0,0],"id":30,"left_children":[1,3,-1,5,7,9,-1,-1,11,-1,-1,-1,13,15,17,-1,19,21,-1,-1,23,25,27,-1,-1,-1,29,-1,31,-1,-1,-1,-1],"loss_changes":[1.793119E1,3.946247E0,0E0,3.154049E-1,3.4389005E0,3.531829E-1,0E0,0E0,2.8082955E0,0E0,0E0,0E0,2.1171637E0,6.049764E-1,5.199124E0,0E0,6.57677E-1,1.5506462E0,0E0,0E0,2.5146496E-1,5.438011E-1,1.0087347E-1,0E0,0E0,0E0,2.5669277E-1,0E0,3.955517E-1,0E0,0E0,0E0,0E0],"parents":[2147483647,0,0,1,1,3,3,4,4,5,5,8,8,12,12,13,13,14,14,16,16,17,17,20,20,21,21,22,22,26,26,28,28],"right_children":[2,4,-1,6,8,10,-1,-1,12,-1,-1,-1,14,16,18,-1,20,22,-1,-1,24,26,28,-1,-1,-1,30,-1,32,-1,-1,-1,-1],"split_conditions":[2.00001E0,2.00001E0,-2.8011185E-1,2.00001E0,2.00001E0,2.00001E0,2.7043542E-1,2.4472351E-1,2.00001E0,1.7827755E-1,1.240086E-3,2.0571204E-1,2.00001E0,2.00001E0,2.00001E0,-8.6293384E-2,2.00001E0,2.00001E0,-3.9974755E-1,2.0255324E-1,2.00001E0,2.00001E0,2.00001E0,6.314613E-2,-7.724917E-2,3.5004053E-2,2.00001E0,1.7760408E-1,2.00001E0,-2.5629489E-2,-2.3728406E-1,1.3606098E-1,-5.138013E-2],"split_indices":[1,13,0,22,37,10,0,0,55,0,0,0,7,24,26,0,64,4,0,0,12,64,64,0,0,0,20,0,19,0,0,0,0],"split_type":[0,0,0,0,0,0,0,0,0,0,0,0,0,0,0,0,0,0,0,0,0,0,0,0,0,0,0,0,0,0,0,0,0],"sum_hessian":[5.0338745E1,3.626681E1,1.4071932E1,1.23515415E1,2.3915272E1,3.2117465E0,9.139795E0,4.42383E0,1.949144E1,1.4643222E0,1.7474244E0,2.945283E0,1.6546158E1,5.797379E0,1.0748778E1,1.0935758E0,4.7038035E0,7.1953983E0,3.5533803E0,2.0767875E0,2.6270158E0,3.4594004E0,3.7359982E0,1.511722E0,1.1152939E0,1.1158062E0,2.343594E0,1.4502678E0,2.2857304E0,1.0075907E0,1.3360035E0,1.0703502E0,1.2153801E0],"tree_param":{"num_deleted":"0","num_feature":"4096","num_nodes":"33","size_leaf_vector":"1"}},{"base_weights":[-6.1462624E-3,3.2823685E-1,-2.7422664E-1,-2.6744792E-1,3.9870468E-1,-2.0823112E-1,4.6438295E-1,-1.896881E-1,5.2997315E-1,-1.6580766E-1,5.9179217E-1,-1.0141985E-1,6.4227456E-1,8.1414473E-1,2.6925433E-1,4.813692E-2,2.6471397E-1,2.1594672E-1,-3.544508E-2,-1.6583696E-1,2.3243938E-1,1.6598733E-1,-2.9899124E-3],"categories":[],"categories_nodes":[],"categories_segments":[],"categories_sizes":[],"default_left":[0,0,0,0,0,0,0,0,0,0,0,0,0,0,0,0,0,0,0,0,0,0,0],"id":31,"left_children":[1,3,-1,-1,5,-1,7,-1,9,-1,11,-1,13,15,17,-1,-1,-1,19,-1,21,-1,-1],"loss_changes":[1.3125211E1,3.0723004E0,0E0,0E0,2.5167174E0,0E0,2.4527187E0,0E0,2.222661E0,0E0,1.4974728E0,0E0,1.4614954E0,6.3687706E-1,1.3658686E0,0E0,0E0,0E0,1.0677631E0,0E0,4.0755993E-1,0E0,0E0],"parents":[2147483647,0,0,1,1,4,4,6,6,8,8,10,10,12,12,13,13,14,14,18,18,20,20],"right_children":[2,4,-1,-1,6,-1,8,-1,10,-1,12,-1,14,16,18,-1,-1,-1,20,-1,22,-1,-1],"split_conditions":[2.00001E0,2.00001E0,-2.7422664E-1,-2.6744792E-1,2.00001E0,-2.0823112E-1,2.00001E0,-1.896881E-1,2.00001E0,-1.6580766E-1,2.00001E0,-1.0141985E-1,2.00001E0,2.00001E0,2.00001E0,4.813692E-2,2.6471397E-1,2.1594672E-1,2.00001E0,-1.6583696E-1,2.00001E0,1.6598733E-1,-2.9899124E-3],"split_indices":[1,923,0,0,224,0,58,0,868,0,424,0,12,154,27,0,0,0,4,0,55,0,0],"split_type":[0,0,0,0,0,0,0,0,0,0,0,0,0,0,0,0,0,0,0,0,0,0,0],"sum_hessian":[4.124357E1,3.060912E1,1.0634449E1,1.0354482E0,2.9573671E1,1.1341715E0,2.84395E1,1.117341E0,2.7322159E1,1.0468965E0,2.6275263E1,1.0596876E0,2.5215576E1,1.6452477E1,8.7631E0,1.8718461E0,1.458063E1,2.985682E0,5.777417E0,1.6081609E0,4.1692567E0,1.2423564E0,2.9269001E0],"tree_param":{"num_deleted":"0","num_feature":"4096","num_nodes":"23","size_leaf_vector":"1"}},{"base_weights":[-2.1255312E-2,2.6932997E-1,-2.6698408E-1,5.9485614E-1,-4.282135E-2,2.5002906E-1,3.5340822E-1,1.6005728E-1,-2.511541E-1,-1.5345742E-1,1.6807534E-1,1.7265698E-1,-4.1711122E-1,4.907712E-2,-1.13803335E-1,1.550348E-1,-5.8266294E-1,-1.007317E-1,-8.0700505E-1,-1.0893279E-1,3.481844E-2,1.1327353E-2,-4.7519436E-1,6.259645E-2,-6.567324E-2],"categories":[],"categories_nodes":[],"categories_segments":[],"categories_sizes":[],"default_left":[0,0,0,0,0,0,0,0,0,0,0,0,0,0,0,0,0,0,0,0,0,0,0,0,0],"id":32,"left_children":[1,3,-1,5,7,-1,9,-1,11,13,-1,-1,15,-1,-1,-1,17,19,21,-1,-1,23,-1,-1,-1],"loss_changes":[9.153858E0,2.792357E0,0E0,4.7713232E-1,1.9150395E0,0E0,9.660468E-1,0E0,1.8280493E0,2.925045E-1,0E0,0E0,1.881121E0,0E0,0E0,0E0,9.080596E-1,2.724723E-1,3.8973806E0,0E0,0E0,2.2579442E-1,0E0,0E0,0E0],"parents":[2147483647,0,0,1,1,3,3,4,4,6,6,8,8,9,9,12,12,16,16,17,17,18,18,21,21],"right_children":[2,4,-1,6,8,-1,10,-1,12,14,-1,-1,16,-1,-1,-1,18,20,22,-1,-1,24,-1,-1,-1],"split_conditions":[2.00001E0,2.00001E0,-2.6698408E-1,2.00001E0,2.00001E0,2.5002906E-1,2.00001E0,1.6005728E-1,2.00001E0,2.00001E0,1.6807534E-1,1.7265698E-1,2.00001E0,4.907712E-2,-1.13803335E-1,1.550348E-1,2.00001E0,2.00001E0,2.00001E0,-1.0893279E-1,3.481844E-2,2.00001E0,-4.7519436E-1,6.259645E-2,-6.567324E-2],"split_indices":[1,10,0,13,27,0,4,0,37,3,0,0,29,0,0,0,7,4,26,0,0,19,0,0,0],"split_type":[0,0,0,0,0,0,0,0,0,0,0,0,0,0,0,0,0,0,0,0,0,0,0,0,0],"sum_hessian":[3.4313572E1,2.6229517E1,8.084054E0,1.239635E1,1.3833167E1,5.002043E0,7.394307E0,3.2582905E0,1.0574877E1,2.2177756E0,5.176532E0,1.3553932E0,9.219483E0,1.0374418E0,1.1803337E0,1.0687845E0,8.150699E0,3.049271E0,5.1014276E0,1.0742414E0,1.9750298E0,2.9645276E0,2.1369002E0,1.6468366E0,1.317691E0],"tree_param":{"num_deleted":"0","num_feature":"4096","num_nodes":"25","size_leaf_vector":"1"}},{"base_weights":[-2.0081112E-2,2.2975206E-1,-2.5828168E-1,6.980954E-1,3.944107E-2,6.048211E-2,2.2921549E-1,-3.148205E-1,1.9625533E-1,2.2292113E-1,2.9875297E-2,1.9685571E-1,-1.2359891E-1,1.5289804E-1,-2.6235563E-1,2.6453483E-1,-6.040813E-1,1.8909208E-1,-1.3539293E-1,1.1659185E-1,-2.57386E-1,5.563725E-2,-1.1430147E-1],"categories":[],"categories_nodes":[],"categories_segments":[],"categories_sizes":[],"default_left":[0,0,0,0,0,0,0,0,0,0,0,0,0,0,0,0,0,0,0,0,0,0,0],"id":33,"left_children":[1,3,-1,5,7,-1,-1,-1,9,-1,11,-1,13,-1,15,17,19,-1,21,-1,-1,-1,-1],"loss_changes":[6.598623E0,2.13651E0,0E0,7.3726416E-2,3.3347025E0,0E0,0E0,0E0,1.5116782E0,0E0,1.4237808E0,0E0,1.193472E0,0E0,2.0599158E0,7.9440045E-1,2.0234928E0,0E0,3.1800234E-1,0E0,0E0,0E0,0E0],"parents":[2147483647,0,0,1,1,3,3,4,4,8,8,10,10,12,12,14,14,15,15,16,16,18,18],"right_children":[2,4,-1,6,8,-1,-1,-1,10,-1,12,-1,14,-1,16,18,20,-1,22,-1,-1,-1,-1],"split_conditions":[2.00001E0,2.00001E0,-2.5828168E-1,2.00001E0,2.00001E0,6.048211E-2,2.2921549E-1,-3.148205E-1,2.00001E0,2.2292113E-1,2.00001E0,1.9685571E-1,2.00001E0,1.5289804E-1,2.00001E0,2.00001E0,2.00001E0,1.8909208E-1,2.00001E0,1.1659185E-1,-2.57386E-1,5.563725E-2,-1.1430147E-1],"split_indices":[1,27,0,68,22,0,0,0,37,0,29,0,55,0,64,0,79,0,26,0,0,0,0],"split_type":[0,0,0,0,0,0,0,0,0,0,0,0,0,0,0,0,0,0,0,0,0,0,0],"sum_hessian":[2.9469332E1,2.3279392E1,6.1899395E0,5.9553847E0,1.7324007E1,1.1740856E0,4.781299E0,1.4643388E0,1.5859669E1,2.8912728E0,1.2968396E1,1.9077098E0,1.1060686E1,1.5075356E0,9.55315E0,3.8472085E0,5.705942E0,1.7085367E0,2.1386716E0,1.0539219E0,4.65202E0,1.0334982E0,1.1051736E0],"tree_param":{"num_deleted":"0","num_feature":"4096","num_nodes":"23","size_leaf_vector":"1"}},{"base_weights":[-7.6135057E-3,2.1773398E-1,-2.4811105E-1,-2.0344728E-1,2.998119E-1,2.2379482E-1,1.1306459E-1,2.0947218E-1,-4.5379568E-2,4.0035757E-1,-3.3831447E-1,2.068517E-2,1.6513711E-1,2.1437533E-1,-4.048641E-1,-1.3401192E-1,1.3733642E-1,3.1490017E-2,-1.0372979E-1],"categories":[],"categories_nodes":[],"categories_segments":[],"categories_sizes":[],"default_left":[0,0,0,0,0,0,0,0,0,0,0,0,0,0,0,0,0,0,0],"id":34,"left_children":[1,3,-1,-1,5,-1,7,-1,9,11,13,-1,-1,15,-1,17,-1,-1,-1],"loss_changes":[4.950849E0,1.7515652E0,0E0,0E0,1.5805364E0,0E0,1.4469688E0,0E0,1.826483E0,2.4031228E-1,4.960029E0,0E0,0E0,5.927663E-1,0E0,2.0587277E-1,0E0,0E0,0E0],"parents":[2147483647,0,0,1,1,4,4,6,6,8,8,9,9,10,10,13,13,15,15],"right_children":[2,4,-1,-1,6,-1,8,-1,10,12,14,-1,-1,16,-1,18,-1,-1,-1],"split_conditions":[2.00001E0,2.00001E0,-2.4811105E-1,-2.0344728E-1,2.00001E0,2.2379482E-1,2.00001E0,2.0947218E-1,2.00001E0,2.00001E0,2.00001E0,2.068517E-2,1.6513711E-1,2.00001E0,-4.048641E-1,2.00001E0,1.3733642E-1,3.1490017E-2,-1.0372979E-1],"split_indices":[1,742,0,0,27,0,37,0,7,35,26,0,0,4,0,12,0,0,0],"split_type":[0,0,0,0,0,0,0,0,0,0,0,0,0,0,0,0,0,0,0],"sum_hessian":[2.4836159E1,2.0055132E1,4.7810264E0,1.0736573E0,1.8981474E1,4.7170463E0,1.4264428E1,2.3134377E0,1.1950991E1,4.593973E0,7.357017E0,1.887E0,2.706973E0,5.2665734E0,2.0904436E0,2.3510504E0,2.9155228E0,1.341442E0,1.0096085E0],"tree_param":{"num_deleted":"0","num_feature":"4096","num_nodes":"19","size_leaf_vector":"1"}},{"base_weights":[-1.614091E-2,4.9387762E-1,-3.2110846E-1,-1.3422323E-2,5.763626E-1,3.1859502E-1,-5.017264E-1,2.1106997E-1,5.2996904E-2,-2.1573033E-2,1.7019236E-1,1.3047108E-1,-6.3740486E-1,6.074423E-3,-7.444458E-1,-6.070032E-2,-2.5934044E-1],"categories":[],"categories_nodes":[],"categories_segments":[],"categories_sizes":[],"default_left":[0,0,0,0,0,0,0,0,0,0,0,0,0,0,0,0,0],"id":35,"left_children":[1,3,5,-1,7,9,11,-1,-1,-1,-1,-1,13,-1,15,-1,-1],"loss_changes":[3.6343083E0,4.1479707E-1,1.8456392E0,0E0,2.654407E-1,4.1220623E-1,1.7724628E0,0E0,0E0,0E0,0E0,0E0,7.6711273E-1,0E0,4.246068E-1,0E0,0E0],"parents":[2147483647,0,0,1,1,2,2,4,4,5,5,6,6,12,12,14,14],"right_children":[2,4,6,-1,8,10,12,-1,-1,-1,-1,-1,14,-1,16,-1,-1],"split_conditions":[2.00001E0,2.00001E0,2.00001E0,-1.3422323E-2,2.00001E0,2.00001E0,2.00001E0,2.1106997E-1,5.2996904E-2,-2.1573033E-2,1.7019236E-1,1.3047108E-1,2.00001E0,6.074423E-3,2.00001E0,-6.070032E-2,-2.5934044E-1],"split_indices":[10,100,289,0,12,35,319,0,0,0,0,0,297,0,20,0,0],"split_type":[0,0,0,0,0,0,0,0,0,0,0,0,0,0,0,0,0],"sum_hessian":[2.1346277E1,7.7559757E0,1.3590302E1,1.0907931E0,6.6651826E0,2.8241067E0,1.0766195E1,4.4794254E0,2.185757E0,1.3754216E0,1.4486849E0,1.0831916E0,9.683004E0,1.4689156E0,8.214088E0,1.9757797E0,6.2383084E0],"tree_param":{"num_deleted":"0","num_feature":"4096","num_nodes":"17","size_leaf_vector":"1"}},{"base_weights":[-2.3618918E-3,1.6349582E-1,-2.2315879E-1,1.94768E-1,1.4728504E-2,1.9108054E-1,-1.2771446E-1,-2.6413417E-1,2.8641269E-2,1.7189239E-1,-1.0147912E-1,1.3086563E-1,-2.3129518E-1,2.269112E-1,-5.090892E-1,1.654024E-1,-3.5584167E-2,-3.1538654E-2,-1.7734395E-1],"categories":[],"categories_nodes":[],"categories_segments":[],"categories_sizes":[],"default_left":[0,0,0,0,0,0,0,0,0,0,0,0,0,0,0,0,0,0,0],"id":36,"left_children":[1,3,-1,-1,5,-1,7,-1,9,-1,11,-1,13,15,17,-1,-1,-1,-1],"loss_changes":[2.6270368E0,1.2526873E0,0E0,0E0,1.3572081E0,0E0,1.5019064E0,0E0,8.6257577E-1,0E0,8.000148E-1,0E0,1.2256434E0,5.1194113E-1,1.2805438E-1,0E0,0E0,0E0,0E0],"parents":[2147483647,0,0,1,1,4,4,6,6,8,8,10,10,12,12,13,13,14,14],"right_children":[2,4,-1,-1,6,-1,8,-1,10,-1,12,-1,14,16,18,-1,-1,-1,-1],"split_conditions":[2.00001E0,2.00001E0,-2.2315879E-1,1.94768E-1,2.00001E0,1.9108054E-1,2.00001E0,-2.6413417E-1,2.00001E0,1.7189239E-1,2.00001E0,1.3086563E-1,2.00001E0,2.00001E0,2.00001E0,1.654024E-1,-3.5584167E-2,-3.1538654E-2,-1.7734395E-1],"split_indices":[1,23,0,0,51,0,22,0,37,0,55,0,64,0,31,0,0,0,0],"split_type":[0,0,0,0,0,0,0,0,0,0,0,0,0,0,0,0,0,0,0],"sum_hessian":[1.937197E1,1.646795E1,2.9040184E0,3.0724027E0,1.3395548E1,1.8487022E0,1.1546845E1,1.1894597E0,1.0357386E1,1.3416083E0,9.015778E0,1.29434E0,7.7214375E0,2.9834926E0,4.737945E0,1.2315083E0,1.7519844E0,1.1850791E0,3.5528657E0],"tree_param":{"num_deleted":"0","num_feature":"4096","num_nodes":"19","size_leaf_vector":"1"}},{"base_weights":[5.4370426E-3,1.5340328E-1,-2.0972733E-1,5.2838415E-1,-1.5227821E-2,1.19692255E-2,2.1443476E-1,1.6545749E-1,-1.3265379E-1,1.8516608E-1,-3.3758333E-1,9.7254075E-2,3.4148384E-2,4.726756E-2,-3.3009693E-1,6.1042465E-2,-5.426993E-2,-3.0342665E-1,3.7058723E-1,-1.0875404E-1,-2.7569715E-2,1.3287616E-1,3.690792E-2],"categories":[],"categories_nodes":[],"categories_segments":[],"categories_sizes":[],"default_left":[0,0,0,0,0,0,0,0,0,0,0,0,0,0,0,0,0,0,0,0,0,0,0],"id":37,"left_children":[1,3,-1,5,7,-1,-1,-1,9,11,13,-1,15,17,-1,-1,-1,19,21,-1,-1,-1,-1],"loss_changes":[1.9950948E0,1.0062702E0,0E0,4.1991925E-1,8.6255056E-1,0E0,0E0,0E0,7.549567E-1,8.9985326E-2,2.0533814E0,0E0,1.6152239E-1,7.349799E-1,0E0,0E0,0E0,6.474495E-3,4.7246516E-3,0E0,0E0,0E0,0E0],"parents":[2147483647,0,0,1,1,3,3,4,4,8,8,9,9,10,10,12,12,13,13,17,17,18,18],"right_children":[2,4,-1,6,8,-1,-1,-1,10,12,14,-1,16,18,-1,-1,-1,20,22,-1,-1,-1,-1],"split_conditions":[2.00001E0,2.00001E0,-2.0972733E-1,2.00001E0,2.00001E0,1.19692255E-2,2.1443476E-1,1.6545749E-1,2.00001E0,2.00001E0,2.00001E0,9.7254075E-2,2.00001E0,2.00001E0,-3.3009693E-1,6.1042465E-2,-5.426993E-2,2.00001E0,2.00001E0,-1.0875404E-1,-2.7569715E-2,1.3287616E-1,3.690792E-2],"split_indices":[1,13,0,9,37,0,0,0,7,64,26,0,12,4,0,0,0,10,3,0,0,0,0],"split_type":[0,0,0,0,0,0,0,0,0,0,0,0,0,0,0,0,0,0,0,0,0,0,0],"sum_hessian":[1.710952E1,1.478633E1,2.3231902E0,3.9250093E0,1.08613205E1,1.4193687E0,2.5056405E0,1.2296526E0,9.631668E0,3.8136375E0,5.8180304E0,1.3886894E0,2.4249482E0,4.4903774E0,1.3276528E0,1.386808E0,1.03814E0,2.1835165E0,2.3068612E0,1.1488236E0,1.0346929E0,1.1745412E0,1.1323199E0],"tree_param":{"num_deleted":"0","num_feature":"4096","num_nodes":"23","size_leaf_vector":"1"}},{"base_weights":[2.7884592E-3,4.0884718E-1,-2.4042162E-1,1.624477E-1,8.8288695E-2,2.5890982E-1,-3.9228684E-1,3.1393293E-2,8.247728E-3,1.6921766E-2,1.0188604E-1,4.292246E-2,-4.950383E-1,1.630945E-2,-5.941756E-1,-2.324193E-2,-7.0481735E-1,-2.2819012E-2,-8.356912E-1,-1.1921959E-1,-3.2148328E-1],"categories":[],"categories_nodes":[],"categories_segments":[],"categories_sizes":[],"default_left":[0,0,0,0,0,0,0,0,0,0,0,0,0,0,0,0,0,0,0,0,0],"id":38,"left_children":[1,3,5,-1,7,9,11,-1,-1,-1,-1,-1,13,-1,15,-1,17,-1,19,-1,-1],"loss_changes":[1.7187698E0,2.2929049E-1,9.2750365E-1,0E0,2.0775013E-4,3.22046E-2,5.5212057E-1,0E0,0E0,0E0,0E0,0E0,4.4432282E-1,0E0,3.16545E-1,0E0,3.6627698E-1,0E0,1.0868311E-2,0E0,0E0],"parents":[2147483647,0,0,1,1,2,2,4,4,5,5,6,6,12,12,14,14,16,16,18,18],"right_children":[2,4,6,-1,8,10,12,-1,-1,-1,-1,-1,14,-1,16,-1,18,-1,20,-1,-1],"split_conditions":[2.00001E0,2.00001E0,2.00001E0,1.624477E-1,2.00001E0,2.00001E0,2.00001E0,3.1393293E-2,8.247728E-3,1.6921766E-2,1.0188604E-1,4.292246E-2,2.00001E0,1.630945E-2,2.00001E0,-2.324193E-2,2.00001E0,-2.2819012E-2,2.00001E0,-1.1921959E-1,-3.2148328E-1],"split_indices":[10,12,289,0,3,12,35,0,0,0,0,0,27,0,20,0,26,0,7,0,0],"split_type":[0,0,0,0,0,0,0,0,0,0,0,0,0,0,0,0,0,0,0,0,0],"sum_hessian":[1.5408606E1,5.516808E0,9.891798E0,3.4146366E0,2.1021712E0,2.1424794E0,7.7493186E0,1.0881927E0,1.0139786E0,1.0947062E0,1.0477732E0,1.1846339E0,6.5646844E0,1.0725274E0,5.4921575E0,1.2684854E0,4.223672E0,1.0001022E0,3.2235696E0,2.0673337E0,1.1562359E0],"tree_param":{"num_deleted":"0","num_feature":"4096","num_nodes":"21","size_leaf_vector":"1"}},{"base_weights":[-4.1027986E-3,1.8509324E-1,-1.1960635E-1,1.7247431E-1,-2.443375E-1,1.3222949E-1,-3.659605E-1,1.9410233E-1,-6.2034494E-1,-3.0985702E-2,1.14960074E-1,6.2437225E-2,-2.5311774E-1],"categories":[],"categories_nodes":[],"categories_segments":[],"categories_sizes":[],"default_left":[0,0,0,0,0,0,0,0,0,0,0,0,0],"id":39,"left_children":[1,-1,3,-1,5,-1,7,9,11,-1,-1,-1,-1],"loss_changes":[1.201578E0,0E0,1.3613694E0,0E0,1.2153132E0,0E0,1.7287426E0,2.8069562E-1,1.6563332E0,0E0,0E0,0E0,0E0],"parents":[2147483647,0,0,2,2,4,4,6,6,7,7,8,8],"right_children":[2,-1,4,-1,6,-1,8,10,12,-1,-1,-1,-1],"split_conditions":[2.00001E0,1.8509324E-1,2.00001E0,1.7247431E-1,2.00001E0,1.3222949E-1,2.00001E0,2.00001E0,2.00001E0,-3.0985702E-2,1.14960074E-1,6.2437225E-2,-2.5311774E-1],"split_indices":[36,0,51,0,55,0,64,19,27,0,0,0,0],"split_type":[0,0,0,0,0,0,0,0,0,0,0,0,0],"sum_hessian":[1.4721093E1,1.6276013E0,1.3093492E1,1.4439799E0,1.1649512E1,1.360694E0,1.0288818E1,3.2876253E0,7.0011926E0,1.4542975E0,1.8333279E0,1.5013443E0,5.4998484E0],"tree_param":{"num_deleted":"0","num_feature":"4096","num_nodes":"13","size_leaf_vector":"1"}},{"base_weights":[2.0214833E-2,1.7672235E-1,-9.0877965E-2,1.5546173E-1,-1.9826284E-1,-2.2234954E-1,-5.2856743E-2,1.6298795E-1,-1.9302806E-1,1.6579159E-1,-3.5758433E-1,9.959137E-2,-2.6051847E-2,-1.8263622E-1,8.139608E-4,-6.135532E-2,6.595876E-2],"categories":[],"categories_nodes":[],"categories_segments":[],"categories_sizes":[],"default_left":[0,0,0,0,0,0,0,0,0,0,0,0,0,0,0,0,0],"id":40,"left_children":[1,-1,3,-1,5,-1,7,-1,9,11,13,-1,-1,-1,15,-1,-1],"loss_changes":[9.430749E-1,0E0,9.296378E-1,0E0,8.663496E-1,0E0,9.50899E-1,0E0,5.8685553E-1,1.7545E-1,5.805125E-1,0E0,0E0,0E0,2.092891E-1,0E0,0E0],"parents":[2147483647,0,0,2,2,4,4,6,6,8,8,9,9,10,10,14,14],"right_children":[2,-1,4,-1,6,-1,8,-1,10,12,14,-1,-1,-1,16,-1,-1],"split_conditions":[2.00001E0,1.7672235E-1,2.00001E0,1.5546173E-1,2.00001E0,-2.2234954E-1,2.00001E0,1.6298795E-1,2.00001E0,2.00001E0,2.00001E0,9.959137E-2,-2.6051847E-2,-1.8263622E-1,2.00001E0,-6.135532E-2,6.595876E-2],"split_indices":[37,0,51,0,22,0,13,0,64,26,4,0,0,0,35,0,0],"split_type":[0,0,0,0,0,0,0,0,0,0,0,0,0,0,0,0,0],"sum_hessian":[1.3075861E1,1.4334123E0,1.1642448E1,1.1715823E0,1.0470866E1,1.3464441E0,9.124422E0,1.1895087E0,7.934913E0,2.4924808E0,5.442433E0,1.3140494E0,1.1784313E0,2.788986E0,2.653447E0,1.4038461E0,1.2496006E0],"tree_param":{"num_deleted":"0","num_feature":"4096","num_nodes":"17","size_leaf_vector":"1"}},{"base_weights":[2.872847E-2,1.5190408E-1,-8.810867E-2,-3.622708E-1,1.5217738E-1,4.329666E-2,-5.830287E-1,3.2639214E-1,-7.29472E-2,-1.2680302E-2,-2.2430529E-1,1.7735489E-2,1.2896754E-1],"categories":[],"categories_nodes":[],"categories_segments":[],"categories_sizes":[],"default_left":[0,0,0,0,0,0,0,0,0,0,0,0,0],"id":41,"left_children":[1,-1,3,5,7,-1,9,11,-1,-1,-1,-1,-1],"loss_changes":[7.648276E-1,0E0,7.94363E-1,7.0337415E-1,5.397358E-1,0E0,3.294437E-1,1.14742994E-1,0E0,0E0,0E0,0E0,0E0],"parents":[2147483647,0,0,2,2,3,3,4,4,6,6,7,7],"right_children":[2,-1,4,6,8,-1,10,12,-1,-1,-1,-1,-1],"split_conditions":[2.00001E0,1.5190408E-1,2.00001E0,2.00001E0,2.00001E0,4.329666E-2,2.00001E0,2.00001E0,-7.29472E-2,-1.2680302E-2,-2.2430529E-1,1.7735489E-2,1.2896754E-1],"split_indices":[23,0,4,64,2,0,31,35,0,0,0,0,0],"split_type":[0,0,0,0,0,0,0,0,0,0,0,0,0],"sum_hessian":[1.1906236E1,1.6848708E0,1.0221365E1,4.5370297E0,5.684335E0,1.4821191E0,3.0549104E0,4.0666485E0,1.6176865E0,1.0064001E0,2.0485103E0,1.5737767E0,2.4928718E0],"tree_param":{"num_deleted":"0","num_feature":"4096","num_nodes":"13","size_leaf_vector":"1"}},{"base_weights":[2.2840641E-2,1.582391E-1,-7.57481E-2,1.20081075E-1,-1.8145737E-1,2.467803E-1,-3.6969906E-1,1.1997889E-1,4.455295E-3,-1.861172E-2,-5.18022E-1,6.1422393E-2,-6.767222E-2,-2.1101017E-1,-2.1162565E-1,-8.244099E-3,-8.9827485E-2],"categories":[],"categories_nodes":[],"categories_segments":[],"categories_sizes":[],"default_left":[0,0,0,0,0,0,0,0,0,0,0,0,0,0,0,0,0],"id":42,"left_children":[1,-1,3,-1,5,7,9,-1,-1,11,13,-1,-1,-1,15,-1,-1],"loss_changes":[6.458824E-1,0E0,6.293295E-1,0E0,8.764735E-1,1.21011615E-1,3.6356795E-1,0E0,0E0,1.9252539E-1,1.3515532E-1,0E0,0E0,0E0,4.537356E-2,0E0,0E0],"parents":[2147483647,0,0,2,2,4,4,5,5,6,6,9,9,10,10,14,14],"right_children":[2,-1,4,-1,6,8,10,-1,-1,12,14,-1,-1,-1,16,-1,-1],"split_conditions":[2.00001E0,1.582391E-1,2.00001E0,1.20081075E-1,2.00001E0,2.00001E0,2.00001E0,1.1997889E-1,4.455295E-3,2.00001E0,2.00001E0,6.1422393E-2,-6.767222E-2,-2.1101017E-1,2.00001E0,-8.244099E-3,-8.9827485E-2],"split_indices":[37,0,41,0,20,17,64,0,0,26,4,0,0,0,3,0,0],"split_type":[0,0,0,0,0,0,0,0,0,0,0,0,0,0,0,0,0],"sum_hessian":[1.1179422E1,1.1161758E0,1.0063247E1,1.3222982E0,8.740948E0,2.5740883E0,6.1668596E0,1.1140745E0,1.4600139E0,2.165797E0,4.001063E0,1.0468124E0,1.1189845E0,1.6857228E0,2.31534E0,1.1714329E0,1.1439072E0],"tree_param":{"num_deleted":"0","num_feature":"4096","num_nodes":"17","size_leaf_vector":"1"}},{"base_weights":[2.4390757E-2,2.9792488E-1,-1.44253E-1,1.3545437E-1,3.2579799E-3,6.3119225E-2,-2.6800898E-1,-1.1695282E-3,-3.6832038E-1,-2.712504E-2,-1.4320709E-1],"categories":[],"categories_nodes":[],"categories_segments":[],"categories_sizes":[],"default_left":[0,0,0,0,0,0,0,0,0,0,0],"id":43,"left_children":[1,3,5,-1,-1,-1,7,-1,9,-1,-1],"loss_changes":[5.7502115E-1,2.0342663E-1,3.9910644E-1,0E0,0E0,0E0,1.6357484E-1,0E0,9.329504E-2,0E0,0E0],"parents":[2147483647,0,0,1,1,2,2,6,6,8,8],"right_children":[2,4,6,-1,-1,-1,8,-1,10,-1,-1],"split_conditions":[2.00001E0,2.00001E0,2.00001E0,1.3545437E-1,3.2579799E-3,6.3119225E-2,2.00001E0,-1.1695282E-3,2.00001E0,-2.712504E-2,-1.4320709E-1],"split_indices":[10,12,289,0,0,0,20,0,7,0,0],"split_type":[0,0,0,0,0,0,0,0,0,0,0],"sum_hessian":[1.0533636E1,3.7250867E0,6.8085494E0,2.053518E0,1.6715688E0,1.580157E0,5.2283926E0,1.7251354E0,3.503257E0,1.5026523E0,2.0006046E0],"tree_param":{"num_deleted":"0","num_feature":"4096","num_nodes":"11","size_leaf_vector":"1"}},{"base_weights":[2.1094054E-2,1.0973521E-1,-9.5627E-2,1.0630536E-1,-1.9830501E-1,8.395063E-2,-3.6877206E-1,1.0588477E-1,-4.389112E-2,-8.607416E-3,-1.3881512E-1],"categories":[],"categories_nodes":[],"categories_segments":[],"categories_sizes":[],"default_left":[0,0,0,0,0,0,0,0,0,0,0],"id":44,"left_children":[1,-1,3,-1,5,7,9,-1,-1,-1,-1],"loss_changes":[4.9082214E-1,0E0,4.9796045E-1,0E0,4.2445326E-1,2.9282156E-1,1.5554857E-1,0E0,0E0,0E0,0E0],"parents":[2147483647,0,0,2,2,4,4,5,5,6,6],"right_children":[2,-1,4,-1,6,8,10,-1,-1,-1,-1],"split_conditions":[2.00001E0,1.0973521E-1,2.00001E0,1.0630536E-1,2.00001E0,2.00001E0,2.00001E0,1.0588477E-1,-4.389112E-2,-8.607416E-3,-1.3881512E-1],"split_indices":[13,0,55,0,64,0,20,0,0,0,0],"split_type":[0,0,0,0,0,0,0,0,0,0,0],"sum_hessian":[1.0330204E1,2.0733995E0,8.256804E0,1.0786436E0,7.178161E0,2.8939493E0,4.284212E0,1.0889262E0,1.8050231E0,1.209874E0,3.074338E0],"tree_param":{"num_deleted":"0","num_feature":"4096","num_nodes":"11","size_leaf_vector":"1"}},{"base_weights":[2.7850471E-2,1.09198555E-1,-8.22769E-2,1.0566081E-1,-1.8937917E-1,8.498381E-2,-3.0439934E-1,7.7102594E-2,-1.7893247E-1,9.3705565E-2,-3.49859E-2],"categories":[],"categories_nodes":[],"categories_segments":[],"categories_sizes":[],"default_left":[0,0,0,0,0,0,0,0,0,0,0],"id":45,"left_children":[1,-1,3,-1,5,-1,7,9,-1,-1,-1],"loss_changes":[4.3214813E-1,0E0,4.8547012E-1,0E0,5.140803E-1,0E0,8.049055E-1,2.1138096E-1,0E0,0E0,0E0],"parents":[2147483647,0,0,2,2,4,4,6,6,7,7],"right_children":[2,-1,4,-1,6,-1,8,10,-1,-1,-1],"split_conditions":[2.00001E0,1.09198555E-1,2.00001E0,1.0566081E-1,2.00001E0,8.498381E-2,2.00001E0,2.00001E0,-1.7893247E-1,9.3705565E-2,-3.49859E-2],"split_indices":[27,0,55,0,31,0,64,0,0,0,0],"split_type":[0,0,0,0,0,0,0,0,0,0,0],"sum_hessian":[9.864762E0,1.8654822E0,7.99928E0,1.1293596E0,6.8699203E0,1.0582656E0,5.811655E0,2.8389945E0,2.9726603E0,1.0055372E0,1.8334575E0],"tree_param":{"num_deleted":"0","num_feature":"4096","num_nodes":"11","size_leaf_vector":"1"}},{"base_weights":[3.6949273E-2,-1.04981296E-1,1.3460912E-1,2.2861314E-1,-8.046769E-2,-7.949687E-2,4.4776532E-1,7.729366E-2,-9.1843516E-2,3.605938E-2,1.6814893E-1],"categories":[],"categories_nodes":[],"categories_segments":[],"categories_sizes":[],"default_left":[0,0,0,0,0,0,0,0,0,0,0],"id":46,"left_children":[1,-1,3,5,-1,7,9,-1,-1,-1,-1],"loss_changes":[4.351493E-1,0E0,3.9919782E-1,5.6053233E-1,0E0,3.906793E-1,1.05953276E-1,0E0,0E0,0E0,0E0],"parents":[2147483647,0,0,2,2,3,3,5,5,6,6],"right_children":[2,-1,4,6,-1,8,10,-1,-1,-1,-1],"split_conditions":[2.00001E0,-1.04981296E-1,2.00001E0,2.00001E0,-8.046769E-2,2.00001E0,2.00001E0,7.729366E-2,-9.1843516E-2,3.605938E-2,1.6814893E-1],"split_indices":[22,0,2,4,0,64,35,0,0,0,0],"split_type":[0,0,0,0,0,0,0,0,0,0,0],"sum_hessian":[9.270262E0,1.3477635E0,7.922498E0,6.774188E0,1.1483103E0,3.0805042E0,3.6936836E0,1.1834064E0,1.897098E0,1.4747314E0,2.2189522E0],"tree_param":{"num_deleted":"0","num_feature":"4096","num_nodes":"11","size_leaf_vector":"1"}},{"base_weights":[2.9515037E-2,1.2180717E-1,-5.981966E-2,9.983471E-2,-1.5780623E-1,6.684556E-2,-2.5196618E-1,-1.8433543E-2,-3.640144E-1,-4.9857337E-2,4.1374423E-2,3.334626E-2,-5.66314E-1,-3.232131E-2,-2.4294221E-1],"categories":[],"categories_nodes":[],"categories_segments":[],"categories_sizes":[],"default_left":[0,0,0,0,0,0,0,0,0,0,0,0,0,0,0],"id":47,"left_children":[1,-1,3,-1,5,-1,7,9,11,-1,-1,-1,13,-1,-1],"loss_changes":[3.5690862E-1,0E0,3.9351845E-1,0E0,3.3469042E-1,0E0,1.6860819E-1,9.743898E-2,4.9304736E-1,0E0,0E0,0E0,2.8148925E-1,0E0,0E0],"parents":[2147483647,0,0,2,2,4,4,6,6,7,7,8,8,12,12],"right_children":[2,-1,4,-1,6,-1,8,10,12,-1,-1,-1,14,-1,-1],"split_conditions":[2.00001E0,1.2180717E-1,2.00001E0,9.983471E-2,2.00001E0,6.684556E-2,2.00001E0,2.00001E0,2.00001E0,-4.9857337E-2,4.1374423E-2,3.334626E-2,2.00001E0,-3.232131E-2,-2.4294221E-1],"split_indices":[23,0,55,0,50,0,7,4,3,0,0,0,26,0,0],"split_type":[0,0,0,0,0,0,0,0,0,0,0,0,0,0,0],"sum_hessian":[8.889027E0,1.0248277E0,7.864199E0,1.0921373E0,6.7720623E0,1.0720618E0,5.7000003E0,2.2256918E0,3.4743085E0,1.1119163E0,1.1137755E0,1.1720057E0,2.3023028E0,1.2987695E0,1.0035334E0],"tree_param":{"num_deleted":"0","num_feature":"4096","num_nodes":"15","size_leaf_vector":"1"}},{"base_weights":[2.5092434E-2,2.5170705E-1,-1.1046139E-1,1.204587E-1,-3.4370576E-3,7.674664E-2,-2.2837266E-1,3.9339457E-3,-3.4366456E-1,-2.972887E-2,-1.2751056E-1],"categories":[],"categories_nodes":[],"categories_segments":[],"categories_sizes":[],"default_left":[0,0,0,0,0,0,0,0,0,0,0],"id":48,"left_children":[1,3,5,-1,-1,-1,7,-1,9,-1,-1],"loss_changes":[3.2164878E-1,1.577889E-1,3.469438E-1,0E0,0E0,0E0,1.5991583E-1,0E0,3.3800006E-2,0E0,0E0],"parents":[2147483647,0,0,1,1,2,2,6,6,8,8],"right_children":[2,4,6,-1,-1,-1,8,-1,10,-1,-1],"split_conditions":[2.00001E0,2.00001E0,2.00001E0,1.204587E-1,-3.4370576E-3,7.674664E-2,2.00001E0,3.9339457E-3,2.00001E0,-2.972887E-2,-1.2751056E-1],"split_indices":[10,12,297,0,0,0,20,0,7,0,0],"split_type":[0,0,0,0,0,0,0,0,0,0,0],"sum_hessian":[8.565737E0,2.8853016E0,5.680435E0,1.5035435E0,1.3817582E0,1.0984764E0,4.581959E0,1.7670429E0,2.8149161E0,1.2564263E0,1.5584898E0],"tree_param":{"num_deleted":"0","num_feature":"4096","num_nodes":"11","size_leaf_vector":"1"}},{"base_weights":[2.3274576E-2,1.0111547E-1,-5.7844665E-2,1.8993224E-1,-1.8434139E-1,-6.1544566E-3,9.6874245E-2,1.6323913E-2,-3.230993E-1,-2.8515661E-2,-1.190789E-1],"categories":[],"categories_nodes":[],"categories_segments":[],"categories_sizes":[],"default_left":[0,0,0,0,0,0,0,0,0,0,0],"id":49,"left_children":[1,-1,3,5,7,-1,-1,-1,9,-1,-1],"loss_changes":[2.5976938E-1,0E0,2.9685614E-1,9.9426605E-2,2.1761696E-1,0E0,0E0,0E0,2.899307E-2,0E0,0E0],"parents":[2147483647,0,0,2,2,3,3,4,4,8,8],"right_children":[2,-1,4,6,8,-1,-1,-1,10,-1,-1],"split_conditions":[2.00001E0,1.0111547E-1,2.00001E0,2.00001E0,2.00001E0,-6.1544566E-3,9.6874245E-2,1.6323913E-2,2.00001E0,-2.8515661E-2,-1.190789E-1],"split_indices":[41,0,20,4,3,0,0,0,26,0,0],"split_type":[0,0,0,0,0,0,0,0,0,0,0],"sum_hessian":[8.439729E0,1.0855814E0,7.354147E0,2.3160594E0,5.0380874E0,1.2243024E0,1.091757E0,2.075215E0,2.9628725E0,1.2840726E0,1.6787999E0],"tree_param":{"num_deleted":"0","num_feature":"4096","num_nodes":"11","size_leaf_vector":"1"}},{"base_weights":[2.3888733E-2,9.94652E-2,-8.780634E-2,2.6716378E-1,-1.2913585E-1,8.5926235E-2,1.2070065E-1,-9.864846E-2,4.4853214E-2,4.081714E-2,1.4621078E-3],"categories":[],"categories_nodes":[],"categories_segments":[],"categories_sizes":[],"default_left":[0,0,0,0,0,0,0,0,0,0,0],"id":50,"left_children":[1,3,-1,5,7,9,-1,-1,-1,-1,-1],"loss_changes":[2.5240874E-1,3.5194635E-1,0E0,9.042916E-2,2.816521E-1,1.3360567E-2,0E0,0E0,0E0,0E0,0E0],"parents":[2147483647,0,0,1,1,3,3,4,4,5,5],"right_children":[2,4,-1,6,8,10,-1,-1,-1,-1,-1],"split_conditions":[2.00001E0,2.00001E0,-8.780634E-2,2.00001E0,2.00001E0,2.00001E0,1.2070065E-1,-9.864846E-2,4.4853214E-2,4.081714E-2,1.4621078E-3],"split_indices":[2,12,0,0,4,35,0,0,0,0,0],"split_type":[0,0,0,0,0,0,0,0,0,0,0],"sum_hessian":[8.332901E0,7.280607E0,1.0522931E0,4.102431E0,3.1781769E0,2.4513521E0,1.6510786E0,1.7464739E0,1.431703E0,1.0952884E0,1.3560637E0],"tree_param":{"num_deleted":"0","num_feature":"4096","num_nodes":"11","size_leaf_vector":"1"}},{"base_weights":[2.0099852E-2,-8.4960565E-2,9.8332256E-2,1.8333721E-1,-7.036237E-2,4.2341876E-1,-1.9833775E-2,1.5325832E-1,4.432872E-2,-8.230233E-2,6.2144246E-2],"categories":[],"categories_nodes":[],"categories_segments":[],"categories_sizes":[],"default_left":[0,0,0,0,0,0,0,0,0,0,0],"id":51,"left_children":[1,-1,3,5,-1,7,9,-1,-1,-1,-1],"loss_changes":[2.4489146E-1,0E0,2.6975834E-1,3.4715426E-1,0E0,2.3227334E-3,3.2931504E-1,0E0,0E0,0E0,0E0],"parents":[2147483647,0,0,2,2,3,3,5,5,6,6],"right_children":[2,-1,4,6,-1,8,10,-1,-1,-1,-1],"split_conditions":[2.00001E0,-8.4960565E-2,2.00001E0,2.00001E0,-7.036237E-2,2.00001E0,2.00001E0,1.5325832E-1,4.432872E-2,-8.230233E-2,6.2144246E-2],"split_indices":[22,0,2,64,0,12,4,0,0,0,0],"split_type":[0,0,0,0,0,0,0,0,0,0,0],"sum_hessian":[8.147142E0,1.133322E0,7.01382E0,5.9449134E0,1.0689071E0,2.2280438E0,3.7168694E0,1.0437106E0,1.1843333E0,1.6538291E0,2.0630403E0],"tree_param":{"num_deleted":"0","num_feature":"4096","num_nodes":"11","size_leaf_vector":"1"}},{"base_weights":[1.8344946E-2,9.982997E-2,-6.905441E-2,1.7532597E-1,-1.9499089E-1,5.688986E-3,7.7267274E-2,1.3656438E-2,-3.195064E-1,6.911404E-3,-1.803036E-1],"categories":[],"categories_nodes":[],"categories_segments":[],"categories_sizes":[],"default_left":[0,0,0,0,0,0,0,0,0,0,0],"id":52,"left_children":[1,-1,3,5,7,-1,-1,-1,9,-1,-1],"loss_changes":[2.6789132E-1,0E0,2.7430296E-1,3.6001854E-2,1.8291321E-1,0E0,0E0,0E0,3.8307527E-1,0E0,0E0],"parents":[2147483647,0,0,2,2,3,3,4,4,8,8],"right_children":[2,-1,4,6,8,-1,-1,-1,10,-1,-1],"split_conditions":[2.00001E0,9.982997E-2,2.00001E0,2.00001E0,2.00001E0,5.688986E-3,7.7267274E-2,1.3656438E-2,2.00001E0,6.911404E-3,-1.803036E-1],"split_indices":[41,0,20,4,7,0,0,0,26,0,0],"split_type":[0,0,0,0,0,0,0,0,0,0,0],"sum_hessian":[7.9123025E0,1.1103526E0,6.80195E0,2.17982E0,4.62213E0,1.1754051E0,1.0044149E0,1.7930712E0,2.829059E0,1.690351E0,1.1387079E0],"tree_param":{"num_deleted":"0","num_feature":"4096","num_nodes":"11","size_leaf_vector":"1"}},{"base_weights":[1.6006297E-2,9.227481E-2,-7.707367E-2,3.944745E-2,-1.8352607E-1,-3.957721E-2,6.579591E-2,-7.120534E-2,-1.5302523E-2],"categories":[],"categories_nodes":[],"categories_segments":[],"categories_sizes":[],"default_left":[0,0,0,0,0,0,0,0,0],"id":53,"left_children":[1,-1,3,5,7,-1,-1,-1,-1],"loss_changes":[2.622506E-1,0E0,9.9799976E-2,1.6412212E-1,1.6969696E-2,0E0,0E0,0E0,0E0],"parents":[2147483647,0,0,2,2,3,3,4,4],"right_children":[2,-1,4,6,8,-1,-1,-1,-1],"split_conditions":[2.00001E0,9.227481E-2,2.00001E0,2.00001E0,2.00001E0,-3.957721E-2,6.579591E-2,-7.120534E-2,-1.5302523E-2],"split_indices":[13,0,3,7,19,0,0,0,0],"split_type":[0,0,0,0,0,0,0,0,0],"sum_hessian":[7.789417E0,1.3272521E0,6.4621644E0,3.385684E0,3.0764804E0,1.8703221E0,1.5153619E0,1.6252556E0,1.4512249E0],"tree_param":{"num_deleted":"0","num_feature":"4096","num_nodes":"9","size_leaf_vector":"1"}},{"base_weights":[1.5655322E-2,2.109275E-1,-9.7012475E-2,9.835105E-2,1.3796729E-3,3.8918667E-2,-1.8091784E-1,-9.3506963E-4,-2.5396228E-1,2.796711E-2,-1.560973E-1],"categories":[],"categories_nodes":[],"categories_segments":[],"categories_sizes":[],"default_left":[0,0,0,0,0,0,0,0,